svm_type c_svc
kernel_type rbf
gamma 0.5
nr_class 2
total_sv 625
rho -0.00108227
label 1 -1
nr_sv 313 312
SV
1 1:-0.228557 2:-0.0297619 
1 1:0.843266 2:0.339923 
1 1:-0.306637 2:0.121857 
1 1:-0.335319 2:0.374502 
1 1:-0.274236 2:0.104809 
1 1:-0.322276 2:0.202238 
1 1:-0.239779 2:0.230333 
1 1:-0.246222 2:0.172737 
1 1:-0.279456 2:0.0943345 
1 1:0.189816 2:-0.552445 
1 1:0.814976 2:0.0225667 
1 1:0.65649 2:-0.354477 
1 1:-0.373461 2:0.196855 
1 1:-0.361459 2:0.17073 
1 1:-0.306772 2:0.180604 
1 1:-0.424715 2:0.075937 
1 1:-0.226278 2:0.251157 
1 1:-0.3503 2:0.297237 
1 1:-0.30248 2:0.119818 
1 1:-0.258678 2:0.0202094 
1 1:0.154925 2:-0.578677 
1 1:-0.316935 2:0.130492 
1 1:-0.220588 2:-0.060962 
1 1:-0.316767 2:0.00221711 
1 1:-0.186247 2:0.165623 
1 1:0.269788 2:-0.638404 
1 1:-0.345599 2:0.0470515 
1 1:0.743969 2:-0.150585 
1 1:0.147643 2:-0.582528 
1 1:-0.314993 2:0.182726 
1 1:-0.378351 2:0.235219 
1 1:0.820333 2:0.128369 
1 1:-0.327184 2:0.177507 
1 1:-0.295644 2:0.129251 
1 1:-0.307404 2:0.0651293 
1 1:-0.347215 2:0.13418 
1 1:0.863978 2:0.363722 
1 1:-0.284367 2:0.221095 
1 1:-0.292283 2:-0.000122333 
1 1:0.795567 2:0.14559 
1 1:-0.311305 2:0.232435 
1 1:-0.313836 2:0.0192177 
1 1:-0.326069 2:0.363927 
1 1:-0.285 2:-0.0226706 
1 1:0.796003 2:-0.0795375 
1 1:0.478418 2:-0.562245 
1 1:0.839967 2:0.182301 
1 1:-0.335629 2:0.0655027 
1 1:-0.276425 2:0.197865 
1 1:0.841548 2:0.195934 
1 1:0.747593 2:-0.228216 
1 1:-0.300121 2:0.0466989 
1 1:-0.308443 2:0.0365529 
1 1:-0.239518 2:0.0172104 
1 1:-0.147652 2:-0.216724 
1 1:0.821606 2:0.0376427 
1 1:-0.357134 2:0.0714225 
1 1:0.780897 2:0.0484836 
1 1:-0.333118 2:0.0881865 
1 1:-0.249325 2:0.0700525 
1 1:0.848694 2:0.265436 
1 1:-0.256332 2:0.064609 
1 1:-0.315009 2:0.229607 
1 1:-0.135583 2:-0.265164 
1 1:-0.19216 2:0.309073 
1 1:-0.183373 2:0.116329 
1 1:-0.30138 2:0.102633 
1 1:0.801626 2:0.126701 
1 1:-0.263882 2:0.131627 
1 1:0.0132666 2:-0.44496 
1 1:-0.0416025 2:-0.368412 
1 1:-0.294236 2:0.143941 
1 1:0.829907 2:0.226685 
1 1:-0.264056 2:0.110424 
1 1:-0.202662 2:-0.0922575 
1 1:-0.289448 2:0.0251603 
1 1:0.848654 2:0.302253 
1 1:-0.193012 2:-0.145453 
1 1:-0.264413 2:0.0855061 
1 1:-0.23914 2:0.0298381 
1 1:-0.226898 2:0.0458904 
1 1:-0.269088 2:-0.0454362 
1 1:-0.353962 2:0.225674 
1 1:0.786431 2:0.11016 
1 1:-0.400625 2:0.226291 
1 1:0.773296 2:-0.13887 
1 1:-0.305739 2:0.059602 
1 1:-0.314543 2:0.0167013 
1 1:-0.373892 2:0.0548676 
1 1:0.810055 2:-0.00824216 
1 1:-0.262455 2:0.0938547 
1 1:-0.304181 2:0.103131 
1 1:-0.200413 2:-0.148119 
1 1:-0.076145 2:-0.325223 
1 1:-0.269243 2:0.0315569 
1 1:0.650662 2:-0.394726 
1 1:0.828219 2:0.173818 
1 1:-0.230379 2:0.279291 
0.01497751117405523 1:-0.342301 2:0.00421047 
1 1:-0.28127 2:0.0571244 
1 1:0.801361 2:0.319624 
1 1:0.843591 2:0.156559 
1 1:0.747929 2:0.118479 
1 1:-0.363081 2:0.259102 
1 1:-0.13766 2:-0.252975 
1 1:-0.318005 2:0.0994319 
1 1:-0.347674 2:0.333081 
1 1:-0.31469 2:0.163014 
1 1:0.717805 2:-0.0815117 
1 1:-0.225497 2:-0.0375039 
1 1:-0.32195 2:0.125117 
1 1:-0.341966 2:0.17888 
1 1:-0.278884 2:0.0780087 
1 1:-0.213165 2:-0.0221853 
1 1:0.817064 2:0.053409 
1 1:-0.29243 2:0.057162 
1 1:0.782742 2:-0.0710443 
1 1:-0.385824 2:0.141521 
1 1:-0.281332 2:0.318133 
1 1:0.844233 2:0.229789 
1 1:-0.00928943 2:-0.456926 
1 1:-0.314917 2:0.0563336 
1 1:-0.302266 2:0.0236459 
1 1:0.504382 2:-0.451051 
1 1:0.810318 2:0.196432 
1 1:0.355187 2:-0.63029 
1 1:0.560192 2:-0.517645 
1 1:-0.427794 2:0.102936 
1 1:-0.34126 2:0.0435393 
1 1:-0.256109 2:-0.022042 
1 1:0.503741 2:-0.476783 
1 1:-0.243192 2:-0.0051518 
1 1:-0.295879 2:0.153591 
1 1:-0.417248 2:0.0369784 
1 1:-0.171638 2:-0.194199 
1 1:0.798392 2:0.280202 
1 1:0.702632 2:-0.308571 
1 1:-0.351912 2:0.166558 
1 1:-0.316982 2:0.172516 
1 1:-0.0300892 2:-0.42196 
1 1:-0.315077 2:0.328958 
1 1:0.717338 2:-0.268594 
1 1:-0.336191 2:0.0466708 
1 1:0.22082 2:-0.602658 
1 1:-0.299215 2:0.331015 
1 1:0.0592717 2:-0.441799 
1 1:0.829434 2:0.132946 
1 1:-0.317467 2:0.381025 
1 1:0.604974 2:-0.463901 
1 1:-0.398963 2:0.139896 
1 1:-0.360674 2:0.0601662 
1 1:0.397453 2:-0.619958 
1 1:-0.334336 2:0.185158 
1 1:0.678636 2:-0.37893 
1 1:-0.266835 2:-0.026118 
1 1:0.802403 2:0.129242 
1 1:-0.283782 2:0.341417 
1 1:0.723246 2:-0.178514 
1 1:0.758312 2:-0.163605 
1 1:0.558713 2:-0.491435 
1 1:0.774933 2:-0.0880546 
1 1:-0.365823 2:0.205197 
1 1:-0.269905 2:0.0807438 
1 1:-0.25166 2:0.135457 
1 1:-0.316957 2:0.150476 
1 1:0.728289 2:-0.235357 
1 1:0.820532 2:0.0732079 
1 1:-0.26859 2:0.100182 
1 1:-0.365135 2:0.136264 
1 1:-0.316441 2:0.177377 
1 1:-0.211589 2:0.113119 
1 1:-0.152543 2:-0.225595 
1 1:-0.252763 2:0.100137 
1 1:0.50649 2:-0.561186 
1 1:-0.301084 2:0.245078 
1 1:0.819017 2:0.08845 
1 1:-0.30137 2:0.122244 
1 1:0.653442 2:-0.420035 
1 1:-0.304156 2:0.129217 
1 1:-0.316862 2:0.208063 
1 1:0.713072 2:-0.301451 
1 1:-0.262792 2:0.263422 
1 1:-0.356159 2:0.135993 
1 1:0.834439 2:0.162023 
1 1:-0.316463 2:0.118077 
1 1:-0.244938 2:-0.074615 
1 1:-0.280065 2:0.0704548 
1 1:-0.271562 2:0.135182 
1 1:-0.200187 2:-0.144019 
1 1:-0.380248 2:0.148386 
1 1:-0.276076 2:0.0249601 
1 1:0.819245 2:0.0895868 
1 1:-0.0782453 2:-0.321054 
1 1:-0.353156 2:0.259235 
1 1:-0.268622 2:-0.0337211 
1 1:-0.287058 2:-0.0044753 
1 1:-0.299387 2:0.257037 
1 1:0.780772 2:-0.0897063 
1 1:-0.326051 2:0.356999 
1 1:-0.295148 2:-0.0142942 
1 1:-0.317516 2:0.023478 
1 1:0.791388 2:0.0986896 
1 1:-0.18067 2:-0.178185 
1 1:-0.279655 2:0.113588 
1 1:0.430125 2:-0.560045 
1 1:-0.330994 2:0.173213 
1 1:-0.315173 2:0.204275 
1 1:0.685534 2:-0.306041 
1 1:-0.362209 2:0.311044 
1 1:-0.294566 2:0.103143 
1 1:-0.310097 2:0.211065 
1 1:-0.336538 2:0.180142 
1 1:-0.258299 2:-0.0303672 
1 1:-0.298159 2:0.0551474 
1 1:0.773114 2:-0.141348 
1 1:-0.297032 2:-0.00556712 
1 1:-0.246688 2:-0.0156692 
1 1:-0.107796 2:-0.304295 
1 1:-0.301721 2:0.0377081 
1 1:0.723788 2:-0.198355 
1 1:-0.180458 2:-0.160898 
1 1:0.793834 2:0.0910162 
1 1:-0.329997 2:0.00943174 
1 1:0.0748547 2:-0.467355 
1 1:0.604179 2:-0.479502 
1 1:-0.299797 2:0.383178 
1 1:0.80535 2:0.0409242 
1 1:0.44068 2:-0.592282 
1 1:-0.305666 2:0.321871 
1 1:-0.1986 2:-0.0226694 
1 1:0.767632 2:0.00349683 
1 1:-0.282553 2:0.0386631 
1 1:-0.341287 2:0.178141 
1 1:0.672589 2:-0.369511 
0.4478453784455373 1:-0.0919314 2:-0.341435 
1 1:-0.261423 2:0.0813027 
1 1:0.694982 2:-0.343372 
1 1:0.825183 2:0.0510572 
1 1:0.561669 2:-0.504591 
1 1:0.800535 2:0.268757 
1 1:0.758061 2:-0.175796 
1 1:-0.368689 2:0.283926 
1 1:0.744704 2:-0.180836 
1 1:0.681416 2:-0.356504 
1 1:0.516073 2:-0.554399 
1 1:0.821036 2:0.158117 
1 1:0.776609 2:-0.162661 
1 1:-0.321264 2:0.00974204 
1 1:-0.154829 2:-0.0624694 
1 1:-0.279944 2:0.141337 
1 1:-0.333654 2:0.185752 
1 1:-0.269652 2:-0.0330213 
1 1:-0.261665 2:0.0810768 
1 1:-0.343796 2:0.245556 
1 1:-0.251258 2:0.166749 
1 1:0.842401 2:0.241225 
1 1:-0.296502 2:0.147948 
1 1:-0.348693 2:0.200089 
1 1:-0.175274 2:-0.166495 
1 1:-0.340956 2:0.0450429 
1 1:0.102825 2:-0.529146 
0.9760807700203348 1:0.2945 2:-0.643215 
1 1:0.710066 2:-0.276886 
1 1:0.77985 2:0.152458 
1 1:0.780712 2:-0.0929333 
1 1:-0.334066 2:0.121541 
1 1:-0.342204 2:0.241805 
1 1:-0.349352 2:0.190748 
1 1:-0.269991 2:0.0638184 
1 1:-0.295148 2:0.221252 
1 1:-0.29022 2:0.22924 
0.4962299150825222 1:0.861598 2:0.281661 
1 1:-0.246336 2:-0.0358681 
1 1:-0.234922 2:-0.0712815 
1 1:-0.358973 2:0.0531208 
1 1:-0.303332 2:0.106719 
1 1:0.446307 2:-0.590948 
1 1:0.49456 2:-0.586529 
1 1:0.625834 2:-0.439178 
1 1:-0.282008 2:0.135265 
1 1:-0.243926 2:0.211613 
1 1:-0.299573 2:0.00893121 
1 1:0.815953 2:-0.00825021 
1 1:-0.323761 2:0.249299 
1 1:-0.229851 2:0.021599 
1 1:-0.333368 2:0.366451 
1 1:0.53303 2:-0.540889 
1 1:-0.314617 2:0.175619 
1 1:-0.22732 2:-0.0556887 
1 1:0.0511376 2:-0.525824 
1 1:-0.32443 2:0.128941 
1 1:-0.308125 2:0.294022 
1 1:-0.297793 2:0.0887758 
1 1:0.226807 2:-0.617618 
1 1:0.815937 2:0.224037 
1 1:-0.418828 2:0.0962676 
1 1:-0.361172 2:0.150897 
1 1:0.662214 2:-0.267882 
1 1:-0.307647 2:0.217286 
0.507808404076931 1:0.845216 2:0.147699 
1 1:-0.298917 2:0.0886652 
1 1:-0.219443 2:-0.109581 
1 1:0.669743 2:-0.301008 
1 1:-0.163155 2:0.018836 
1 1:-0.331416 2:0.222051 
1 1:-0.318041 2:0.0902304 
1 1:-0.213326 2:-0.00879347 
1 1:-0.333808 2:0.0669044 
1 1:0.222818 2:-0.614324 
1 1:0.441819 2:-0.571908 
1 1:0.74617 2:-0.195296 
1 1:0.386947 2:-0.560676 
1 1:0.815078 2:0.155981 
-1 1:-0.697564 2:0.345062 
-1 1:-0.85962 2:-0.292986 
-1 1:0.229266 2:-0.138039 
-1 1:0.261607 2:-0.146795 
-1 1:-0.843592 2:-0.223077 
-1 1:0.267207 2:-0.170736 
-1 1:0.292956 2:-0.229134 
-1 1:0.281182 2:-0.0238238 
-1 1:0.240926 2:0.0454049 
-1 1:0.302977 2:-0.0290845 
-1 1:0.280539 2:-0.0610568 
-1 1:0.22998 2:0.0948626 
-1 1:0.24 2:-0.304222 
-1 1:0.269136 2:-0.0503244 
-1 1:0.318449 2:-0.0901387 
-1 1:0.314883 2:-0.0774526 
-1 1:0.220541 2:-0.138377 
-1 1:0.34439 2:-0.213169 
-1 1:0.234326 2:-0.104336 
-1 1:0.274522 2:-0.176485 
-1 1:0.241539 2:-0.000689787 
-1 1:0.347555 2:-0.0993035 
-1 1:0.305397 2:-0.158169 
-1 1:-0.811627 2:0.0932291 
-1 1:-0.853905 2:-0.072539 
-1 1:0.217823 2:-0.0914267 
-1 1:0.147971 2:0.167603 
-1 1:0.248008 2:0.0720711 
-1 1:0.309335 2:-0.201278 
-1 1:-0.802994 2:0.169127 
-1 1:0.291663 2:-0.262172 
-1 1:-0.844398 2:-0.0631204 
-1 1:-0.782524 2:0.202992 
-1 1:0.329531 2:-0.148369 
-1 1:0.285687 2:-0.0825703 
-1 1:0.261918 2:-0.1205 
-1 1:0.351815 2:-0.362356 
-1 1:-0.443237 2:0.652129 
-1 1:-0.703825 2:0.356245 
-1 1:-0.62736 2:0.50768 
-1 1:-0.777515 2:0.209392 
-1 1:-0.778239 2:-0.0361136 
-1 1:0.270481 2:-0.0284241 
-1 1:0.300089 2:-0.274641 
-1 1:0.299876 2:0.00112648 
-1 1:-0.574641 2:0.559254 
-1 1:0.236381 2:-0.121293 
-1 1:0.337968 2:-0.241233 
-1 1:0.306028 2:-0.108729 
-1 1:0.271267 2:-0.111759 
-1 1:0.270377 2:-0.130433 
-1 1:0.278443 2:-0.14396 
-1 1:0.281627 2:-0.108182 
-1 1:-0.798304 2:0.193691 
-1 1:0.146245 2:0.24434 
-1 1:-0.739369 2:0.276023 
-1 1:0.263992 2:0.0414849 
-1 1:0.235084 2:-0.275512 
-1 1:0.295935 2:-0.0371389 
-1 1:0.237072 2:-0.00825147 
-1 1:0.337152 2:-0.176357 
-1 1:0.301329 2:-0.0270283 
-1 1:0.281242 2:0.027222 
-1 1:0.300254 2:-0.117061 
-1 1:-0.723731 2:0.370556 
-1 1:-0.632675 2:0.376928 
-1 1:-0.377748 2:0.661996 
-1 1:0.0224758 2:0.436305 
-1 1:0.272023 2:-0.153085 
-1 1:0.251456 2:-0.150554 
-1 1:0.318658 2:-0.1439 
-1 1:0.318168 2:-0.21285 
-1 1:-0.422797 2:0.658066 
-1 1:0.320263 2:-0.117414 
-1 1:0.238247 2:0.0584135 
-1 1:-0.878655 2:-0.18843 
-1 1:-0.688022 2:0.370868 
-1 1:0.117544 2:0.25697 
-1 1:0.324751 2:-0.0706349 
-1 1:0.232733 2:-0.176862 
-1 1:0.299083 2:-0.210002 
-1 1:0.392184 2:-0.172226 
-1 1:-0.631275 2:0.446381 
-1 1:0.245677 2:-0.022848 
-1 1:0.315238 2:-0.142575 
-1 1:-0.8073 2:0.00130781 
-0.863794221162972 1:-0.766449 2:0.286405 
-1 1:-0.602881 2:0.51264 
-1 1:0.295195 2:-0.0285973 
-1 1:-0.821932 2:-0.0481879 
-1 1:-0.880661 2:-0.308084 
-1 1:0.194904 2:-0.0333225 
-1 1:0.241577 2:-0.23648 
-1 1:0.235893 2:-0.0757591 
-1 1:0.086319 2:0.355619 
-1 1:-0.789443 2:0.214738 
-1 1:0.328307 2:-0.127758 
-1 1:0.0993711 2:0.305982 
-1 1:-0.833741 2:-0.277182 
-1 1:0.272194 2:0.0290208 
-1 1:-0.836256 2:-0.0257389 
-1 1:0.379172 2:-0.176919 
-1 1:-0.867911 2:-0.224503 
-1 1:0.176173 2:0.170419 
-1 1:-0.86513 2:-0.170194 
-1 1:0.234744 2:-0.118735 
-1 1:-0.820787 2:0.0508069 
-1 1:0.0133674 2:0.46315 
-1 1:0.261831 2:-0.208069 
-1 1:0.353719 2:-0.101524 
-1 1:0.271825 2:0.00939748 
-1 1:0.318291 2:-0.164137 
-1 1:-0.863413 2:-0.112054 
-1 1:0.156699 2:-0.168484 
-1 1:0.288291 2:-0.318437 
-1 1:0.301343 2:-0.105572 
-1 1:-0.574391 2:0.560533 
-1 1:0.256871 2:-0.0110937 
-1 1:0.304159 2:-0.179019 
-1 1:0.238274 2:-0.16764 
-1 1:0.267055 2:-0.033772 
-1 1:-0.831038 2:0.0734028 
-1 1:-0.809898 2:-0.164893 
-1 1:0.297278 2:0.0285825 
-1 1:0.266189 2:-0.00516035 
-1 1:0.278142 2:0.0350257 
-1 1:-0.389878 2:0.675 
-1 1:0.284408 2:-0.290754 
-1 1:-0.87395 2:-0.182001 
-1 1:-0.682862 2:0.406644 
-1 1:-0.840844 2:-0.0594914 
-1 1:-0.763465 2:0.140327 
-1 1:-0.821248 2:0.0112686 
-1 1:0.283777 2:0.0216509 
-1 1:0.292165 2:-0.095437 
-0.997797698186459 1:-0.022107 2:0.524309 
-1 1:0.292111 2:0.0228648 
-1 1:-0.835986 2:-0.192029 
-0.1085094859567502 1:-0.565602 2:0.583849 
-1 1:-0.743598 2:0.224457 
-1 1:0.224897 2:-0.198865 
-1 1:0.284287 2:0.0319023 
-1 1:0.299945 2:0.0073113 
-1 1:0.31013 2:-0.120421 
-1 1:0.250379 2:-0.0358353 
-1 1:0.287339 2:-0.252721 
-1 1:0.321048 2:-0.301599 
-1 1:-0.210799 2:0.643593 
-1 1:0.218004 2:0.0345956 
-1 1:-0.655667 2:0.469675 
-1 1:0.268544 2:-0.0952058 
-1 1:-0.857248 2:-0.279664 
-1 1:-0.482169 2:0.590233 
-1 1:0.0830908 2:0.250978 
-1 1:0.330311 2:-0.152985 
-1 1:-0.815116 2:-0.172037 
-1 1:0.263802 2:-0.0358442 
-1 1:0.284369 2:-0.162321 
-1 1:0.196088 2:0.0926981 
-1 1:0.20981 2:0.101071 
-1 1:0.280636 2:-0.18602 
-1 1:-0.815907 2:0.000820902 
-1 1:0.289769 2:-0.0682109 
-1 1:0.13374 2:0.226796 
-1 1:0.284601 2:0.0193483 
-1 1:0.280411 2:-0.0755535 
-1 1:0.179264 2:0.112458 
-1 1:-0.837835 2:-0.1242 
-1 1:0.242285 2:0.0257457 
-1 1:0.263796 2:-0.101684 
-1 1:-0.850198 2:-0.0208644 
-1 1:-0.616018 2:0.534349 
-1 1:0.227835 2:-0.016701 
-0.7786590608760231 1:-0.866169 2:-0.085285 
-1 1:-0.619603 2:0.51594 
-1 1:-0.796817 2:0.131602 
-1 1:0.350568 2:-0.217577 
-1 1:0.252435 2:-0.139385 
-1 1:0.273658 2:-0.0291905 
-1 1:-0.879865 2:-0.273456 
-1 1:-0.85861 2:-0.0828487 
-1 1:0.272646 2:-0.155535 
-1 1:0.219106 2:0.124176 
-1 1:0.160068 2:0.0586609 
-1 1:0.368564 2:-0.129211 
-1 1:0.218958 2:0.110501 
-0.927225580408591 1:-0.509637 2:0.625417 
-1 1:0.0420183 2:0.41547 
-1 1:0.300891 2:-0.179754 
-1 1:0.3362 2:0.0211214 
-1 1:0.34656 2:-0.350513 
-1 1:-0.406416 2:0.571901 
-1 1:0.272359 2:0.016762 
-1 1:0.278449 2:-0.0527942 
-1 1:0.266168 2:-0.0771905 
-1 1:0.219978 2:-0.00641954 
-1 1:0.242884 2:-0.0790911 
-1 1:0.243188 2:-0.198521 
-1 1:-0.46217 2:0.545272 
-1 1:0.170658 2:0.112839 
-1 1:-0.83957 2:-0.0785559 
-1 1:-0.609866 2:0.484872 
-1 1:0.223079 2:0.11686 
-1 1:0.325778 2:-0.021476 
-1 1:0.314505 2:-0.0895069 
-1 1:0.207345 2:0.14796 
-1 1:0.292296 2:-0.0211225 
-1 1:0.370861 2:-0.0264519 
-1 1:0.269237 2:-0.295841 
-1 1:-0.70863 2:0.367744 
-1 1:-0.498669 2:0.629578 
-1 1:0.229049 2:-0.126061 
-1 1:0.287454 2:-0.0818246 
-1 1:0.326934 2:-0.17454 
-1 1:-0.864891 2:-0.238845 
-1 1:0.128135 2:0.14832 
-1 1:-0.81999 2:0.0665303 
-1 1:-0.834187 2:0.046239 
-1 1:-0.64787 2:0.466078 
-1 1:-0.288765 2:0.664396 
-1 1:0.298341 2:-0.0780677 
-1 1:-0.76284 2:0.268631 
-1 1:0.283196 2:-0.117427 
-1 1:0.23449 2:-0.0921402 
-1 1:0.351967 2:-0.196782 
-1 1:0.255705 2:-0.112549 
-1 1:0.265328 2:0.018141 
-1 1:0.000407214 2:0.44587 
-1 1:0.310606 2:-0.195068 
-1 1:0.217785 2:0.0519957 
-1 1:0.258124 2:-0.268667 
-1 1:-0.441609 2:0.603058 
-1 1:0.277124 2:-0.110611 
-1 1:-0.30098 2:0.650075 
-1 1:-0.695184 2:0.410644 
-1 1:0.23351 2:-0.0692324 
-1 1:0.157958 2:0.225088 
-1 1:0.255089 2:-0.138567 
-1 1:0.185077 2:0.132091 
-1 1:0.289135 2:-0.240565 
-1 1:0.281353 2:-0.0203478 
-1 1:0.300652 2:-0.146394 
-1 1:0.225976 2:-0.114323 
-1 1:0.220932 2:0.0737168 
-1 1:-0.223853 2:0.573871 
-1 1:0.278471 2:-0.0563114 
-1 1:-0.6637 2:0.451433 
-1 1:0.25957 2:-0.0848963 
-1 1:-0.848931 2:-0.0645932 
-1 1:-0.845961 2:-0.122548 
-0.7669559322085847 1:0.284901 2:0.0555469 
-1 1:-0.67316 2:0.44483 
-1 1:0.284412 2:-0.17084 
-1 1:-0.8115 2:0.140662 
-1 1:0.214808 2:-0.0830868 
-1 1:0.252475 2:0.0328526 
-1 1:-0.490426 2:0.614218 
-1 1:-0.606222 2:0.370751 
-1 1:-0.869708 2:-0.248607 
-1 1:0.339047 2:-0.226073 
-1 1:0.228067 2:-0.0901132 
-1 1:0.291652 2:-0.224829 
-1 1:0.338848 2:-0.229095 
-1 1:0.322466 2:-0.107079 
-1 1:0.303605 2:-0.128764 
-1 1:0.194191 2:0.164272 
-1 1:-0.101998 2:0.570971 
-1 1:0.267626 2:-0.160286 
-1 1:-0.636735 2:0.43184 
-1 1:0.268672 2:-0.174213 
-1 1:0.310292 2:-0.104045 
-1 1:0.157586 2:0.219962 
-1 1:-0.466965 2:0.625797 
-1 1:-0.858031 2:-0.197984 
-1 1:0.261623 2:-0.122086 
-1 1:0.219318 2:-0.00971435 
-1 1:-0.461779 2:0.650588 
-1 1:-0.874191 2:-0.204316 
-1 1:0.361362 2:-0.0908459 
-1 1:0.275164 2:-0.194464 
-1 1:-0.504919 2:0.570376 
-1 1:-0.767045 2:0.241737 
-1 1:0.36488 2:-0.212722 
-1 1:-0.856536 2:-0.0957511 
-1 1:0.139257 2:0.175507 
-1 1:-0.892324 2:-0.307308 
-1 1:0.239595 2:-0.103336 
-1 1:0.29804 2:-0.0939599 
-1 1:0.173219 2:0.173466 
-1 1:0.24535 2:-0.149467 
-1 1:-0.801113 2:-0.0437649 
-1 1:-0.887867 2:-0.259465 
-1 1:0.191008 2:0.00140414 
-1 1:0.326034 2:-0.140197 
-1 1:-0.739078 2:0.303476 
-1 1:-0.667317 2:0.415308 
-1 1:0.3083 2:-0.329625 
-1 1:0.281734 2:-0.21881 
-1 1:0.217761 2:-0.123266 
-1 1:-0.762743 2:-0.00320056 
-1 1:0.208333 2:0.13455 
-1 1:-0.859407 2:-0.189238 
-1 1:0.156845 2:-0.0817263 
-1 1:0.224944 2:-0.00093928 
-1 1:0.284659 2:-0.142488 
-1 1:0.33886 2:-0.299375 
-1 1:0.25734 2:0.0761796 
-1 1:0.174731 2:-0.0357341 
-1 1:0.301156 2:-0.0725805 
-1 1:-0.0510348 2:0.527124 
-1 1:-0.860468 2:-0.20894 
-1 1:0.273795 2:-0.0279236 
