svm_type c_svc
kernel_type rbf
gamma 0.00892857
nr_class 2
total_sv 504
rho -0.242487
label 1 2
nr_sv 242 262
SV
0.9646588392938371 6:1 7:1 15:1 21:1 29:1 33:1 34:1 37:1 48:1 50:1 53:1 57:1 67:1 76:1 78:1 81:1 84:1 86:1 95:1 103:1 111:1 
1 6:1 8:1 19:1 21:1 29:1 33:1 34:1 37:1 42:1 50:1 53:1 57:1 67:1 76:1 78:1 81:1 84:1 86:1 95:1 104:1 111:1 
0.6190186508671868 6:1 8:1 19:1 21:1 29:1 33:1 34:1 37:1 42:1 50:1 53:1 57:1 67:1 76:1 78:1 81:1 84:1 86:1 93:1 103:1 107:1 
0.4021759995194051 6:1 7:1 15:1 21:1 29:1 33:1 34:1 37:1 45:1 50:1 53:1 57:1 67:1 76:1 78:1 81:1 84:1 86:1 93:1 104:1 111:1 
1 3:1 7:1 15:1 21:1 29:1 33:1 34:1 37:1 48:1 50:1 53:1 57:1 67:1 76:1 78:1 81:1 84:1 86:1 93:1 103:1 111:1 
1 6:1 7:1 15:1 21:1 29:1 33:1 34:1 37:1 42:1 50:1 53:1 57:1 67:1 76:1 78:1 81:1 84:1 86:1 93:1 103:1 111:1 
1 6:1 7:1 15:1 21:1 29:1 33:1 34:1 37:1 45:1 50:1 53:1 57:1 67:1 76:1 78:1 81:1 84:1 86:1 95:1 104:1 111:1 
1 6:1 8:1 15:1 21:1 29:1 33:1 34:1 37:1 42:1 50:1 53:1 57:1 67:1 76:1 78:1 81:1 84:1 86:1 95:1 104:1 111:1 
0.3399931257841278 6:1 8:1 19:1 21:1 29:1 33:1 34:1 37:1 42:1 50:1 53:1 57:1 67:1 76:1 78:1 81:1 84:1 86:1 93:1 103:1 111:1 
0.7785112424820906 6:1 8:1 19:1 21:1 29:1 33:1 34:1 37:1 42:1 50:1 53:1 57:1 67:1 76:1 78:1 81:1 84:1 86:1 95:1 103:1 111:1 
1 6:1 7:1 15:1 21:1 29:1 33:1 34:1 37:1 48:1 50:1 53:1 57:1 67:1 76:1 78:1 81:1 84:1 86:1 93:1 103:1 107:1 
1 6:1 8:1 15:1 21:1 29:1 33:1 34:1 37:1 45:1 50:1 53:1 57:1 67:1 76:1 78:1 81:1 84:1 86:1 95:1 104:1 111:1 
1 6:1 8:1 19:1 21:1 29:1 33:1 34:1 37:1 42:1 50:1 53:1 57:1 67:1 76:1 78:1 81:1 84:1 86:1 95:1 103:1 107:1 
1 6:1 8:1 15:1 21:1 29:1 33:1 34:1 37:1 44:1 50:1 53:1 57:1 67:1 76:1 78:1 81:1 84:1 86:1 95:1 104:1 111:1 
0.09343591415056865 6:1 8:1 15:1 21:1 29:1 33:1 34:1 37:1 42:1 50:1 53:1 57:1 67:1 76:1 78:1 81:1 84:1 86:1 93:1 104:1 111:1 
1 3:1 7:1 15:1 21:1 29:1 33:1 34:1 37:1 45:1 50:1 53:1 57:1 67:1 76:1 78:1 81:1 84:1 86:1 95:1 104:1 111:1 
1 6:1 7:1 15:1 21:1 29:1 33:1 34:1 37:1 48:1 50:1 53:1 57:1 67:1 76:1 78:1 81:1 84:1 86:1 93:1 103:1 111:1 
0.9739420401192513 6:1 8:1 19:1 21:1 29:1 33:1 34:1 37:1 48:1 50:1 53:1 57:1 67:1 76:1 78:1 81:1 84:1 86:1 95:1 103:1 107:1 
1 3:1 7:1 15:1 21:1 29:1 33:1 34:1 37:1 44:1 50:1 53:1 57:1 67:1 76:1 78:1 81:1 84:1 86:1 95:1 103:1 111:1 
0.6847568481841045 3:1 7:1 19:1 21:1 29:1 33:1 34:1 37:1 42:1 50:1 53:1 57:1 67:1 76:1 78:1 81:1 84:1 86:1 93:1 103:1 111:1 
0.3318747778643855 3:1 7:1 15:1 21:1 29:1 33:1 34:1 37:1 42:1 50:1 53:1 57:1 67:1 76:1 78:1 81:1 84:1 86:1 95:1 104:1 111:1 
1 3:1 7:1 15:1 21:1 29:1 33:1 34:1 37:1 44:1 50:1 53:1 57:1 67:1 76:1 78:1 81:1 84:1 86:1 93:1 104:1 111:1 
0.8220075553447118 6:1 7:1 15:1 21:1 29:1 33:1 34:1 37:1 48:1 50:1 53:1 57:1 67:1 76:1 78:1 81:1 84:1 86:1 95:1 103:1 107:1 
1 3:1 8:1 15:1 21:1 29:1 33:1 34:1 37:1 45:1 50:1 53:1 57:1 67:1 76:1 78:1 81:1 84:1 86:1 95:1 104:1 111:1 
1 3:1 8:1 15:1 21:1 29:1 33:1 34:1 37:1 45:1 50:1 53:1 57:1 67:1 76:1 78:1 81:1 84:1 86:1 93:1 104:1 111:1 
1 3:1 8:1 19:1 21:1 29:1 33:1 34:1 37:1 44:1 50:1 53:1 57:1 67:1 76:1 78:1 81:1 84:1 86:1 95:1 103:1 107:1 
0.07801101378408978 3:1 7:1 15:1 21:1 29:1 33:1 34:1 37:1 42:1 50:1 53:1 57:1 67:1 76:1 78:1 81:1 84:1 86:1 93:1 104:1 111:1 
0.2448845483222034 6:1 7:1 15:1 21:1 29:1 33:1 34:1 37:1 44:1 50:1 53:1 57:1 67:1 76:1 78:1 81:1 84:1 86:1 93:1 103:1 111:1 
0.4575717879272864 3:1 8:1 19:1 21:1 29:1 33:1 34:1 37:1 42:1 50:1 53:1 57:1 67:1 76:1 78:1 81:1 84:1 86:1 95:1 103:1 107:1 
0.03837511060033806 6:1 8:1 19:1 21:1 29:1 33:1 34:1 37:1 44:1 50:1 53:1 57:1 67:1 76:1 78:1 81:1 84:1 86:1 95:1 103:1 107:1 
1 3:1 7:1 15:1 21:1 29:1 33:1 34:1 37:1 42:1 50:1 53:1 57:1 67:1 76:1 78:1 81:1 84:1 86:1 93:1 103:1 107:1 
1 6:1 8:1 19:1 21:1 29:1 33:1 34:1 37:1 44:1 50:1 53:1 57:1 67:1 76:1 78:1 81:1 84:1 86:1 95:1 104:1 111:1 
1 3:1 7:1 15:1 21:1 29:1 33:1 34:1 37:1 45:1 50:1 53:1 57:1 67:1 76:1 78:1 81:1 84:1 86:1 93:1 104:1 111:1 
1 3:1 7:1 15:1 21:1 29:1 33:1 34:1 37:1 45:1 50:1 53:1 57:1 67:1 76:1 78:1 81:1 84:1 86:1 95:1 103:1 111:1 
1 3:1 8:1 15:1 21:1 29:1 33:1 34:1 37:1 42:1 50:1 53:1 57:1 67:1 76:1 78:1 81:1 84:1 86:1 95:1 104:1 111:1 
1 3:1 7:1 15:1 21:1 29:1 33:1 34:1 37:1 45:1 50:1 53:1 57:1 67:1 76:1 78:1 81:1 84:1 86:1 95:1 103:1 107:1 
0.1620037667644754 3:1 7:1 19:1 21:1 29:1 33:1 34:1 37:1 44:1 50:1 53:1 57:1 67:1 76:1 78:1 81:1 84:1 86:1 93:1 103:1 111:1 
1 3:1 8:1 19:1 21:1 29:1 33:1 34:1 37:1 44:1 50:1 53:1 57:1 67:1 76:1 78:1 81:1 84:1 86:1 95:1 103:1 111:1 
1 3:1 7:1 15:1 21:1 29:1 33:1 34:1 37:1 45:1 50:1 53:1 57:1 67:1 76:1 78:1 81:1 84:1 86:1 93:1 103:1 107:1 
0.49941779909294 3:1 8:1 15:1 21:1 29:1 33:1 34:1 37:1 42:1 50:1 53:1 57:1 67:1 76:1 78:1 81:1 84:1 86:1 93:1 104:1 111:1 
0.5743974624509796 3:1 7:1 15:1 21:1 29:1 33:1 34:1 37:1 44:1 50:1 53:1 57:1 67:1 76:1 78:1 81:1 84:1 86:1 93:1 103:1 107:1 
1 3:1 7:1 15:1 21:1 29:1 33:1 34:1 37:1 48:1 50:1 53:1 57:1 67:1 76:1 78:1 81:1 84:1 86:1 93:1 103:1 107:1 
1 3:1 7:1 15:1 21:1 29:1 33:1 34:1 37:1 44:1 50:1 53:1 57:1 67:1 76:1 78:1 81:1 84:1 86:1 95:1 104:1 111:1 
1 6:1 8:1 15:1 21:1 29:1 33:1 34:1 37:1 44:1 50:1 53:1 57:1 67:1 76:1 78:1 81:1 84:1 86:1 93:1 104:1 111:1 
1 3:1 7:1 15:1 21:1 29:1 33:1 34:1 37:1 48:1 50:1 53:1 57:1 67:1 76:1 78:1 81:1 84:1 86:1 95:1 103:1 111:1 
0.9251725003645345 3:1 7:1 15:1 21:1 29:1 33:1 34:1 37:1 44:1 50:1 53:1 57:1 67:1 76:1 78:1 81:1 84:1 86:1 95:1 103:1 107:1 
0.04910324303969479 3:1 8:1 15:1 21:1 29:1 33:1 34:1 37:1 44:1 50:1 53:1 57:1 67:1 76:1 78:1 81:1 84:1 86:1 95:1 103:1 111:1 
1 3:1 7:1 15:1 21:1 29:1 33:1 34:1 37:1 44:1 50:1 53:1 57:1 67:1 76:1 78:1 81:1 84:1 86:1 93:1 103:1 111:1 
1 3:1 8:1 19:1 21:1 29:1 33:1 34:1 37:1 44:1 50:1 53:1 57:1 67:1 76:1 78:1 81:1 84:1 86:1 95:1 104:1 111:1 
1 3:1 7:1 15:1 21:1 29:1 33:1 34:1 37:1 42:1 50:1 53:1 57:1 67:1 76:1 78:1 81:1 84:1 86:1 95:1 103:1 111:1 
0.6735691033492481 3:1 8:1 19:1 21:1 29:1 33:1 34:1 37:1 42:1 50:1 53:1 57:1 67:1 76:1 78:1 81:1 84:1 86:1 95:1 104:1 111:1 
1 3:1 7:1 15:1 21:1 29:1 33:1 34:1 37:1 48:1 50:1 53:1 57:1 67:1 76:1 78:1 81:1 84:1 86:1 95:1 103:1 107:1 
0.42750849437994 3:1 8:1 15:1 21:1 29:1 33:1 34:1 37:1 44:1 50:1 53:1 57:1 67:1 76:1 78:1 81:1 84:1 86:1 93:1 103:1 111:1 
1 3:1 8:1 15:1 21:1 29:1 33:1 34:1 37:1 44:1 50:1 53:1 57:1 67:1 76:1 78:1 81:1 84:1 86:1 93:1 104:1 111:1 
1 3:1 7:1 15:1 21:1 29:1 33:1 34:1 37:1 45:1 50:1 53:1 57:1 67:1 76:1 78:1 81:1 84:1 86:1 93:1 103:1 111:1 
1 3:1 8:1 15:1 21:1 29:1 33:1 34:1 37:1 44:1 50:1 53:1 57:1 67:1 76:1 78:1 81:1 84:1 86:1 95:1 104:1 111:1 
1 3:1 7:1 15:1 21:1 29:1 33:1 34:1 37:1 42:1 50:1 53:1 57:1 67:1 76:1 78:1 81:1 84:1 86:1 93:1 103:1 111:1 
1 6:1 10:1 19:1 22:1 24:1 33:1 35:1 37:1 40:1 50:1 53:1 57:1 67:1 76:1 78:1 81:1 84:1 86:1 95:1 103:1 106:1 
1 6:1 10:1 19:1 22:1 24:1 33:1 35:1 37:1 47:1 50:1 53:1 57:1 67:1 76:1 78:1 81:1 84:1 86:1 95:1 104:1 106:1 
1 6:1 10:1 14:1 22:1 24:1 33:1 35:1 37:1 40:1 50:1 53:1 57:1 67:1 76:1 78:1 81:1 84:1 86:1 93:1 103:1 106:1 
0.9470595772558217 6:1 8:1 14:1 22:1 24:1 33:1 35:1 37:1 40:1 50:1 53:1 57:1 67:1 76:1 78:1 81:1 84:1 86:1 95:1 104:1 106:1 
0.4156510678362725 3:1 10:1 20:1 22:1 25:1 33:1 34:1 36:1 40:1 50:1 54:1 58:1 65:1 74:1 78:1 81:1 84:1 89:1 92:1 105:1 110:1 
1 6:1 10:1 19:1 22:1 24:1 33:1 35:1 37:1 44:1 50:1 53:1 57:1 67:1 76:1 78:1 81:1 84:1 86:1 95:1 103:1 106:1 
0.7885057374076424 6:1 10:1 16:1 22:1 24:1 33:1 35:1 37:1 40:1 50:1 53:1 57:1 67:1 76:1 78:1 81:1 84:1 86:1 93:1 104:1 106:1 
1 6:1 8:1 19:1 22:1 24:1 33:1 35:1 37:1 45:1 50:1 53:1 57:1 67:1 76:1 78:1 81:1 84:1 86:1 93:1 104:1 106:1 
1 6:1 10:1 19:1 22:1 24:1 33:1 35:1 37:1 45:1 50:1 53:1 57:1 67:1 76:1 78:1 81:1 84:1 86:1 93:1 104:1 106:1 
1 6:1 10:1 16:1 22:1 24:1 33:1 35:1 37:1 40:1 50:1 53:1 57:1 67:1 76:1 78:1 81:1 84:1 86:1 95:1 104:1 106:1 
1 6:1 10:1 19:1 22:1 24:1 33:1 35:1 37:1 40:1 50:1 53:1 57:1 67:1 76:1 78:1 81:1 84:1 86:1 93:1 104:1 106:1 
1 6:1 10:1 14:1 22:1 24:1 33:1 35:1 37:1 47:1 50:1 53:1 57:1 67:1 76:1 78:1 81:1 84:1 86:1 93:1 104:1 106:1 
1 6:1 10:1 14:1 22:1 24:1 33:1 35:1 37:1 47:1 50:1 53:1 57:1 67:1 76:1 78:1 81:1 84:1 86:1 95:1 104:1 106:1 
1 6:1 8:1 19:1 22:1 24:1 33:1 35:1 37:1 44:1 50:1 53:1 57:1 67:1 76:1 78:1 81:1 84:1 86:1 95:1 104:1 106:1 
1 6:1 10:1 14:1 22:1 24:1 33:1 35:1 37:1 40:1 50:1 53:1 57:1 67:1 76:1 78:1 81:1 84:1 86:1 93:1 104:1 106:1 
0.7503546977403867 6:1 8:1 14:1 22:1 24:1 33:1 35:1 37:1 45:1 50:1 53:1 57:1 67:1 76:1 78:1 81:1 84:1 86:1 93:1 104:1 106:1 
1 6:1 10:1 14:1 22:1 24:1 33:1 35:1 37:1 40:1 50:1 53:1 57:1 67:1 76:1 78:1 81:1 84:1 86:1 95:1 104:1 106:1 
1 6:1 10:1 16:1 22:1 24:1 33:1 35:1 37:1 45:1 50:1 53:1 57:1 67:1 76:1 78:1 81:1 84:1 86:1 95:1 104:1 106:1 
1 6:1 10:1 14:1 22:1 24:1 33:1 35:1 37:1 44:1 50:1 53:1 57:1 67:1 76:1 78:1 81:1 84:1 86:1 95:1 104:1 106:1 
1 6:1 10:1 19:1 22:1 24:1 33:1 35:1 37:1 47:1 50:1 53:1 57:1 67:1 76:1 78:1 81:1 84:1 86:1 95:1 103:1 106:1 
1 6:1 10:1 19:1 22:1 24:1 33:1 35:1 37:1 40:1 50:1 53:1 57:1 67:1 76:1 78:1 81:1 84:1 86:1 93:1 103:1 106:1 
1 6:1 10:1 19:1 22:1 24:1 33:1 35:1 37:1 44:1 50:1 53:1 57:1 67:1 76:1 78:1 81:1 84:1 86:1 93:1 103:1 106:1 
1 6:1 10:1 14:1 22:1 24:1 33:1 35:1 37:1 45:1 50:1 53:1 57:1 67:1 76:1 78:1 81:1 84:1 86:1 95:1 104:1 106:1 
1 6:1 10:1 19:1 22:1 24:1 33:1 35:1 37:1 45:1 50:1 53:1 57:1 67:1 76:1 78:1 81:1 84:1 86:1 95:1 103:1 106:1 
1 6:1 10:1 19:1 22:1 24:1 33:1 35:1 37:1 47:1 50:1 53:1 57:1 67:1 76:1 78:1 81:1 84:1 86:1 93:1 103:1 106:1 
1 6:1 8:1 19:1 22:1 24:1 33:1 35:1 37:1 45:1 50:1 53:1 57:1 67:1 76:1 78:1 81:1 84:1 86:1 95:1 104:1 106:1 
1 6:1 8:1 14:1 22:1 24:1 33:1 35:1 37:1 45:1 50:1 53:1 57:1 67:1 76:1 78:1 81:1 84:1 86:1 95:1 104:1 106:1 
1 6:1 10:1 14:1 22:1 24:1 33:1 35:1 37:1 44:1 50:1 53:1 57:1 67:1 76:1 78:1 81:1 84:1 86:1 93:1 103:1 106:1 
1 6:1 10:1 14:1 22:1 24:1 33:1 35:1 37:1 44:1 50:1 53:1 57:1 67:1 76:1 78:1 81:1 84:1 86:1 95:1 103:1 106:1 
1 6:1 10:1 19:1 22:1 24:1 33:1 35:1 37:1 45:1 50:1 53:1 57:1 67:1 76:1 78:1 81:1 84:1 86:1 95:1 104:1 106:1 
1 6:1 8:1 19:1 22:1 24:1 33:1 35:1 37:1 40:1 50:1 53:1 57:1 67:1 76:1 78:1 81:1 84:1 86:1 95:1 104:1 106:1 
1 6:1 10:1 19:1 22:1 24:1 33:1 35:1 37:1 45:1 50:1 53:1 57:1 67:1 76:1 78:1 81:1 84:1 86:1 93:1 103:1 106:1 
1 6:1 10:1 14:1 22:1 24:1 33:1 35:1 37:1 45:1 50:1 53:1 57:1 67:1 76:1 78:1 81:1 84:1 86:1 93:1 104:1 106:1 
1 6:1 8:1 14:1 22:1 24:1 33:1 35:1 37:1 44:1 50:1 53:1 57:1 67:1 76:1 78:1 81:1 84:1 86:1 95:1 104:1 106:1 
1 6:1 10:1 14:1 22:1 24:1 33:1 35:1 37:1 47:1 50:1 53:1 57:1 67:1 76:1 78:1 81:1 84:1 86:1 93:1 103:1 106:1 
1 6:1 10:1 16:1 22:1 24:1 33:1 35:1 37:1 44:1 50:1 53:1 57:1 67:1 76:1 78:1 81:1 84:1 86:1 93:1 104:1 106:1 
1 6:1 8:1 19:1 22:1 24:1 33:1 35:1 37:1 44:1 50:1 53:1 57:1 67:1 76:1 78:1 81:1 84:1 86:1 93:1 104:1 106:1 
1 6:1 10:1 14:1 22:1 24:1 33:1 35:1 37:1 45:1 50:1 53:1 57:1 67:1 76:1 78:1 81:1 84:1 86:1 95:1 103:1 106:1 
1 6:1 10:1 19:1 22:1 24:1 33:1 35:1 37:1 44:1 50:1 53:1 57:1 67:1 76:1 78:1 81:1 84:1 86:1 95:1 104:1 106:1 
1 6:1 10:1 19:1 22:1 24:1 33:1 35:1 37:1 44:1 50:1 53:1 57:1 67:1 76:1 78:1 81:1 84:1 86:1 93:1 104:1 106:1 
1 6:1 10:1 19:1 22:1 24:1 33:1 35:1 37:1 47:1 50:1 53:1 57:1 67:1 76:1 78:1 81:1 84:1 86:1 93:1 104:1 106:1 
1 6:1 10:1 14:1 22:1 24:1 33:1 35:1 37:1 45:1 50:1 53:1 57:1 67:1 76:1 78:1 81:1 84:1 86:1 93:1 103:1 106:1 
0.7471814906808311 6:1 8:1 14:1 22:1 24:1 33:1 35:1 37:1 44:1 50:1 53:1 57:1 67:1 76:1 78:1 81:1 84:1 86:1 93:1 104:1 106:1 
1 6:1 10:1 14:1 22:1 24:1 33:1 35:1 37:1 40:1 50:1 53:1 57:1 67:1 76:1 78:1 81:1 84:1 86:1 95:1 103:1 106:1 
1 6:1 10:1 19:1 22:1 24:1 33:1 35:1 37:1 40:1 50:1 53:1 57:1 67:1 76:1 78:1 81:1 84:1 86:1 95:1 104:1 106:1 
1 6:1 10:1 16:1 22:1 24:1 33:1 35:1 37:1 45:1 50:1 53:1 57:1 67:1 76:1 78:1 81:1 84:1 86:1 93:1 104:1 106:1 
1 6:1 10:1 14:1 22:1 24:1 33:1 35:1 37:1 47:1 50:1 53:1 57:1 67:1 76:1 78:1 81:1 84:1 86:1 95:1 103:1 106:1 
0.01897851284324897 3:1 10:1 14:1 22:1 25:1 33:1 34:1 36:1 40:1 50:1 54:1 58:1 65:1 74:1 78:1 81:1 84:1 89:1 92:1 105:1 110:1 
0.875310825639569 6:1 10:1 16:1 22:1 24:1 33:1 35:1 37:1 47:1 50:1 53:1 57:1 67:1 76:1 78:1 81:1 84:1 86:1 95:1 104:1 106:1 
0.330537875967981 3:1 10:1 20:1 22:1 25:1 33:1 34:1 36:1 40:1 50:1 54:1 58:1 66:1 74:1 78:1 81:1 84:1 89:1 92:1 105:1 110:1 
0.65502516838839 3:1 10:1 20:1 22:1 25:1 33:1 34:1 36:1 45:1 50:1 54:1 58:1 61:1 74:1 78:1 81:1 84:1 89:1 92:1 105:1 110:1 
1 2:1 8:1 12:1 21:1 28:1 33:1 34:1 36:1 40:1 50:1 53:1 57:1 67:1 76:1 78:1 81:1 83:1 86:1 96:1 104:1 108:1 
1 6:1 10:1 14:1 22:1 24:1 33:1 35:1 37:1 44:1 50:1 53:1 57:1 67:1 76:1 78:1 81:1 84:1 86:1 93:1 104:1 106:1 
1 6:1 10:1 16:1 22:1 24:1 33:1 35:1 37:1 44:1 50:1 53:1 57:1 67:1 76:1 78:1 81:1 84:1 86:1 95:1 104:1 106:1 
1 6:1 7:1 15:1 22:1 31:1 33:1 34:1 37:1 38:1 51:1 53:1 58:1 66:1 76:1 78:1 81:1 84:1 88:1 98:1 104:1 109:1 
0.5697133822122556 6:1 8:1 14:1 21:1 25:1 33:1 34:1 36:1 48:1 51:1 53:1 59:1 67:1 76:1 78:1 81:1 84:1 86:1 92:1 103:1 111:1 
1 4:1 7:1 15:1 22:1 28:1 33:1 34:1 37:1 48:1 50:1 54:1 56:1 67:1 74:1 78:1 81:1 84:1 88:1 98:1 104:1 106:1 
1 2:1 7:1 19:1 21:1 28:1 33:1 35:1 37:1 48:1 50:1 53:1 57:1 67:1 76:1 78:1 81:1 84:1 86:1 98:1 101:1 109:1 
1 3:1 10:1 20:1 22:1 28:1 33:1 34:1 37:1 48:1 50:1 54:1 56:1 67:1 77:1 78:1 81:1 84:1 88:1 98:1 104:1 106:1 
1 6:1 7:1 15:1 22:1 30:1 33:1 34:1 37:1 38:1 51:1 53:1 57:1 66:1 75:1 78:1 81:1 84:1 88:1 98:1 104:1 109:1 
1 3:1 8:1 19:1 21:1 28:1 33:1 34:1 36:1 40:1 50:1 53:1 57:1 67:1 76:1 78:1 81:1 83:1 86:1 96:1 104:1 108:1 
0.1506021042048976 3:1 10:1 20:1 22:1 25:1 33:1 34:1 36:1 40:1 50:1 54:1 58:1 61:1 74:1 78:1 81:1 84:1 89:1 92:1 105:1 110:1 
1 3:1 8:1 19:1 21:1 25:1 33:1 34:1 36:1 48:1 51:1 53:1 59:1 67:1 76:1 78:1 81:1 84:1 86:1 92:1 103:1 111:1 
1 3:1 8:1 16:1 21:1 28:1 33:1 34:1 36:1 48:1 50:1 53:1 57:1 67:1 76:1 78:1 81:1 83:1 86:1 96:1 104:1 107:1 
0.1537389778447076 3:1 10:1 14:1 22:1 25:1 33:1 34:1 36:1 40:1 50:1 54:1 58:1 66:1 74:1 78:1 81:1 84:1 89:1 92:1 105:1 110:1 
0.03153383995012308 3:1 8:1 14:1 21:1 25:1 33:1 34:1 36:1 45:1 51:1 53:1 59:1 67:1 76:1 78:1 81:1 84:1 86:1 92:1 104:1 107:1 
1 4:1 10:1 15:1 22:1 28:1 33:1 34:1 37:1 48:1 50:1 54:1 56:1 67:1 74:1 78:1 81:1 84:1 88:1 98:1 104:1 106:1 
1 2:1 10:1 20:1 22:1 28:1 33:1 34:1 37:1 48:1 50:1 54:1 56:1 67:1 74:1 78:1 81:1 84:1 88:1 98:1 104:1 106:1 
1 2:1 8:1 12:1 21:1 28:1 33:1 34:1 36:1 40:1 50:1 53:1 57:1 67:1 76:1 78:1 81:1 83:1 86:1 96:1 104:1 107:1 
1 2:1 8:1 19:1 21:1 28:1 33:1 34:1 36:1 40:1 50:1 53:1 57:1 67:1 76:1 78:1 81:1 83:1 86:1 96:1 104:1 108:1 
0.3657806948872982 3:1 10:1 20:1 22:1 25:1 33:1 34:1 36:1 45:1 50:1 54:1 58:1 65:1 74:1 78:1 81:1 84:1 89:1 92:1 105:1 110:1 
1 2:1 7:1 19:1 21:1 28:1 33:1 34:1 36:1 48:1 50:1 53:1 57:1 67:1 76:1 78:1 81:1 83:1 86:1 96:1 104:1 108:1 
1 6:1 8:1 19:1 21:1 25:1 33:1 34:1 36:1 41:1 51:1 53:1 57:1 67:1 76:1 78:1 81:1 84:1 86:1 92:1 103:1 107:1 
1 3:1 7:1 15:1 22:1 28:1 33:1 34:1 37:1 48:1 50:1 54:1 56:1 67:1 74:1 78:1 81:1 84:1 88:1 98:1 104:1 106:1 
1 3:1 8:1 14:1 21:1 25:1 33:1 34:1 36:1 45:1 51:1 53:1 59:1 67:1 76:1 78:1 81:1 84:1 86:1 92:1 103:1 111:1 
1 3:1 7:1 16:1 21:1 28:1 33:1 34:1 36:1 40:1 50:1 53:1 57:1 67:1 76:1 78:1 81:1 83:1 86:1 96:1 104:1 107:1 
1 6:1 7:1 15:1 22:1 31:1 33:1 34:1 37:1 38:1 51:1 53:1 57:1 67:1 75:1 78:1 81:1 84:1 88:1 98:1 104:1 109:1 
1 6:1 7:1 15:1 22:1 28:1 33:1 34:1 37:1 48:1 50:1 54:1 56:1 67:1 74:1 78:1 81:1 84:1 88:1 98:1 104:1 106:1 
1 2:1 8:1 12:1 21:1 28:1 33:1 34:1 36:1 48:1 50:1 53:1 57:1 67:1 76:1 78:1 81:1 83:1 86:1 96:1 104:1 107:1 
1 6:1 8:1 19:1 21:1 25:1 33:1 34:1 36:1 45:1 51:1 53:1 59:1 67:1 76:1 78:1 81:1 84:1 86:1 92:1 103:1 111:1 
1 4:1 10:1 20:1 22:1 28:1 33:1 34:1 37:1 48:1 50:1 54:1 56:1 67:1 74:1 78:1 81:1 84:1 88:1 98:1 104:1 106:1 
1 2:1 7:1 16:1 21:1 28:1 33:1 34:1 36:1 48:1 50:1 53:1 57:1 67:1 76:1 78:1 81:1 83:1 86:1 96:1 104:1 107:1 
1 6:1 8:1 19:1 21:1 25:1 33:1 34:1 36:1 45:1 51:1 53:1 57:1 67:1 76:1 78:1 81:1 84:1 86:1 92:1 103:1 111:1 
1 3:1 9:1 19:1 21:1 28:1 33:1 35:1 37:1 48:1 50:1 53:1 57:1 67:1 76:1 78:1 81:1 84:1 86:1 98:1 101:1 109:1 
1 6:1 8:1 14:1 21:1 25:1 33:1 34:1 36:1 41:1 51:1 53:1 59:1 67:1 76:1 78:1 81:1 84:1 86:1 92:1 103:1 107:1 
1 6:1 8:1 19:1 21:1 25:1 33:1 34:1 36:1 48:1 51:1 53:1 59:1 67:1 76:1 78:1 81:1 84:1 86:1 92:1 103:1 111:1 
1 1:1 9:1 19:1 21:1 28:1 33:1 35:1 37:1 48:1 50:1 53:1 57:1 67:1 76:1 78:1 81:1 84:1 86:1 98:1 101:1 109:1 
0.4606610202958268 6:1 8:1 14:1 21:1 25:1 33:1 34:1 36:1 45:1 51:1 53:1 59:1 67:1 76:1 78:1 81:1 84:1 86:1 92:1 103:1 111:1 
1 2:1 9:1 19:1 21:1 28:1 33:1 35:1 37:1 48:1 50:1 53:1 57:1 67:1 76:1 78:1 81:1 84:1 86:1 98:1 101:1 109:1 
1 2:1 10:1 20:1 22:1 28:1 33:1 34:1 37:1 48:1 50:1 54:1 56:1 67:1 77:1 78:1 81:1 84:1 88:1 98:1 104:1 106:1 
1 3:1 8:1 12:1 21:1 28:1 33:1 34:1 36:1 48:1 50:1 53:1 57:1 67:1 76:1 78:1 81:1 83:1 86:1 96:1 104:1 108:1 
1 3:1 8:1 12:1 21:1 28:1 33:1 34:1 36:1 46:1 50:1 53:1 57:1 67:1 76:1 78:1 81:1 83:1 86:1 96:1 104:1 107:1 
1 3:1 7:1 12:1 21:1 28:1 33:1 34:1 36:1 46:1 50:1 53:1 57:1 67:1 76:1 78:1 81:1 83:1 86:1 96:1 104:1 108:1 
1 6:1 7:1 15:1 22:1 28:1 33:1 34:1 37:1 48:1 50:1 54:1 56:1 67:1 77:1 78:1 81:1 84:1 88:1 98:1 104:1 106:1 
1 6:1 7:1 15:1 22:1 31:1 33:1 34:1 37:1 38:1 51:1 53:1 58:1 67:1 76:1 78:1 81:1 84:1 88:1 98:1 104:1 109:1 
1 3:1 10:1 15:1 22:1 28:1 33:1 34:1 37:1 48:1 50:1 54:1 56:1 67:1 77:1 78:1 81:1 84:1 88:1 98:1 104:1 106:1 
1 6:1 10:1 15:1 22:1 28:1 33:1 34:1 37:1 48:1 50:1 54:1 56:1 67:1 74:1 78:1 81:1 84:1 88:1 98:1 104:1 106:1 
1 2:1 7:1 19:1 21:1 28:1 33:1 34:1 36:1 46:1 50:1 53:1 57:1 67:1 76:1 78:1 81:1 83:1 86:1 96:1 104:1 107:1 
1 6:1 8:1 19:1 21:1 25:1 33:1 34:1 36:1 45:1 51:1 53:1 57:1 67:1 76:1 78:1 81:1 84:1 86:1 92:1 103:1 107:1 
1 3:1 7:1 16:1 21:1 28:1 33:1 34:1 36:1 48:1 50:1 53:1 57:1 67:1 76:1 78:1 81:1 83:1 86:1 96:1 104:1 107:1 
1 6:1 7:1 15:1 22:1 30:1 33:1 34:1 37:1 38:1 51:1 53:1 57:1 67:1 76:1 78:1 81:1 84:1 88:1 98:1 104:1 106:1 
1 3:1 10:1 15:1 22:1 28:1 33:1 34:1 37:1 48:1 50:1 54:1 56:1 67:1 74:1 78:1 81:1 84:1 88:1 98:1 104:1 106:1 
1 6:1 8:1 14:1 21:1 25:1 33:1 34:1 36:1 45:1 51:1 53:1 57:1 67:1 76:1 78:1 81:1 84:1 86:1 92:1 104:1 111:1 
1 3:1 7:1 16:1 21:1 28:1 33:1 34:1 36:1 48:1 50:1 53:1 57:1 67:1 76:1 78:1 81:1 83:1 86:1 96:1 104:1 108:1 
1 2:1 7:1 15:1 22:1 28:1 33:1 34:1 37:1 48:1 50:1 54:1 56:1 67:1 74:1 78:1 81:1 84:1 88:1 98:1 104:1 106:1 
1 3:1 8:1 14:1 21:1 25:1 33:1 34:1 36:1 48:1 51:1 53:1 59:1 67:1 76:1 78:1 81:1 84:1 86:1 92:1 104:1 111:1 
1 4:1 7:1 19:1 21:1 28:1 33:1 35:1 37:1 48:1 50:1 53:1 57:1 67:1 76:1 78:1 81:1 84:1 86:1 98:1 101:1 109:1 
1 4:1 10:1 20:1 22:1 28:1 33:1 34:1 37:1 48:1 50:1 54:1 56:1 67:1 77:1 78:1 81:1 84:1 88:1 98:1 104:1 106:1 
1 3:1 7:1 20:1 22:1 28:1 33:1 34:1 37:1 48:1 50:1 54:1 56:1 67:1 77:1 78:1 81:1 84:1 88:1 98:1 104:1 106:1 
1 6:1 7:1 15:1 22:1 31:1 33:1 34:1 37:1 38:1 51:1 53:1 57:1 67:1 76:1 78:1 81:1 84:1 88:1 98:1 104:1 110:1 
1 2:1 7:1 19:1 21:1 28:1 33:1 34:1 36:1 48:1 50:1 53:1 57:1 67:1 76:1 78:1 81:1 83:1 86:1 96:1 104:1 107:1 
1 6:1 8:1 19:1 21:1 25:1 33:1 34:1 36:1 45:1 51:1 53:1 59:1 67:1 76:1 78:1 81:1 84:1 86:1 92:1 104:1 107:1 
1 2:1 7:1 12:1 21:1 28:1 33:1 34:1 36:1 48:1 50:1 53:1 57:1 67:1 76:1 78:1 81:1 83:1 86:1 96:1 104:1 108:1 
0.6896599600149024 6:1 8:1 19:1 21:1 25:1 33:1 34:1 36:1 48:1 51:1 53:1 59:1 67:1 76:1 78:1 81:1 84:1 86:1 92:1 104:1 107:1 
1 6:1 10:1 20:1 22:1 28:1 33:1 34:1 37:1 48:1 50:1 54:1 56:1 67:1 77:1 78:1 81:1 84:1 88:1 98:1 104:1 106:1 
1 4:1 7:1 15:1 22:1 28:1 33:1 34:1 37:1 48:1 50:1 54:1 56:1 67:1 77:1 78:1 81:1 84:1 88:1 98:1 104:1 106:1 
0.5215073498632646 6:1 7:1 15:1 22:1 31:1 33:1 34:1 37:1 38:1 51:1 53:1 57:1 67:1 76:1 78:1 81:1 84:1 88:1 98:1 104:1 106:1 
1 6:1 7:1 15:1 22:1 31:1 33:1 34:1 37:1 38:1 51:1 53:1 57:1 67:1 76:1 78:1 81:1 84:1 88:1 98:1 104:1 109:1 
1 4:1 7:1 20:1 22:1 28:1 33:1 34:1 37:1 48:1 50:1 54:1 56:1 67:1 77:1 78:1 81:1 84:1 88:1 98:1 104:1 106:1 
1 3:1 8:1 19:1 21:1 28:1 33:1 34:1 36:1 48:1 50:1 53:1 57:1 67:1 76:1 78:1 81:1 83:1 86:1 96:1 104:1 108:1 
1 3:1 7:1 19:1 21:1 28:1 33:1 35:1 37:1 48:1 50:1 53:1 57:1 67:1 76:1 78:1 81:1 84:1 86:1 98:1 101:1 109:1 
0.7457749735895486 3:1 8:1 14:1 21:1 25:1 33:1 34:1 36:1 48:1 51:1 53:1 57:1 67:1 76:1 78:1 81:1 84:1 86:1 92:1 103:1 107:1 
1 6:1 7:1 15:1 22:1 30:1 33:1 34:1 37:1 38:1 51:1 53:1 57:1 66:1 76:1 78:1 81:1 84:1 88:1 98:1 104:1 109:1 
1 3:1 8:1 19:1 21:1 25:1 33:1 34:1 36:1 45:1 51:1 53:1 57:1 67:1 76:1 78:1 81:1 84:1 86:1 92:1 103:1 107:1 
1 6:1 7:1 15:1 22:1 30:1 33:1 34:1 37:1 38:1 51:1 53:1 57:1 67:1 76:1 78:1 81:1 84:1 88:1 98:1 104:1 109:1 
1 6:1 8:1 14:1 21:1 25:1 33:1 34:1 36:1 48:1 51:1 53:1 59:1 67:1 76:1 78:1 81:1 84:1 86:1 92:1 104:1 111:1 
1 2:1 7:1 15:1 22:1 28:1 33:1 34:1 37:1 48:1 50:1 54:1 56:1 67:1 77:1 78:1 81:1 84:1 88:1 98:1 104:1 106:1 
1 6:1 7:1 15:1 22:1 30:1 33:1 34:1 37:1 38:1 51:1 53:1 57:1 67:1 75:1 78:1 81:1 84:1 88:1 98:1 104:1 110:1 
1 2:1 7:1 19:1 21:1 28:1 33:1 34:1 36:1 40:1 50:1 53:1 57:1 67:1 76:1 78:1 81:1 83:1 86:1 96:1 104:1 108:1 
1 6:1 7:1 15:1 22:1 30:1 33:1 34:1 37:1 38:1 51:1 53:1 57:1 67:1 75:1 78:1 81:1 84:1 88:1 98:1 104:1 109:1 
1 3:1 8:1 14:1 21:1 25:1 33:1 34:1 36:1 48:1 51:1 53:1 59:1 67:1 76:1 78:1 81:1 84:1 86:1 92:1 103:1 111:1 
1 6:1 8:1 19:1 21:1 25:1 33:1 34:1 36:1 41:1 51:1 53:1 59:1 67:1 76:1 78:1 81:1 84:1 86:1 92:1 103:1 111:1 
1 4:1 7:1 20:1 22:1 28:1 33:1 34:1 37:1 48:1 50:1 54:1 56:1 67:1 74:1 78:1 81:1 84:1 88:1 98:1 104:1 106:1 
1 3:1 7:1 16:1 21:1 28:1 33:1 34:1 36:1 46:1 50:1 53:1 57:1 67:1 76:1 78:1 81:1 83:1 86:1 96:1 104:1 107:1 
1 3:1 7:1 12:1 21:1 28:1 33:1 34:1 36:1 46:1 50:1 53:1 57:1 67:1 76:1 78:1 81:1 83:1 86:1 96:1 104:1 107:1 
1 6:1 10:1 20:1 22:1 28:1 33:1 34:1 37:1 48:1 50:1 54:1 56:1 67:1 74:1 78:1 81:1 84:1 88:1 98:1 104:1 106:1 
1 6:1 7:1 15:1 22:1 31:1 33:1 34:1 37:1 38:1 51:1 53:1 58:1 67:1 75:1 78:1 81:1 84:1 88:1 98:1 104:1 109:1 
1 6:1 7:1 20:1 22:1 28:1 33:1 34:1 37:1 48:1 50:1 54:1 56:1 67:1 74:1 78:1 81:1 84:1 88:1 98:1 104:1 106:1 
1 3:1 8:1 16:1 21:1 28:1 33:1 34:1 36:1 48:1 50:1 53:1 57:1 67:1 76:1 78:1 81:1 83:1 86:1 96:1 104:1 108:1 
1 6:1 8:1 19:1 21:1 25:1 33:1 34:1 36:1 45:1 51:1 53:1 59:1 67:1 76:1 78:1 81:1 84:1 86:1 92:1 104:1 111:1 
0.7326801941528789 3:1 8:1 14:1 21:1 25:1 33:1 34:1 36:1 48:1 51:1 53:1 57:1 67:1 76:1 78:1 81:1 84:1 86:1 92:1 104:1 111:1 
1 3:1 8:1 19:1 21:1 25:1 33:1 34:1 36:1 45:1 51:1 53:1 59:1 67:1 76:1 78:1 81:1 84:1 86:1 92:1 104:1 107:1 
1 2:1 7:1 20:1 22:1 28:1 33:1 34:1 37:1 48:1 50:1 54:1 56:1 67:1 77:1 78:1 81:1 84:1 88:1 98:1 104:1 106:1 
1 2:1 10:1 15:1 22:1 28:1 33:1 34:1 37:1 48:1 50:1 54:1 56:1 67:1 77:1 78:1 81:1 84:1 88:1 98:1 104:1 106:1 
0.9757044783865972 3:1 8:1 19:1 21:1 25:1 33:1 34:1 36:1 41:1 51:1 53:1 57:1 67:1 76:1 78:1 81:1 84:1 86:1 92:1 103:1 107:1 
0.7279824224711633 6:1 8:1 12:1 21:1 25:1 33:1 34:1 36:1 48:1 51:1 53:1 59:1 67:1 76:1 78:1 81:1 84:1 86:1 92:1 103:1 107:1 
1 2:1 7:1 12:1 21:1 28:1 33:1 34:1 36:1 40:1 50:1 53:1 57:1 67:1 76:1 78:1 81:1 83:1 86:1 96:1 104:1 108:1 
1 3:1 8:1 19:1 21:1 25:1 33:1 34:1 36:1 48:1 51:1 53:1 57:1 67:1 76:1 78:1 81:1 84:1 86:1 92:1 103:1 107:1 
1 3:1 7:1 19:1 21:1 28:1 33:1 34:1 36:1 40:1 50:1 53:1 57:1 67:1 76:1 78:1 81:1 83:1 86:1 96:1 104:1 108:1 
1 6:1 8:1 14:1 21:1 25:1 33:1 34:1 36:1 48:1 51:1 53:1 57:1 67:1 76:1 78:1 81:1 84:1 86:1 92:1 104:1 111:1 
1 6:1 8:1 14:1 21:1 25:1 33:1 34:1 36:1 48:1 51:1 53:1 59:1 67:1 76:1 78:1 81:1 84:1 86:1 92:1 103:1 107:1 
1 6:1 8:1 19:1 21:1 25:1 33:1 34:1 36:1 48:1 51:1 53:1 57:1 67:1 76:1 78:1 81:1 84:1 86:1 92:1 103:1 107:1 
1 3:1 7:1 12:1 21:1 28:1 33:1 34:1 36:1 48:1 50:1 53:1 57:1 67:1 76:1 78:1 81:1 83:1 86:1 96:1 104:1 108:1 
0.7474545717240499 6:1 7:1 15:1 22:1 31:1 33:1 34:1 37:1 38:1 51:1 53:1 57:1 66:1 75:1 78:1 81:1 84:1 88:1 98:1 104:1 110:1 
1 6:1 7:1 15:1 22:1 31:1 33:1 34:1 37:1 38:1 51:1 53:1 57:1 66:1 76:1 78:1 81:1 84:1 88:1 98:1 104:1 109:1 
1 2:1 8:1 16:1 21:1 28:1 33:1 34:1 36:1 48:1 50:1 53:1 57:1 67:1 76:1 78:1 81:1 83:1 86:1 96:1 104:1 107:1 
1 3:1 7:1 19:1 21:1 28:1 33:1 34:1 36:1 46:1 50:1 53:1 57:1 67:1 76:1 78:1 81:1 83:1 86:1 96:1 104:1 108:1 
1 3:1 8:1 19:1 21:1 25:1 33:1 34:1 36:1 45:1 51:1 53:1 59:1 67:1 76:1 78:1 81:1 84:1 86:1 92:1 103:1 111:1 
1 3:1 7:1 16:1 21:1 28:1 33:1 34:1 36:1 40:1 50:1 53:1 57:1 67:1 76:1 78:1 81:1 83:1 86:1 96:1 104:1 108:1 
1 3:1 7:1 19:1 21:1 28:1 33:1 34:1 36:1 48:1 50:1 53:1 57:1 67:1 76:1 78:1 81:1 83:1 86:1 96:1 104:1 108:1 
1 6:1 8:1 19:1 21:1 25:1 33:1 34:1 36:1 45:1 51:1 53:1 59:1 67:1 76:1 78:1 81:1 84:1 86:1 92:1 103:1 107:1 
0.285510786101355 6:1 7:1 15:1 22:1 31:1 33:1 34:1 37:1 38:1 51:1 53:1 58:1 66:1 75:1 78:1 81:1 84:1 88:1 98:1 104:1 109:1 
1 1:1 7:1 19:1 21:1 28:1 33:1 35:1 37:1 48:1 50:1 53:1 57:1 67:1 76:1 78:1 81:1 84:1 86:1 98:1 101:1 109:1 
1 3:1 8:1 14:1 21:1 25:1 33:1 34:1 36:1 48:1 51:1 53:1 59:1 67:1 76:1 78:1 81:1 84:1 86:1 92:1 103:1 107:1 
1 6:1 8:1 14:1 21:1 25:1 33:1 34:1 36:1 48:1 51:1 53:1 57:1 67:1 76:1 78:1 81:1 84:1 86:1 92:1 103:1 107:1 
0.6013564227778763 6:1 8:1 14:1 21:1 25:1 33:1 34:1 36:1 41:1 51:1 53:1 59:1 67:1 76:1 78:1 81:1 84:1 86:1 92:1 104:1 111:1 
1 3:1 8:1 19:1 21:1 25:1 33:1 34:1 36:1 45:1 51:1 53:1 59:1 67:1 76:1 78:1 81:1 84:1 86:1 92:1 104:1 111:1 
0.1175611145245404 6:1 8:1 19:1 21:1 25:1 33:1 34:1 36:1 45:1 51:1 53:1 57:1 67:1 76:1 78:1 81:1 84:1 86:1 92:1 104:1 111:1 
1 6:1 7:1 15:1 22:1 30:1 33:1 34:1 37:1 38:1 51:1 53:1 57:1 66:1 75:1 78:1 81:1 84:1 88:1 98:1 104:1 110:1 
0.3794083062886379 6:1 8:1 19:1 21:1 25:1 33:1 34:1 36:1 48:1 51:1 53:1 59:1 67:1 76:1 78:1 81:1 84:1 86:1 92:1 104:1 111:1 
1 3:1 8:1 12:1 21:1 28:1 33:1 34:1 36:1 40:1 50:1 53:1 57:1 67:1 76:1 78:1 81:1 83:1 86:1 96:1 104:1 108:1 
1 2:1 7:1 19:1 21:1 28:1 33:1 34:1 36:1 46:1 50:1 53:1 57:1 67:1 76:1 78:1 81:1 83:1 86:1 96:1 104:1 108:1 
1 2:1 7:1 16:1 21:1 28:1 33:1 34:1 36:1 40:1 50:1 53:1 57:1 67:1 76:1 78:1 81:1 83:1 86:1 96:1 104:1 107:1 
1 6:1 8:1 19:1 21:1 25:1 33:1 34:1 36:1 48:1 51:1 53:1 57:1 67:1 76:1 78:1 81:1 84:1 86:1 92:1 103:1 111:1 
0.05870092452161104 3:1 8:1 14:1 21:1 25:1 33:1 34:1 36:1 45:1 51:1 53:1 57:1 67:1 76:1 78:1 81:1 84:1 86:1 92:1 103:1 111:1 
1 2:1 7:1 16:1 21:1 28:1 33:1 34:1 36:1 48:1 50:1 53:1 57:1 67:1 76:1 78:1 81:1 83:1 86:1 96:1 104:1 108:1 
0.8119441691404913 6:1 7:1 15:1 22:1 30:1 33:1 34:1 37:1 38:1 51:1 53:1 57:1 66:1 76:1 78:1 81:1 84:1 88:1 98:1 104:1 106:1 
1 3:1 8:1 19:1 21:1 28:1 33:1 34:1 36:1 46:1 50:1 53:1 57:1 67:1 76:1 78:1 81:1 83:1 86:1 96:1 104:1 108:1 
1 3:1 8:1 19:1 21:1 28:1 33:1 34:1 36:1 46:1 50:1 53:1 57:1 67:1 76:1 78:1 81:1 83:1 86:1 96:1 104:1 107:1 
1 2:1 8:1 19:1 21:1 28:1 33:1 34:1 36:1 40:1 50:1 53:1 57:1 67:1 76:1 78:1 81:1 83:1 86:1 96:1 104:1 107:1 
0.6838254641504613 2:1 7:1 12:1 21:1 28:1 33:1 34:1 36:1 46:1 50:1 53:1 57:1 67:1 76:1 78:1 81:1 83:1 86:1 96:1 104:1 107:1 
1 3:1 7:1 19:1 21:1 28:1 33:1 34:1 36:1 40:1 50:1 53:1 57:1 67:1 76:1 78:1 81:1 83:1 86:1 96:1 104:1 107:1 
1 3:1 7:1 20:1 22:1 28:1 33:1 34:1 37:1 48:1 50:1 54:1 56:1 67:1 74:1 78:1 81:1 84:1 88:1 98:1 104:1 106:1 
0.02723808715264725 6:1 8:1 19:1 21:1 25:1 33:1 34:1 36:1 48:1 51:1 55:1 59:1 67:1 76:1 78:1 81:1 84:1 86:1 92:1 103:1 107:1 
1 6:1 10:1 15:1 22:1 28:1 33:1 34:1 37:1 48:1 50:1 54:1 56:1 67:1 77:1 78:1 81:1 84:1 88:1 98:1 104:1 106:1 
-0.06971559352113704 2:1 7:1 19:1 21:1 27:1 33:1 34:1 36:1 44:1 50:1 53:1 57:1 67:1 76:1 78:1 81:1 84:1 86:1 95:1 103:1 108:1 
-0.2602165484724391 2:1 8:1 19:1 21:1 27:1 33:1 34:1 36:1 40:1 50:1 53:1 57:1 67:1 76:1 78:1 81:1 84:1 86:1 93:1 103:1 108:1 
-1 6:1 8:1 20:1 21:1 23:1 33:1 35:1 37:1 44:1 51:1 53:1 57:1 67:1 76:1 78:1 81:1 84:1 86:1 95:1 104:1 106:1 
-0.4955929792961089 6:1 7:1 15:1 21:1 23:1 33:1 34:1 36:1 48:1 50:1 53:1 56:1 67:1 76:1 78:1 81:1 84:1 86:1 93:1 103:1 107:1 
-1 6:1 8:1 19:1 21:1 27:1 33:1 34:1 36:1 42:1 50:1 53:1 57:1 67:1 76:1 78:1 81:1 84:1 86:1 93:1 103:1 107:1 
-1 6:1 8:1 19:1 21:1 27:1 33:1 34:1 36:1 44:1 50:1 53:1 57:1 67:1 76:1 78:1 81:1 84:1 86:1 93:1 103:1 107:1 
-0.2425889243609297 3:1 7:1 20:1 21:1 23:1 33:1 34:1 36:1 48:1 50:1 53:1 56:1 67:1 76:1 78:1 81:1 84:1 86:1 95:1 103:1 107:1 
-1 6:1 10:1 14:1 22:1 28:1 33:1 34:1 37:1 45:1 50:1 53:1 57:1 67:1 76:1 78:1 81:1 84:1 86:1 95:1 104:1 111:1 
-1 2:1 7:1 19:1 21:1 27:1 33:1 34:1 36:1 40:1 50:1 53:1 57:1 67:1 76:1 78:1 81:1 84:1 86:1 95:1 103:1 108:1 
-0.2957388601107441 6:1 7:1 15:1 21:1 23:1 33:1 34:1 36:1 45:1 50:1 53:1 56:1 67:1 76:1 78:1 81:1 84:1 86:1 93:1 103:1 110:1 
-0.1444159688486237 3:1 8:1 20:1 21:1 27:1 33:1 35:1 37:1 45:1 51:1 53:1 57:1 67:1 76:1 78:1 81:1 84:1 86:1 95:1 104:1 106:1 
-1 6:1 8:1 19:1 21:1 27:1 33:1 35:1 37:1 44:1 51:1 53:1 57:1 67:1 76:1 78:1 81:1 84:1 86:1 97:1 104:1 106:1 
-1 2:1 8:1 19:1 21:1 23:1 33:1 34:1 36:1 48:1 50:1 53:1 57:1 67:1 76:1 78:1 81:1 84:1 86:1 93:1 103:1 107:1 
-1 5:1 10:1 15:1 22:1 28:1 33:1 34:1 37:1 44:1 50:1 53:1 57:1 67:1 76:1 78:1 81:1 84:1 86:1 95:1 104:1 111:1 
-0.4294504511202398 2:1 8:1 19:1 21:1 27:1 33:1 34:1 36:1 42:1 50:1 53:1 57:1 67:1 76:1 78:1 81:1 84:1 86:1 93:1 103:1 107:1 
-1 6:1 8:1 19:1 21:1 23:1 33:1 34:1 36:1 40:1 50:1 53:1 57:1 67:1 76:1 78:1 81:1 84:1 86:1 95:1 103:1 107:1 
-1 3:1 7:1 15:1 21:1 27:1 33:1 34:1 36:1 45:1 50:1 53:1 56:1 67:1 76:1 78:1 81:1 84:1 86:1 95:1 103:1 107:1 
-0.9883542457889414 2:1 8:1 19:1 21:1 23:1 33:1 34:1 36:1 40:1 50:1 53:1 57:1 67:1 76:1 78:1 81:1 84:1 86:1 95:1 103:1 107:1 
-0.06849468146027532 3:1 7:1 20:1 21:1 27:1 33:1 34:1 36:1 48:1 50:1 53:1 56:1 67:1 76:1 78:1 81:1 84:1 86:1 95:1 103:1 107:1 
-1 2:1 7:1 19:1 21:1 23:1 33:1 34:1 36:1 40:1 50:1 53:1 57:1 67:1 76:1 78:1 81:1 84:1 86:1 95:1 103:1 108:1 
-0.01900242248077225 6:1 10:1 19:1 21:1 23:1 33:1 35:1 37:1 48:1 51:1 53:1 57:1 67:1 76:1 78:1 81:1 84:1 86:1 97:1 104:1 106:1 
-1 6:1 8:1 20:1 21:1 27:1 33:1 35:1 37:1 45:1 51:1 53:1 57:1 67:1 76:1 78:1 81:1 84:1 86:1 97:1 104:1 106:1 
-1 2:1 8:1 19:1 21:1 27:1 33:1 34:1 36:1 48:1 50:1 53:1 57:1 67:1 76:1 78:1 81:1 84:1 86:1 95:1 103:1 107:1 
-1 3:1 8:1 19:1 21:1 27:1 33:1 35:1 37:1 48:1 51:1 53:1 57:1 67:1 76:1 78:1 81:1 84:1 86:1 97:1 104:1 106:1 
-1 3:1 8:1 19:1 21:1 23:1 33:1 35:1 37:1 45:1 51:1 53:1 57:1 67:1 76:1 78:1 81:1 84:1 86:1 95:1 104:1 106:1 
-0.8545103279996983 5:1 10:1 15:1 22:1 28:1 33:1 34:1 37:1 42:1 50:1 53:1 57:1 67:1 76:1 78:1 81:1 84:1 86:1 95:1 104:1 111:1 
-0.1443110305546988 5:1 10:1 15:1 22:1 28:1 33:1 34:1 37:1 42:1 50:1 53:1 57:1 67:1 76:1 78:1 81:1 84:1 86:1 93:1 104:1 111:1 
-1 6:1 8:1 19:1 21:1 23:1 33:1 35:1 37:1 48:1 51:1 53:1 57:1 67:1 76:1 78:1 81:1 84:1 86:1 97:1 104:1 106:1 
-1 6:1 7:1 15:1 21:1 27:1 33:1 34:1 36:1 48:1 50:1 53:1 56:1 67:1 76:1 78:1 81:1 84:1 86:1 93:1 103:1 107:1 
-1 2:1 8:1 19:1 21:1 23:1 33:1 34:1 36:1 48:1 50:1 53:1 57:1 67:1 76:1 78:1 81:1 84:1 86:1 95:1 103:1 107:1 
-1 2:1 8:1 19:1 21:1 23:1 33:1 34:1 36:1 48:1 50:1 53:1 57:1 67:1 76:1 78:1 81:1 84:1 86:1 93:1 103:1 108:1 
-0.6275629595263633 2:1 8:1 19:1 21:1 23:1 33:1 34:1 36:1 42:1 50:1 53:1 57:1 67:1 76:1 78:1 81:1 84:1 86:1 93:1 103:1 107:1 
-1 6:1 10:1 14:1 22:1 28:1 33:1 34:1 37:1 40:1 50:1 53:1 57:1 67:1 76:1 78:1 81:1 84:1 86:1 95:1 105:1 111:1 
-1 3:1 10:1 15:1 22:1 28:1 33:1 34:1 37:1 40:1 50:1 53:1 57:1 67:1 76:1 78:1 81:1 84:1 86:1 93:1 104:1 111:1 
-1 3:1 10:1 14:1 22:1 28:1 33:1 34:1 37:1 45:1 50:1 53:1 57:1 67:1 76:1 78:1 81:1 84:1 86:1 93:1 104:1 111:1 
-1 6:1 8:1 19:1 21:1 27:1 33:1 35:1 37:1 48:1 51:1 53:1 57:1 67:1 76:1 78:1 81:1 84:1 86:1 95:1 104:1 106:1 
-1 2:1 8:1 19:1 21:1 27:1 33:1 34:1 36:1 48:1 50:1 53:1 57:1 67:1 76:1 78:1 81:1 84:1 86:1 95:1 103:1 108:1 
-1 3:1 8:1 19:1 21:1 23:1 33:1 35:1 37:1 44:1 51:1 53:1 57:1 67:1 76:1 78:1 81:1 84:1 86:1 95:1 104:1 106:1 
-1 2:1 8:1 19:1 21:1 27:1 33:1 34:1 36:1 48:1 50:1 53:1 57:1 67:1 76:1 78:1 81:1 84:1 86:1 93:1 103:1 107:1 
-0.9049401853778792 6:1 10:1 14:1 22:1 28:1 33:1 34:1 37:1 44:1 50:1 53:1 57:1 67:1 76:1 78:1 81:1 84:1 86:1 95:1 105:1 111:1 
-1 3:1 10:1 15:1 22:1 28:1 33:1 34:1 37:1 42:1 50:1 53:1 57:1 67:1 76:1 78:1 81:1 84:1 86:1 93:1 104:1 111:1 
-0.01370612342931956 6:1 8:1 19:1 21:1 27:1 33:1 34:1 36:1 48:1 50:1 53:1 57:1 67:1 76:1 78:1 81:1 84:1 86:1 93:1 103:1 107:1 
-1 6:1 8:1 19:1 21:1 27:1 33:1 35:1 37:1 45:1 51:1 53:1 57:1 67:1 76:1 78:1 81:1 84:1 86:1 97:1 104:1 106:1 
-1 5:1 10:1 15:1 22:1 28:1 33:1 34:1 37:1 40:1 50:1 53:1 57:1 67:1 76:1 78:1 81:1 84:1 86:1 95:1 104:1 111:1 
-1 3:1 10:1 15:1 22:1 28:1 33:1 34:1 37:1 42:1 50:1 53:1 57:1 67:1 76:1 78:1 81:1 84:1 86:1 95:1 104:1 111:1 
-1 3:1 7:1 15:1 21:1 27:1 33:1 34:1 36:1 48:1 50:1 53:1 56:1 67:1 76:1 78:1 81:1 84:1 86:1 95:1 103:1 107:1 
-1 3:1 10:1 14:1 22:1 28:1 33:1 34:1 37:1 40:1 50:1 53:1 57:1 67:1 76:1 78:1 81:1 84:1 86:1 93:1 104:1 111:1 
-0.934955445925324 5:1 10:1 15:1 22:1 28:1 33:1 34:1 37:1 45:1 50:1 53:1 57:1 67:1 76:1 78:1 81:1 84:1 86:1 95:1 104:1 111:1 
-0.7793958996000029 3:1 7:1 15:1 21:1 23:1 33:1 34:1 36:1 44:1 50:1 53:1 56:1 67:1 76:1 78:1 81:1 84:1 86:1 93:1 103:1 107:1 
-0.4404371812723155 6:1 10:1 14:1 22:1 28:1 33:1 34:1 37:1 40:1 50:1 53:1 57:1 67:1 76:1 78:1 81:1 84:1 86:1 93:1 105:1 111:1 
-0.8979973369248392 6:1 8:1 19:1 21:1 23:1 33:1 34:1 36:1 40:1 50:1 53:1 57:1 67:1 76:1 78:1 81:1 84:1 86:1 93:1 103:1 108:1 
-0.2044578531845455 3:1 8:1 20:1 21:1 23:1 33:1 35:1 37:1 45:1 51:1 53:1 57:1 67:1 76:1 78:1 81:1 84:1 86:1 95:1 104:1 106:1 
-1 6:1 8:1 20:1 21:1 27:1 33:1 35:1 37:1 48:1 51:1 53:1 57:1 67:1 76:1 78:1 81:1 84:1 86:1 95:1 104:1 106:1 
-0.5918079055613159 2:1 7:1 19:1 21:1 27:1 33:1 34:1 36:1 42:1 50:1 53:1 57:1 67:1 76:1 78:1 81:1 84:1 86:1 95:1 103:1 108:1 
-1 6:1 10:1 19:1 21:1 23:1 33:1 35:1 37:1 45:1 51:1 53:1 57:1 67:1 76:1 78:1 81:1 84:1 86:1 95:1 104:1 106:1 
-1 6:1 8:1 20:1 21:1 23:1 33:1 35:1 37:1 48:1 51:1 53:1 57:1 67:1 76:1 78:1 81:1 84:1 86:1 95:1 104:1 106:1 
-0.2998641278539281 6:1 10:1 19:1 21:1 27:1 33:1 35:1 37:1 44:1 51:1 53:1 57:1 67:1 76:1 78:1 81:1 84:1 86:1 95:1 104:1 106:1 
-1 3:1 8:1 19:1 21:1 27:1 33:1 35:1 37:1 48:1 51:1 53:1 57:1 67:1 76:1 78:1 81:1 84:1 86:1 95:1 104:1 106:1 
-0.2197200768360304 6:1 8:1 19:1 21:1 23:1 33:1 34:1 36:1 48:1 50:1 53:1 57:1 67:1 76:1 78:1 81:1 84:1 86:1 93:1 103:1 107:1 
-1 6:1 10:1 14:1 22:1 28:1 33:1 34:1 37:1 40:1 50:1 53:1 57:1 67:1 76:1 78:1 81:1 84:1 86:1 95:1 104:1 111:1 
-1 6:1 8:1 19:1 21:1 23:1 33:1 34:1 36:1 42:1 50:1 53:1 57:1 67:1 76:1 78:1 81:1 84:1 86:1 95:1 103:1 107:1 
-0.0959460735759041 6:1 10:1 15:1 22:1 28:1 33:1 34:1 37:1 40:1 50:1 53:1 57:1 67:1 76:1 78:1 81:1 84:1 86:1 95:1 105:1 111:1 
-1 5:1 10:1 14:1 22:1 28:1 33:1 34:1 37:1 40:1 50:1 53:1 57:1 67:1 76:1 78:1 81:1 84:1 86:1 95:1 104:1 111:1 
-1 3:1 10:1 15:1 22:1 28:1 33:1 34:1 37:1 45:1 50:1 53:1 57:1 67:1 76:1 78:1 81:1 84:1 86:1 93:1 104:1 111:1 
-0.1106504680589685 6:1 8:1 19:1 21:1 23:1 33:1 34:1 36:1 42:1 50:1 53:1 57:1 67:1 76:1 78:1 81:1 84:1 86:1 93:1 103:1 108:1 
-1 6:1 10:1 14:1 22:1 28:1 33:1 34:1 37:1 42:1 50:1 53:1 57:1 67:1 76:1 78:1 81:1 84:1 86:1 95:1 104:1 111:1 
-1 3:1 7:1 15:1 21:1 23:1 33:1 34:1 36:1 48:1 50:1 53:1 56:1 67:1 76:1 78:1 81:1 84:1 86:1 93:1 103:1 107:1 
-1 6:1 10:1 14:1 22:1 28:1 33:1 34:1 37:1 44:1 50:1 53:1 57:1 67:1 76:1 78:1 81:1 84:1 86:1 93:1 104:1 111:1 
-0.2870883612923512 6:1 8:1 19:1 21:1 23:1 33:1 34:1 36:1 40:1 50:1 53:1 57:1 67:1 76:1 78:1 81:1 84:1 86:1 95:1 103:1 108:1 
-1 6:1 8:1 19:1 21:1 23:1 33:1 34:1 36:1 40:1 50:1 53:1 57:1 67:1 76:1 78:1 81:1 84:1 86:1 93:1 103:1 107:1 
-0.9901374013793727 6:1 10:1 19:1 21:1 27:1 33:1 35:1 37:1 45:1 51:1 53:1 57:1 67:1 76:1 78:1 81:1 84:1 86:1 97:1 104:1 106:1 
-0.4136794118792984 2:1 7:1 19:1 21:1 23:1 33:1 34:1 36:1 48:1 50:1 53:1 57:1 67:1 76:1 78:1 81:1 84:1 86:1 95:1 103:1 108:1 
-1 3:1 7:1 15:1 21:1 27:1 33:1 34:1 36:1 48:1 50:1 53:1 56:1 67:1 76:1 78:1 81:1 84:1 86:1 93:1 103:1 107:1 
-1 6:1 8:1 19:1 21:1 23:1 33:1 35:1 37:1 44:1 51:1 53:1 57:1 67:1 76:1 78:1 81:1 84:1 86:1 95:1 104:1 106:1 
-1 3:1 10:1 14:1 22:1 28:1 33:1 34:1 37:1 44:1 50:1 53:1 57:1 67:1 76:1 78:1 81:1 84:1 86:1 95:1 104:1 111:1 
-1 3:1 8:1 19:1 21:1 27:1 33:1 35:1 37:1 44:1 51:1 53:1 57:1 67:1 76:1 78:1 81:1 84:1 86:1 95:1 104:1 106:1 
-0.6113848843328438 6:1 7:1 15:1 21:1 27:1 33:1 34:1 36:1 45:1 50:1 53:1 56:1 67:1 76:1 78:1 81:1 84:1 86:1 93:1 103:1 107:1 
-0.2753235769288583 3:1 7:1 15:1 21:1 27:1 33:1 34:1 36:1 44:1 50:1 53:1 56:1 67:1 76:1 78:1 81:1 84:1 86:1 93:1 103:1 107:1 
-1 2:1 8:1 19:1 21:1 27:1 33:1 34:1 36:1 48:1 50:1 53:1 57:1 67:1 76:1 78:1 81:1 84:1 86:1 93:1 103:1 108:1 
-0.3295691769691401 6:1 8:1 19:1 21:1 23:1 33:1 34:1 36:1 42:1 50:1 53:1 57:1 67:1 76:1 78:1 81:1 84:1 86:1 95:1 103:1 108:1 
-0.7129742656677478 2:1 8:1 19:1 21:1 23:1 33:1 34:1 36:1 40:1 50:1 53:1 57:1 67:1 76:1 78:1 81:1 84:1 86:1 93:1 103:1 107:1 
-1 6:1 10:1 15:1 22:1 28:1 33:1 34:1 37:1 42:1 50:1 53:1 57:1 67:1 76:1 78:1 81:1 84:1 86:1 93:1 104:1 111:1 
-1 6:1 8:1 19:1 21:1 23:1 33:1 35:1 37:1 45:1 51:1 53:1 57:1 67:1 76:1 78:1 81:1 84:1 86:1 95:1 104:1 106:1 
-1 3:1 8:1 19:1 21:1 27:1 33:1 35:1 37:1 45:1 51:1 53:1 57:1 67:1 76:1 78:1 81:1 84:1 86:1 97:1 104:1 106:1 
-1 3:1 8:1 19:1 21:1 23:1 33:1 35:1 37:1 48:1 51:1 53:1 57:1 67:1 76:1 78:1 81:1 84:1 86:1 95:1 104:1 106:1 
-0.3802547896098738 3:1 7:1 15:1 21:1 27:1 33:1 34:1 36:1 48:1 50:1 53:1 56:1 67:1 76:1 78:1 81:1 84:1 86:1 95:1 103:1 110:1 
-1 3:1 7:1 15:1 21:1 23:1 33:1 34:1 36:1 45:1 50:1 53:1 56:1 67:1 76:1 78:1 81:1 84:1 86:1 95:1 103:1 107:1 
-0.6718108847108871 6:1 10:1 19:1 21:1 23:1 33:1 35:1 37:1 44:1 51:1 53:1 57:1 67:1 76:1 78:1 81:1 84:1 86:1 95:1 104:1 106:1 
-1 3:1 10:1 14:1 22:1 28:1 33:1 34:1 37:1 45:1 50:1 53:1 57:1 67:1 76:1 78:1 81:1 84:1 86:1 95:1 104:1 111:1 
-0.7807391114705595 5:1 10:1 14:1 22:1 28:1 33:1 34:1 37:1 44:1 50:1 53:1 57:1 67:1 76:1 78:1 81:1 84:1 86:1 95:1 104:1 111:1 
-1 6:1 10:1 15:1 22:1 28:1 33:1 34:1 37:1 42:1 50:1 53:1 57:1 67:1 76:1 78:1 81:1 84:1 86:1 95:1 104:1 111:1 
-0.1092932324309856 2:1 8:1 19:1 21:1 27:1 33:1 34:1 36:1 44:1 50:1 53:1 57:1 67:1 76:1 78:1 81:1 84:1 86:1 93:1 103:1 107:1 
-0.460331243545124 3:1 7:1 15:1 21:1 23:1 33:1 34:1 36:1 48:1 50:1 53:1 56:1 67:1 76:1 78:1 81:1 84:1 86:1 95:1 103:1 110:1 
-0.4737632803848634 6:1 8:1 19:1 21:1 23:1 33:1 34:1 36:1 44:1 50:1 53:1 57:1 67:1 76:1 78:1 81:1 84:1 86:1 93:1 103:1 107:1 
-1 5:1 10:1 15:1 22:1 28:1 33:1 34:1 37:1 45:1 50:1 53:1 57:1 67:1 76:1 78:1 81:1 84:1 86:1 93:1 104:1 111:1 
-1 3:1 8:1 19:1 21:1 23:1 33:1 35:1 37:1 45:1 51:1 53:1 57:1 67:1 76:1 78:1 81:1 84:1 86:1 97:1 104:1 106:1 
-1 3:1 10:1 14:1 22:1 28:1 33:1 34:1 37:1 40:1 50:1 53:1 57:1 67:1 76:1 78:1 81:1 84:1 86:1 95:1 104:1 111:1 
-1 3:1 8:1 19:1 21:1 27:1 33:1 35:1 37:1 45:1 51:1 53:1 57:1 67:1 76:1 78:1 81:1 84:1 86:1 95:1 104:1 106:1 
-1 6:1 8:1 20:1 21:1 23:1 33:1 35:1 37:1 48:1 51:1 53:1 57:1 67:1 76:1 78:1 81:1 84:1 86:1 97:1 104:1 106:1 
-1 6:1 8:1 20:1 21:1 23:1 33:1 35:1 37:1 44:1 51:1 53:1 57:1 67:1 76:1 78:1 81:1 84:1 86:1 97:1 104:1 106:1 
-1 2:1 8:1 19:1 21:1 23:1 33:1 34:1 36:1 48:1 50:1 53:1 57:1 67:1 76:1 78:1 81:1 84:1 86:1 95:1 103:1 108:1 
-1 6:1 10:1 15:1 22:1 28:1 33:1 34:1 37:1 45:1 50:1 53:1 57:1 67:1 76:1 78:1 81:1 84:1 86:1 95:1 104:1 111:1 
-0.7066846009753653 3:1 7:1 20:1 21:1 23:1 33:1 34:1 36:1 48:1 50:1 53:1 56:1 67:1 76:1 78:1 81:1 84:1 86:1 93:1 103:1 107:1 
-1 5:1 10:1 14:1 22:1 28:1 33:1 34:1 37:1 40:1 50:1 53:1 57:1 67:1 76:1 78:1 81:1 84:1 86:1 93:1 104:1 111:1 
-0.735979382541681 5:1 10:1 14:1 22:1 28:1 33:1 34:1 37:1 44:1 50:1 53:1 57:1 67:1 76:1 78:1 81:1 84:1 86:1 93:1 104:1 111:1 
-0.9572254542092055 2:1 7:1 19:1 21:1 27:1 33:1 34:1 36:1 40:1 50:1 53:1 57:1 67:1 76:1 78:1 81:1 84:1 86:1 93:1 103:1 108:1 
-0.4173588680945799 2:1 7:1 19:1 21:1 27:1 33:1 34:1 36:1 48:1 50:1 53:1 57:1 67:1 76:1 78:1 81:1 84:1 86:1 93:1 103:1 108:1 
-1 3:1 10:1 14:1 22:1 28:1 33:1 34:1 37:1 44:1 50:1 53:1 57:1 67:1 76:1 78:1 81:1 84:1 86:1 93:1 104:1 111:1 
-0.5505319180671833 2:1 8:1 19:1 21:1 27:1 33:1 34:1 36:1 40:1 50:1 53:1 57:1 67:1 76:1 78:1 81:1 84:1 86:1 93:1 103:1 107:1 
-0.5879102703420922 6:1 8:1 19:1 21:1 27:1 33:1 34:1 36:1 40:1 50:1 53:1 57:1 67:1 76:1 78:1 81:1 84:1 86:1 93:1 103:1 108:1 
-1 6:1 7:1 15:1 21:1 23:1 33:1 34:1 36:1 45:1 50:1 53:1 56:1 67:1 76:1 78:1 81:1 84:1 86:1 95:1 103:1 107:1 
-0.3539295421702266 3:1 7:1 15:1 21:1 27:1 33:1 34:1 36:1 48:1 50:1 53:1 56:1 67:1 76:1 78:1 81:1 84:1 86:1 93:1 103:1 110:1 
-1 6:1 8:1 20:1 21:1 27:1 33:1 35:1 37:1 44:1 51:1 53:1 57:1 67:1 76:1 78:1 81:1 84:1 86:1 97:1 104:1 106:1 
-1 2:1 7:1 19:1 21:1 23:1 33:1 34:1 36:1 40:1 50:1 53:1 57:1 67:1 76:1 78:1 81:1 84:1 86:1 93:1 103:1 108:1 
-0.2810068440889023 6:1 8:1 19:1 21:1 27:1 33:1 34:1 36:1 42:1 50:1 53:1 57:1 67:1 76:1 78:1 81:1 84:1 86:1 93:1 103:1 108:1 
-0.9356441614037964 2:1 8:1 19:1 21:1 27:1 33:1 34:1 36:1 40:1 50:1 53:1 57:1 67:1 76:1 78:1 81:1 84:1 86:1 95:1 103:1 107:1 
-1 3:1 7:1 15:1 21:1 23:1 33:1 34:1 36:1 48:1 50:1 53:1 56:1 67:1 76:1 78:1 81:1 84:1 86:1 95:1 103:1 107:1 
-1 3:1 10:1 15:1 22:1 28:1 33:1 34:1 37:1 45:1 50:1 53:1 57:1 67:1 76:1 78:1 81:1 84:1 86:1 95:1 104:1 111:1 
-1 3:1 10:1 14:1 22:1 28:1 33:1 34:1 37:1 42:1 50:1 53:1 57:1 67:1 76:1 78:1 81:1 84:1 86:1 95:1 104:1 111:1 
-0.569522025298092 2:1 8:1 19:1 21:1 23:1 33:1 34:1 36:1 40:1 50:1 53:1 57:1 67:1 76:1 78:1 81:1 84:1 86:1 93:1 103:1 108:1 
-1 6:1 8:1 19:1 21:1 27:1 33:1 35:1 37:1 44:1 51:1 53:1 57:1 67:1 76:1 78:1 81:1 84:1 86:1 95:1 104:1 106:1 
-1 3:1 10:1 14:1 22:1 28:1 33:1 34:1 37:1 42:1 50:1 53:1 57:1 67:1 76:1 78:1 81:1 84:1 86:1 93:1 104:1 111:1 
-1 6:1 8:1 19:1 21:1 23:1 33:1 34:1 36:1 42:1 50:1 53:1 57:1 67:1 76:1 78:1 81:1 84:1 86:1 93:1 103:1 107:1 
-0.02317116030181858 6:1 7:1 15:1 21:1 23:1 33:1 34:1 36:1 45:1 50:1 53:1 56:1 67:1 76:1 78:1 81:1 84:1 86:1 95:1 103:1 110:1 
-1 5:1 10:1 15:1 22:1 28:1 33:1 34:1 37:1 40:1 50:1 53:1 57:1 67:1 76:1 78:1 81:1 84:1 86:1 93:1 104:1 111:1 
-1 3:1 7:1 15:1 21:1 23:1 33:1 34:1 36:1 44:1 50:1 53:1 56:1 67:1 76:1 78:1 81:1 84:1 86:1 95:1 103:1 107:1 
-1 6:1 8:1 19:1 21:1 27:1 33:1 34:1 36:1 40:1 50:1 53:1 57:1 67:1 76:1 78:1 81:1 84:1 86:1 93:1 103:1 107:1 
-1 6:1 10:1 14:1 22:1 28:1 33:1 34:1 37:1 45:1 50:1 53:1 57:1 67:1 76:1 78:1 81:1 84:1 86:1 93:1 104:1 111:1 
-1 6:1 10:1 15:1 22:1 28:1 33:1 34:1 37:1 45:1 50:1 53:1 57:1 67:1 76:1 78:1 81:1 84:1 86:1 93:1 104:1 111:1 
-0.9873269974106684 6:1 7:1 15:1 21:1 23:1 33:1 34:1 36:1 45:1 50:1 53:1 56:1 67:1 76:1 78:1 81:1 84:1 86:1 93:1 103:1 107:1 
-0.3049392406345772 2:1 7:1 19:1 21:1 23:1 33:1 34:1 36:1 48:1 50:1 53:1 57:1 67:1 76:1 78:1 81:1 84:1 86:1 93:1 103:1 108:1 
-1 3:1 8:1 19:1 21:1 23:1 33:1 35:1 37:1 44:1 51:1 53:1 57:1 67:1 76:1 78:1 81:1 84:1 86:1 97:1 104:1 106:1 
-1 6:1 10:1 15:1 22:1 28:1 33:1 34:1 37:1 40:1 50:1 53:1 57:1 67:1 76:1 78:1 81:1 84:1 86:1 95:1 104:1 111:1 
-1 6:1 8:1 19:1 21:1 27:1 33:1 35:1 37:1 45:1 51:1 53:1 57:1 67:1 76:1 78:1 81:1 84:1 86:1 95:1 104:1 106:1 
-1 6:1 8:1 20:1 21:1 23:1 33:1 35:1 37:1 45:1 51:1 53:1 57:1 67:1 76:1 78:1 81:1 84:1 86:1 95:1 104:1 106:1 
-0.5042657260912793 6:1 8:1 19:1 21:1 27:1 33:1 34:1 36:1 44:1 50:1 53:1 57:1 67:1 76:1 78:1 81:1 84:1 86:1 93:1 103:1 108:1 
-1 6:1 10:1 15:1 22:1 28:1 33:1 34:1 37:1 44:1 50:1 53:1 57:1 67:1 76:1 78:1 81:1 84:1 86:1 93:1 104:1 111:1 
-0.8709857228072508 3:1 7:1 20:1 21:1 27:1 33:1 34:1 36:1 48:1 50:1 53:1 56:1 67:1 76:1 78:1 81:1 84:1 86:1 93:1 103:1 107:1 
-1 6:1 8:1 20:1 21:1 27:1 33:1 35:1 37:1 45:1 51:1 53:1 57:1 67:1 76:1 78:1 81:1 84:1 86:1 95:1 104:1 106:1 
-0.7366201773017402 6:1 8:1 19:1 21:1 23:1 33:1 34:1 36:1 44:1 50:1 53:1 57:1 67:1 76:1 78:1 81:1 84:1 86:1 93:1 103:1 108:1 
-1 6:1 8:1 19:1 21:1 23:1 33:1 35:1 37:1 48:1 51:1 53:1 57:1 67:1 76:1 78:1 81:1 84:1 86:1 95:1 104:1 106:1 
-1 6:1 10:1 14:1 22:1 28:1 33:1 34:1 37:1 42:1 50:1 53:1 57:1 67:1 76:1 78:1 81:1 84:1 86:1 93:1 104:1 111:1 
-1 6:1 8:1 19:1 21:1 27:1 33:1 34:1 36:1 40:1 50:1 53:1 57:1 67:1 76:1 78:1 81:1 84:1 86:1 95:1 103:1 107:1 
-1 6:1 8:1 19:1 21:1 27:1 33:1 34:1 36:1 40:1 50:1 53:1 57:1 67:1 76:1 78:1 81:1 84:1 86:1 95:1 103:1 108:1 
-1 5:1 10:1 14:1 22:1 28:1 33:1 34:1 37:1 45:1 50:1 53:1 57:1 67:1 76:1 78:1 81:1 84:1 86:1 93:1 104:1 111:1 
-1 6:1 8:1 19:1 21:1 27:1 33:1 35:1 37:1 48:1 51:1 53:1 57:1 67:1 76:1 78:1 81:1 84:1 86:1 97:1 104:1 106:1 
-0.7149311111849668 2:1 8:1 19:1 21:1 27:1 33:1 34:1 36:1 42:1 50:1 53:1 57:1 67:1 76:1 78:1 81:1 84:1 86:1 95:1 103:1 107:1 
-1 3:1 7:1 15:1 21:1 23:1 33:1 34:1 36:1 45:1 50:1 53:1 56:1 67:1 76:1 78:1 81:1 84:1 86:1 93:1 103:1 107:1 
-1 5:1 10:1 15:1 22:1 28:1 33:1 34:1 37:1 44:1 50:1 53:1 57:1 67:1 76:1 78:1 81:1 84:1 86:1 93:1 104:1 111:1 
-1 3:1 10:1 15:1 22:1 28:1 33:1 34:1 37:1 44:1 50:1 53:1 57:1 67:1 76:1 78:1 81:1 84:1 86:1 95:1 104:1 111:1 
-0.8631389488883169 6:1 10:1 14:1 22:1 28:1 33:1 34:1 37:1 45:1 50:1 53:1 57:1 67:1 76:1 78:1 81:1 84:1 86:1 95:1 105:1 111:1 
-1 6:1 8:1 19:1 21:1 23:1 33:1 35:1 37:1 45:1 51:1 53:1 57:1 67:1 76:1 78:1 81:1 84:1 86:1 97:1 104:1 106:1 
-1 6:1 7:1 15:1 21:1 27:1 33:1 34:1 36:1 45:1 50:1 53:1 56:1 67:1 76:1 78:1 81:1 84:1 86:1 95:1 103:1 107:1 
-1 6:1 8:1 20:1 21:1 27:1 33:1 35:1 37:1 48:1 51:1 53:1 57:1 67:1 76:1 78:1 81:1 84:1 86:1 97:1 104:1 106:1 
-0.5175764995657459 6:1 10:1 15:1 22:1 28:1 33:1 34:1 37:1 44:1 50:1 53:1 57:1 67:1 76:1 78:1 81:1 84:1 86:1 93:1 105:1 111:1 
-1 3:1 10:1 15:1 22:1 28:1 33:1 34:1 37:1 44:1 50:1 53:1 57:1 67:1 76:1 78:1 81:1 84:1 86:1 93:1 104:1 111:1 
-1 3:1 8:1 19:1 21:1 23:1 33:1 35:1 37:1 48:1 51:1 53:1 57:1 67:1 76:1 78:1 81:1 84:1 86:1 97:1 104:1 106:1 
-0.6932089220021099 6:1 8:1 19:1 21:1 27:1 33:1 34:1 36:1 42:1 50:1 53:1 57:1 67:1 76:1 78:1 81:1 84:1 86:1 95:1 103:1 107:1 
-1 3:1 7:1 15:1 21:1 27:1 33:1 34:1 36:1 44:1 50:1 53:1 56:1 67:1 76:1 78:1 81:1 84:1 86:1 95:1 103:1 107:1 
-1 6:1 10:1 15:1 22:1 28:1 33:1 34:1 37:1 44:1 50:1 53:1 57:1 67:1 76:1 78:1 81:1 84:1 86:1 95:1 104:1 111:1 
-1 6:1 10:1 19:1 21:1 27:1 33:1 35:1 37:1 45:1 51:1 53:1 57:1 67:1 76:1 78:1 81:1 84:1 86:1 95:1 104:1 106:1 
-1 6:1 8:1 20:1 21:1 27:1 33:1 35:1 37:1 44:1 51:1 53:1 57:1 67:1 76:1 78:1 81:1 84:1 86:1 95:1 104:1 106:1 
-0.4294769295030587 6:1 7:1 15:1 21:1 27:1 33:1 34:1 36:1 45:1 50:1 53:1 56:1 67:1 76:1 78:1 81:1 84:1 86:1 93:1 103:1 110:1 
-1 6:1 7:1 15:1 21:1 23:1 33:1 34:1 36:1 48:1 50:1 53:1 56:1 67:1 76:1 78:1 81:1 84:1 86:1 95:1 103:1 107:1 
-1 3:1 7:1 15:1 21:1 27:1 33:1 34:1 36:1 45:1 50:1 53:1 56:1 67:1 76:1 78:1 81:1 84:1 86:1 93:1 103:1 107:1 
-0.2157560852703555 2:1 7:1 19:1 21:1 23:1 33:1 34:1 36:1 42:1 50:1 53:1 57:1 67:1 76:1 78:1 81:1 84:1 86:1 95:1 103:1 108:1 
-1 6:1 10:1 15:1 22:1 28:1 33:1 34:1 37:1 40:1 50:1 53:1 57:1 67:1 76:1 78:1 81:1 84:1 86:1 93:1 104:1 111:1 
-1 6:1 10:1 14:1 22:1 28:1 33:1 34:1 37:1 40:1 50:1 53:1 57:1 67:1 76:1 78:1 81:1 84:1 86:1 93:1 104:1 111:1 
-1 6:1 10:1 14:1 22:1 28:1 33:1 34:1 37:1 45:1 50:1 53:1 57:1 67:1 76:1 78:1 81:1 84:1 86:1 93:1 105:1 111:1 
-1 3:1 10:1 15:1 22:1 28:1 33:1 34:1 37:1 40:1 50:1 53:1 57:1 67:1 76:1 78:1 81:1 84:1 86:1 95:1 104:1 111:1 
-0.05954943198744606 3:1 7:1 15:1 21:1 23:1 33:1 34:1 36:1 48:1 50:1 53:1 56:1 67:1 76:1 78:1 81:1 84:1 86:1 93:1 103:1 110:1 
-1 6:1 8:1 19:1 21:1 23:1 33:1 35:1 37:1 44:1 51:1 53:1 57:1 67:1 76:1 78:1 81:1 84:1 86:1 97:1 104:1 106:1 
-1 6:1 8:1 20:1 21:1 23:1 33:1 35:1 37:1 45:1 51:1 53:1 57:1 67:1 76:1 78:1 81:1 84:1 86:1 97:1 104:1 106:1 
-0.600473669235138 6:1 10:1 19:1 21:1 23:1 33:1 35:1 37:1 45:1 51:1 53:1 57:1 67:1 76:1 78:1 81:1 84:1 86:1 97:1 104:1 106:1 
-1 6:1 7:1 15:1 21:1 27:1 33:1 34:1 36:1 48:1 50:1 53:1 56:1 67:1 76:1 78:1 81:1 84:1 86:1 95:1 103:1 107:1 
-1 6:1 10:1 14:1 22:1 28:1 33:1 34:1 37:1 44:1 50:1 53:1 57:1 67:1 76:1 78:1 81:1 84:1 86:1 95:1 104:1 111:1 
-0.1057647109082479 2:1 8:1 19:1 21:1 23:1 33:1 34:1 36:1 42:1 50:1 53:1 57:1 67:1 76:1 78:1 81:1 84:1 86:1 95:1 103:1 107:1 
-1 3:1 8:1 19:1 21:1 27:1 33:1 35:1 37:1 44:1 51:1 53:1 57:1 67:1 76:1 78:1 81:1 84:1 86:1 97:1 104:1 106:1 
-0.2906960245056539 6:1 7:1 14:1 21:1 28:1 33:1 34:1 36:1 47:1 51:1 53:1 57:1 66:1 72:1 78:1 81:1 84:1 86:1 93:1 104:1 106:1 
-0.03369988031878201 6:1 7:1 15:1 21:1 28:1 33:1 34:1 36:1 47:1 51:1 53:1 57:1 63:1 75:1 78:1 81:1 84:1 86:1 93:1 104:1 106:1 
-0.6790191005880194 6:1 7:1 14:1 21:1 28:1 33:1 34:1 36:1 47:1 51:1 53:1 57:1 66:1 75:1 78:1 81:1 84:1 86:1 95:1 104:1 106:1 
-1 6:1 7:1 14:1 21:1 28:1 33:1 34:1 36:1 47:1 51:1 53:1 57:1 66:1 76:1 78:1 81:1 84:1 86:1 93:1 104:1 106:1 
-0.9074961561286808 6:1 7:1 14:1 21:1 28:1 33:1 34:1 36:1 48:1 51:1 53:1 57:1 66:1 75:1 78:1 81:1 84:1 86:1 93:1 104:1 106:1 
-0.1762026404232075 6:1 7:1 15:1 21:1 28:1 33:1 34:1 36:1 47:1 51:1 53:1 57:1 67:1 75:1 78:1 81:1 84:1 86:1 93:1 104:1 106:1 
-1 6:1 7:1 14:1 21:1 28:1 33:1 34:1 36:1 47:1 51:1 53:1 57:1 67:1 75:1 78:1 81:1 84:1 86:1 93:1 104:1 106:1 
-0.1301506114961336 6:1 7:1 15:1 21:1 28:1 33:1 34:1 36:1 47:1 51:1 53:1 57:1 66:1 72:1 78:1 81:1 84:1 86:1 93:1 104:1 106:1 
-1 6:1 7:1 15:1 21:1 28:1 33:1 34:1 36:1 47:1 51:1 53:1 57:1 66:1 75:1 78:1 81:1 84:1 86:1 95:1 104:1 106:1 
-0.7437346228116404 6:1 7:1 14:1 21:1 28:1 33:1 34:1 36:1 47:1 51:1 53:1 57:1 67:1 76:1 78:1 81:1 84:1 86:1 93:1 104:1 106:1 
-1 6:1 7:1 15:1 21:1 28:1 33:1 34:1 36:1 47:1 51:1 53:1 57:1 66:1 75:1 78:1 81:1 84:1 86:1 93:1 104:1 106:1 
-0.8854070722079886 3:1 7:1 15:1 21:1 28:1 33:1 34:1 36:1 48:1 51:1 53:1 57:1 66:1 75:1 78:1 81:1 84:1 86:1 93:1 104:1 106:1 
-0.3847258803545788 6:1 7:1 14:1 21:1 28:1 33:1 34:1 36:1 48:1 51:1 53:1 57:1 67:1 75:1 78:1 81:1 84:1 86:1 93:1 104:1 106:1 
-0.0365525997384506 3:1 7:1 15:1 21:1 28:1 33:1 34:1 36:1 47:1 51:1 53:1 57:1 66:1 72:1 78:1 81:1 84:1 86:1 93:1 104:1 106:1 
-0.7812558546055735 3:1 7:1 14:1 21:1 28:1 33:1 34:1 36:1 48:1 51:1 53:1 57:1 67:1 75:1 78:1 81:1 84:1 86:1 93:1 104:1 106:1 
-0.4859777181994737 6:1 7:1 14:1 21:1 28:1 33:1 34:1 36:1 47:1 51:1 53:1 57:1 67:1 72:1 78:1 81:1 84:1 86:1 93:1 104:1 106:1 
-0.2005469041553851 3:1 7:1 14:1 21:1 28:1 33:1 34:1 36:1 48:1 51:1 53:1 57:1 67:1 72:1 78:1 81:1 84:1 86:1 93:1 104:1 106:1 
-0.5246246575106118 3:1 7:1 15:1 21:1 28:1 33:1 34:1 36:1 47:1 51:1 53:1 57:1 66:1 75:1 78:1 81:1 84:1 86:1 93:1 104:1 106:1 
-1 4:1 7:1 15:1 22:1 28:1 33:1 35:1 37:1 48:1 50:1 55:1 59:1 67:1 74:1 78:1 81:1 84:1 88:1 98:1 104:1 109:1 
-1 3:1 8:1 16:1 21:1 28:1 33:1 34:1 36:1 39:1 50:1 53:1 57:1 67:1 76:1 78:1 81:1 83:1 88:1 98:1 101:1 112:1 
-1 6:1 7:1 17:1 22:1 28:1 33:1 34:1 37:1 45:1 50:1 53:1 59:1 67:1 76:1 78:1 81:1 84:1 90:1 92:1 104:1 106:1 
-1 6:1 8:1 12:1 21:1 28:1 33:1 34:1 36:1 39:1 50:1 53:1 57:1 67:1 76:1 78:1 81:1 83:1 88:1 98:1 101:1 112:1 
-1 6:1 7:1 18:1 22:1 28:1 33:1 34:1 37:1 41:1 50:1 53:1 59:1 67:1 76:1 78:1 81:1 84:1 90:1 92:1 104:1 106:1 
-1 6:1 7:1 18:1 22:1 28:1 33:1 34:1 37:1 47:1 50:1 53:1 59:1 67:1 76:1 78:1 81:1 84:1 90:1 92:1 104:1 106:1 
-1 3:1 7:1 12:1 21:1 28:1 33:1 34:1 36:1 48:1 50:1 53:1 57:1 67:1 76:1 78:1 81:1 83:1 88:1 98:1 101:1 112:1 
-1 3:1 7:1 18:1 22:1 28:1 33:1 34:1 37:1 41:1 50:1 53:1 59:1 67:1 76:1 78:1 81:1 84:1 90:1 92:1 104:1 106:1 
-1 6:1 7:1 18:1 22:1 28:1 33:1 34:1 37:1 48:1 50:1 53:1 59:1 67:1 76:1 78:1 81:1 84:1 90:1 92:1 105:1 106:1 
-1 3:1 8:1 16:1 21:1 28:1 33:1 34:1 36:1 48:1 50:1 53:1 57:1 67:1 71:1 78:1 81:1 83:1 88:1 98:1 101:1 112:1 
-1 3:1 7:1 18:1 22:1 28:1 33:1 34:1 37:1 47:1 50:1 53:1 59:1 67:1 76:1 78:1 81:1 84:1 90:1 92:1 104:1 106:1 
-1 6:1 8:1 16:1 21:1 28:1 33:1 34:1 36:1 39:1 50:1 53:1 57:1 67:1 76:1 78:1 81:1 83:1 88:1 98:1 101:1 112:1 
-1 4:1 7:1 15:1 22:1 28:1 33:1 35:1 37:1 48:1 50:1 55:1 57:1 67:1 74:1 78:1 81:1 84:1 88:1 98:1 104:1 109:1 
-1 3:1 7:1 19:1 22:1 28:1 33:1 34:1 37:1 41:1 50:1 53:1 59:1 67:1 76:1 78:1 81:1 84:1 90:1 92:1 104:1 106:1 
-1 6:1 10:1 15:1 22:1 28:1 33:1 35:1 37:1 48:1 50:1 53:1 59:1 67:1 74:1 78:1 81:1 84:1 88:1 98:1 104:1 109:1 
-1 3:1 8:1 12:1 21:1 28:1 33:1 34:1 36:1 48:1 50:1 53:1 57:1 67:1 76:1 78:1 81:1 83:1 88:1 98:1 101:1 112:1 
-1 3:1 8:1 12:1 21:1 28:1 33:1 34:1 36:1 48:1 50:1 53:1 57:1 67:1 71:1 78:1 81:1 83:1 88:1 98:1 101:1 112:1 
-1 3:1 8:1 12:1 21:1 28:1 33:1 34:1 36:1 39:1 50:1 53:1 57:1 67:1 76:1 78:1 81:1 83:1 88:1 98:1 101:1 112:1 
-1 3:1 7:1 18:1 22:1 28:1 33:1 34:1 37:1 45:1 50:1 53:1 59:1 67:1 76:1 78:1 81:1 84:1 90:1 92:1 104:1 106:1 
-1 6:1 7:1 19:1 22:1 28:1 33:1 34:1 37:1 47:1 50:1 53:1 59:1 67:1 76:1 78:1 81:1 84:1 90:1 92:1 105:1 106:1 
-1 3:1 7:1 11:1 22:1 28:1 33:1 35:1 37:1 48:1 50:1 55:1 57:1 67:1 74:1 78:1 81:1 84:1 88:1 98:1 104:1 109:1 
-1 3:1 7:1 16:1 21:1 28:1 33:1 34:1 36:1 48:1 50:1 53:1 57:1 67:1 71:1 78:1 81:1 83:1 88:1 98:1 101:1 112:1 
-1 4:1 7:1 11:1 22:1 28:1 33:1 35:1 37:1 48:1 50:1 55:1 57:1 67:1 74:1 78:1 81:1 84:1 88:1 98:1 104:1 109:1 
-1 6:1 8:1 16:1 21:1 28:1 33:1 34:1 36:1 48:1 50:1 53:1 57:1 67:1 76:1 78:1 81:1 83:1 88:1 98:1 101:1 112:1 
-1 6:1 7:1 11:1 22:1 28:1 33:1 35:1 37:1 48:1 50:1 55:1 59:1 67:1 74:1 78:1 81:1 84:1 88:1 98:1 104:1 109:1 
-1 6:1 7:1 19:1 22:1 28:1 33:1 34:1 37:1 41:1 50:1 53:1 59:1 67:1 76:1 78:1 81:1 84:1 90:1 92:1 104:1 106:1 
-0.1148239563356786 4:1 8:1 12:1 21:1 28:1 33:1 34:1 36:1 48:1 50:1 53:1 57:1 67:1 76:1 78:1 81:1 83:1 88:1 98:1 101:1 112:1 
-0.6195084906315165 4:1 10:1 15:1 22:1 28:1 33:1 35:1 37:1 48:1 50:1 55:1 59:1 67:1 74:1 78:1 81:1 84:1 88:1 98:1 104:1 109:1 
-1 4:1 10:1 15:1 22:1 28:1 33:1 35:1 37:1 48:1 50:1 53:1 57:1 67:1 74:1 78:1 81:1 84:1 88:1 98:1 104:1 109:1 
-1 3:1 7:1 19:1 22:1 28:1 33:1 34:1 37:1 47:1 50:1 53:1 59:1 67:1 76:1 78:1 81:1 84:1 90:1 92:1 105:1 106:1 
-1 6:1 7:1 17:1 22:1 28:1 33:1 34:1 37:1 48:1 50:1 53:1 59:1 67:1 76:1 78:1 81:1 84:1 90:1 92:1 104:1 106:1 
-0.175033479509426 6:1 7:1 17:1 22:1 28:1 33:1 34:1 37:1 48:1 50:1 53:1 59:1 67:1 76:1 78:1 81:1 84:1 90:1 92:1 105:1 106:1 
-0.983759132041313 3:1 7:1 15:1 21:1 28:1 33:1 34:1 36:1 48:1 50:1 53:1 57:1 67:1 76:1 78:1 81:1 83:1 88:1 98:1 101:1 112:1 
-1 6:1 7:1 15:1 22:1 28:1 33:1 35:1 37:1 48:1 50:1 53:1 59:1 67:1 74:1 78:1 81:1 84:1 88:1 98:1 104:1 109:1 
-1 3:1 7:1 19:1 22:1 28:1 33:1 34:1 37:1 45:1 50:1 53:1 59:1 67:1 76:1 78:1 81:1 84:1 90:1 92:1 104:1 106:1 
-1 6:1 7:1 11:1 22:1 28:1 33:1 35:1 37:1 48:1 50:1 55:1 57:1 67:1 74:1 78:1 81:1 84:1 88:1 98:1 104:1 109:1 
-1 3:1 10:1 15:1 22:1 28:1 33:1 35:1 37:1 48:1 50:1 55:1 59:1 67:1 74:1 78:1 81:1 84:1 88:1 98:1 104:1 109:1 
-1 6:1 10:1 15:1 22:1 28:1 33:1 35:1 37:1 48:1 50:1 55:1 57:1 67:1 74:1 78:1 81:1 84:1 88:1 98:1 104:1 109:1 
-1 6:1 7:1 17:1 22:1 28:1 33:1 34:1 37:1 41:1 50:1 53:1 59:1 67:1 76:1 78:1 81:1 84:1 90:1 92:1 104:1 106:1 
-1 6:1 7:1 16:1 21:1 28:1 33:1 34:1 36:1 48:1 50:1 53:1 57:1 67:1 76:1 78:1 81:1 83:1 88:1 98:1 101:1 112:1 
-0.06217836152358742 3:1 8:1 16:1 21:1 28:1 33:1 34:1 36:1 39:1 50:1 53:1 57:1 67:1 71:1 78:1 81:1 83:1 88:1 98:1 101:1 112:1 
-1 6:1 7:1 15:1 22:1 28:1 33:1 35:1 37:1 48:1 50:1 55:1 59:1 67:1 74:1 78:1 81:1 84:1 88:1 98:1 104:1 109:1 
-1 3:1 7:1 11:1 22:1 28:1 33:1 35:1 37:1 48:1 50:1 53:1 57:1 67:1 74:1 78:1 81:1 84:1 88:1 98:1 104:1 109:1 
-1 6:1 10:1 11:1 22:1 28:1 33:1 35:1 37:1 48:1 50:1 55:1 57:1 67:1 74:1 78:1 81:1 84:1 88:1 98:1 104:1 109:1 
-1 3:1 7:1 17:1 22:1 28:1 33:1 34:1 37:1 48:1 50:1 53:1 59:1 67:1 76:1 78:1 81:1 84:1 90:1 92:1 104:1 106:1 
-1 4:1 8:1 16:1 21:1 28:1 33:1 34:1 36:1 48:1 50:1 53:1 57:1 67:1 76:1 78:1 81:1 83:1 88:1 98:1 101:1 112:1 
-1 3:1 7:1 19:1 22:1 28:1 33:1 34:1 37:1 41:1 50:1 53:1 59:1 67:1 76:1 78:1 81:1 84:1 90:1 92:1 105:1 106:1 
-1 3:1 7:1 17:1 22:1 28:1 33:1 34:1 37:1 41:1 50:1 53:1 59:1 67:1 76:1 78:1 81:1 84:1 90:1 92:1 104:1 106:1 
-1 6:1 7:1 12:1 21:1 28:1 33:1 34:1 36:1 48:1 50:1 53:1 57:1 67:1 76:1 78:1 81:1 83:1 88:1 98:1 101:1 112:1 
-1 6:1 7:1 12:1 21:1 28:1 33:1 34:1 36:1 39:1 50:1 53:1 57:1 67:1 76:1 78:1 81:1 83:1 88:1 98:1 101:1 112:1 
-0.2306824885044127 4:1 7:1 11:1 22:1 28:1 33:1 35:1 37:1 48:1 50:1 53:1 57:1 67:1 74:1 78:1 81:1 84:1 88:1 98:1 104:1 109:1 
-1 4:1 7:1 15:1 22:1 28:1 33:1 35:1 37:1 48:1 50:1 53:1 57:1 67:1 74:1 78:1 81:1 84:1 88:1 98:1 104:1 109:1 
-1 3:1 7:1 17:1 22:1 28:1 33:1 34:1 37:1 45:1 50:1 53:1 59:1 67:1 76:1 78:1 81:1 84:1 90:1 92:1 104:1 106:1 
-1 3:1 8:1 16:1 21:1 28:1 33:1 34:1 36:1 48:1 50:1 53:1 57:1 62:1 76:1 78:1 81:1 83:1 88:1 98:1 101:1 112:1 
-1 6:1 7:1 11:1 22:1 28:1 33:1 35:1 37:1 48:1 50:1 53:1 57:1 67:1 74:1 78:1 81:1 84:1 88:1 98:1 104:1 109:1 
-1 3:1 7:1 15:1 22:1 28:1 33:1 35:1 37:1 48:1 50:1 55:1 57:1 67:1 74:1 78:1 81:1 84:1 88:1 98:1 104:1 109:1 
-1 6:1 8:1 16:1 21:1 28:1 33:1 34:1 36:1 48:1 50:1 53:1 57:1 62:1 76:1 78:1 81:1 83:1 88:1 98:1 101:1 112:1 
-0.1259219059311661 6:1 7:1 11:1 22:1 28:1 33:1 35:1 37:1 48:1 50:1 53:1 59:1 67:1 74:1 78:1 81:1 84:1 88:1 98:1 104:1 109:1 
-1 6:1 7:1 19:1 22:1 28:1 33:1 34:1 37:1 48:1 50:1 53:1 59:1 67:1 76:1 78:1 81:1 84:1 90:1 92:1 105:1 106:1 
-1 3:1 7:1 15:1 22:1 28:1 33:1 35:1 37:1 48:1 50:1 53:1 57:1 67:1 74:1 78:1 81:1 84:1 88:1 98:1 104:1 109:1 
-1 4:1 7:1 15:1 22:1 28:1 33:1 35:1 37:1 48:1 50:1 53:1 59:1 67:1 74:1 78:1 81:1 84:1 88:1 98:1 104:1 109:1 
-0.5821747921523024 3:1 7:1 12:1 21:1 28:1 33:1 34:1 36:1 48:1 50:1 53:1 57:1 67:1 71:1 78:1 81:1 83:1 88:1 98:1 101:1 112:1 
-1 6:1 7:1 15:1 22:1 28:1 33:1 35:1 37:1 48:1 50:1 53:1 57:1 67:1 74:1 78:1 81:1 84:1 88:1 98:1 104:1 109:1 
-1 3:1 7:1 16:1 21:1 28:1 33:1 34:1 36:1 48:1 50:1 53:1 57:1 62:1 76:1 78:1 81:1 83:1 88:1 98:1 101:1 112:1 
-1 4:1 10:1 15:1 22:1 28:1 33:1 35:1 37:1 48:1 50:1 55:1 57:1 67:1 74:1 78:1 81:1 84:1 88:1 98:1 104:1 109:1 
-1 3:1 7:1 16:1 21:1 28:1 33:1 34:1 36:1 48:1 50:1 53:1 57:1 67:1 76:1 78:1 81:1 83:1 88:1 98:1 101:1 112:1 
