svm_type c_svc
kernel_type rbf
gamma 0.00892857
nr_class 2
total_sv 441
rho 0.259772
label 1 -1
nr_sv 237 204
SV
0.3490272543303947 1:-1 2:-1 3:-1 4:-1 5:-1 6:1 7:-1 8:-1 9:-1 10:1 11:-1 12:-1 13:-1 14:-1 15:1 16:-1 17:-1 18:-1 19:-1 20:-1 21:-1 22:1 23:-1 24:-1 25:-1 26:-1 27:-1 28:1 29:-1 30:-1 31:-1 32:-1 33:1 34:-1 35:1 36:-1 37:1 38:-1 39:-1 40:-1 41:-1 42:-1 43:-1 44:-1 45:-1 46:-1 47:-1 48:1 49:-1 50:1 51:-1 52:-1 53:-1 54:-1 55:1 56:-1 57:1 58:-1 59:-1 60:-1 61:-1 62:-1 63:-1 64:-1 65:-1 66:-1 67:1 68:-1 69:-1 70:-1 71:-1 72:-1 73:-1 74:1 75:-1 76:-1 77:-1 79:-1 80:-1 81:1 82:-1 83:-1 84:1 85:-1 86:-1 87:-1 88:1 89:-1 90:-1 91:-1 92:-1 93:-1 94:-1 95:-1 96:-1 97:-1 98:1 99:-1 100:-1 101:-1 102:-1 103:-1 104:1 105:-1 106:-1 107:-1 108:-1 109:1 110:-1 111:-1 112:-1 
0.7341104359715064 1:-1 2:-1 3:-1 4:-1 5:-1 6:1 7:1 8:-1 9:-1 10:-1 11:-1 12:-1 13:-1 14:-1 15:-1 16:-1 17:1 18:-1 19:-1 20:-1 21:-1 22:1 23:-1 24:-1 25:-1 26:-1 27:-1 28:1 29:-1 30:-1 31:-1 32:-1 33:1 34:1 35:-1 36:-1 37:1 38:-1 39:-1 40:-1 41:-1 42:-1 43:-1 44:-1 45:-1 46:-1 47:-1 48:1 49:-1 50:1 51:-1 52:-1 53:1 54:-1 55:-1 56:-1 57:-1 58:-1 59:1 60:-1 61:-1 62:-1 63:-1 64:-1 65:-1 66:-1 67:1 68:-1 69:-1 70:-1 71:-1 72:-1 73:-1 74:-1 75:-1 76:1 77:-1 79:-1 80:-1 81:1 82:-1 83:-1 84:1 85:-1 86:-1 87:-1 88:-1 89:-1 90:1 91:-1 92:1 93:-1 94:-1 95:-1 96:-1 97:-1 98:-1 99:-1 100:-1 101:-1 102:-1 103:-1 104:1 105:-1 106:1 107:-1 108:-1 109:-1 110:-1 111:-1 112:-1 
0.4316181640530376 1:-1 2:-1 3:1 4:-1 5:-1 6:-1 7:1 8:-1 9:-1 10:-1 11:-1 12:-1 13:-1 14:-1 15:-1 16:-1 17:-1 18:1 19:-1 20:-1 21:-1 22:1 23:-1 24:-1 25:-1 26:-1 27:-1 28:1 29:-1 30:-1 31:-1 32:-1 33:1 34:1 35:-1 36:-1 37:1 38:-1 39:-1 40:-1 41:-1 42:-1 43:-1 44:-1 45:-1 46:-1 47:-1 48:1 49:-1 50:1 51:-1 52:-1 53:1 54:-1 55:-1 56:-1 57:-1 58:-1 59:1 60:-1 61:-1 62:-1 63:-1 64:-1 65:-1 66:-1 67:1 68:-1 69:-1 70:-1 71:-1 72:-1 73:-1 74:-1 75:-1 76:1 77:-1 79:-1 80:-1 81:1 82:-1 83:-1 84:1 85:-1 86:-1 87:-1 88:-1 89:-1 90:1 91:-1 92:1 93:-1 94:-1 95:-1 96:-1 97:-1 98:-1 99:-1 100:-1 101:-1 102:-1 103:-1 104:1 105:-1 106:1 107:-1 108:-1 109:-1 110:-1 111:-1 112:-1 
0.09673883278333727 1:-1 2:-1 3:-1 4:1 5:-1 6:-1 7:1 8:-1 9:-1 10:-1 11:-1 12:-1 13:-1 14:-1 15:-1 16:1 17:-1 18:-1 19:-1 20:-1 21:1 22:-1 23:-1 24:-1 25:-1 26:-1 27:-1 28:1 29:-1 30:-1 31:-1 32:-1 33:1 34:1 35:-1 36:1 37:-1 38:-1 39:1 40:-1 41:-1 42:-1 43:-1 44:-1 45:-1 46:-1 47:-1 48:-1 49:-1 50:1 51:-1 52:-1 53:1 54:-1 55:-1 56:-1 57:1 58:-1 59:-1 60:-1 61:-1 62:1 63:-1 64:-1 65:-1 66:-1 67:-1 68:-1 69:-1 70:-1 71:-1 72:-1 73:-1 74:-1 75:-1 76:1 77:-1 79:-1 80:-1 81:1 82:-1 83:1 84:-1 85:-1 86:-1 87:-1 88:1 89:-1 90:-1 91:-1 92:-1 93:-1 94:-1 95:-1 96:-1 97:-1 98:1 99:-1 100:-1 101:1 102:-1 103:-1 104:-1 105:-1 106:-1 107:-1 108:-1 109:-1 110:-1 111:-1 112:1 
0.1398065321498997 1:-1 2:-1 3:-1 4:-1 5:-1 6:1 7:-1 8:1 9:-1 10:-1 11:-1 12:-1 13:-1 14:-1 15:-1 16:-1 17:-1 18:-1 19:1 20:-1 21:1 22:-1 23:-1 24:-1 25:-1 26:-1 27:1 28:-1 29:-1 30:-1 31:-1 32:-1 33:1 34:1 35:-1 36:1 37:-1 38:-1 39:-1 40:-1 41:-1 42:-1 43:-1 44:1 45:-1 46:-1 47:-1 48:-1 49:-1 50:1 51:-1 52:-1 53:1 54:-1 55:-1 56:-1 57:1 58:-1 59:-1 60:-1 61:-1 62:-1 63:-1 64:-1 65:-1 66:-1 67:1 68:-1 69:-1 70:-1 71:-1 72:-1 73:-1 74:-1 75:-1 76:1 77:-1 79:-1 80:-1 81:1 82:-1 83:-1 84:1 85:-1 86:1 87:-1 88:-1 89:-1 90:-1 91:-1 92:-1 93:1 94:-1 95:-1 96:-1 97:-1 98:-1 99:-1 100:-1 101:-1 102:-1 103:1 104:-1 105:-1 106:-1 107:-1 108:1 109:-1 110:-1 111:-1 112:-1 
0.2123320603267696 1:-1 2:1 3:-1 4:-1 5:-1 6:-1 7:1 8:-1 9:-1 10:-1 11:-1 12:-1 13:-1 14:-1 15:-1 16:-1 17:-1 18:-1 19:1 20:-1 21:1 22:-1 23:-1 24:-1 25:-1 26:-1 27:1 28:-1 29:-1 30:-1 31:-1 32:-1 33:1 34:1 35:-1 36:1 37:-1 38:-1 39:-1 40:-1 41:-1 42:-1 43:-1 44:-1 45:-1 46:-1 47:-1 48:1 49:-1 50:1 51:-1 52:-1 53:1 54:-1 55:-1 56:-1 57:1 58:-1 59:-1 60:-1 61:-1 62:-1 63:-1 64:-1 65:-1 66:-1 67:1 68:-1 69:-1 70:-1 71:-1 72:-1 73:-1 74:-1 75:-1 76:1 77:-1 79:-1 80:-1 81:1 82:-1 83:-1 84:1 85:-1 86:1 87:-1 88:-1 89:-1 90:-1 91:-1 92:-1 93:-1 94:-1 95:1 96:-1 97:-1 98:-1 99:-1 100:-1 101:-1 102:-1 103:1 104:-1 105:-1 106:-1 107:-1 108:1 109:-1 110:-1 111:-1 112:-1 
0.8467088302983633 1:-1 2:-1 3:1 4:-1 5:-1 6:-1 7:1 8:-1 9:-1 10:-1 11:-1 12:-1 13:-1 14:-1 15:-1 16:-1 17:-1 18:-1 19:1 20:-1 21:-1 22:1 23:-1 24:-1 25:-1 26:-1 27:-1 28:1 29:-1 30:-1 31:-1 32:-1 33:1 34:1 35:-1 36:-1 37:1 38:-1 39:-1 40:-1 41:-1 42:-1 43:-1 44:-1 45:-1 46:-1 47:1 48:-1 49:-1 50:1 51:-1 52:-1 53:1 54:-1 55:-1 56:-1 57:-1 58:-1 59:1 60:-1 61:-1 62:-1 63:-1 64:-1 65:-1 66:-1 67:1 68:-1 69:-1 70:-1 71:-1 72:-1 73:-1 74:-1 75:-1 76:1 77:-1 79:-1 80:-1 81:1 82:-1 83:-1 84:1 85:-1 86:-1 87:-1 88:-1 89:-1 90:1 91:-1 92:1 93:-1 94:-1 95:-1 96:-1 97:-1 98:-1 99:-1 100:-1 101:-1 102:-1 103:-1 104:1 105:-1 106:1 107:-1 108:-1 109:-1 110:-1 111:-1 112:-1 
0.2359192520746676 1:-1 2:-1 3:-1 4:-1 5:-1 6:1 7:-1 8:-1 9:-1 10:1 11:-1 12:-1 13:-1 14:-1 15:-1 16:-1 17:-1 18:-1 19:1 20:-1 21:1 22:-1 23:1 24:-1 25:-1 26:-1 27:-1 28:-1 29:-1 30:-1 31:-1 32:-1 33:1 34:-1 35:1 36:-1 37:1 38:-1 39:-1 40:-1 41:-1 42:-1 43:-1 44:1 45:-1 46:-1 47:-1 48:-1 49:-1 50:-1 51:1 52:-1 53:1 54:-1 55:-1 56:-1 57:1 58:-1 59:-1 60:-1 61:-1 62:-1 63:-1 64:-1 65:-1 66:-1 67:1 68:-1 69:-1 70:-1 71:-1 72:-1 73:-1 74:-1 75:-1 76:1 77:-1 79:-1 80:-1 81:1 82:-1 83:-1 84:1 85:-1 86:1 87:-1 88:-1 89:-1 90:-1 91:-1 92:-1 93:-1 94:-1 95:1 96:-1 97:-1 98:-1 99:-1 100:-1 101:-1 102:-1 103:-1 104:1 105:-1 106:1 107:-1 108:-1 109:-1 110:-1 111:-1 112:-1 
0.2695328958218776 1:-1 2:-1 3:1 4:-1 5:-1 6:-1 7:1 8:-1 9:-1 10:-1 11:-1 12:-1 13:-1 14:-1 15:1 16:-1 17:-1 18:-1 19:-1 20:-1 21:1 22:-1 23:1 24:-1 25:-1 26:-1 27:-1 28:-1 29:-1 30:-1 31:-1 32:-1 33:1 34:1 35:-1 36:1 37:-1 38:-1 39:-1 40:-1 41:-1 42:-1 43:-1 44:1 45:-1 46:-1 47:-1 48:-1 49:-1 50:1 51:-1 52:-1 53:1 54:-1 55:-1 56:1 57:-1 58:-1 59:-1 60:-1 61:-1 62:-1 63:-1 64:-1 65:-1 66:-1 67:1 68:-1 69:-1 70:-1 71:-1 72:-1 73:-1 74:-1 75:-1 76:1 77:-1 79:-1 80:-1 81:1 82:-1 83:-1 84:1 85:-1 86:1 87:-1 88:-1 89:-1 90:-1 91:-1 92:-1 93:1 94:-1 95:-1 96:-1 97:-1 98:-1 99:-1 100:-1 101:-1 102:-1 103:1 104:-1 105:-1 106:-1 107:1 108:-1 109:-1 110:-1 111:-1 112:-1 
0.01585102561434363 1:-1 2:1 3:-1 4:-1 5:-1 6:-1 7:1 8:-1 9:-1 10:-1 11:-1 12:-1 13:-1 14:-1 15:-1 16:-1 17:-1 18:-1 19:1 20:-1 21:1 22:-1 23:1 24:-1 25:-1 26:-1 27:-1 28:-1 29:-1 30:-1 31:-1 32:-1 33:1 34:1 35:-1 36:1 37:-1 38:-1 39:-1 40:-1 41:-1 42:-1 43:-1 44:-1 45:-1 46:-1 47:-1 48:1 49:-1 50:1 51:-1 52:-1 53:1 54:-1 55:-1 56:-1 57:1 58:-1 59:-1 60:-1 61:-1 62:-1 63:-1 64:-1 65:-1 66:-1 67:1 68:-1 69:-1 70:-1 71:-1 72:-1 73:-1 74:-1 75:-1 76:1 77:-1 79:-1 80:-1 81:1 82:-1 83:-1 84:1 85:-1 86:1 87:-1 88:-1 89:-1 90:-1 91:-1 92:-1 93:-1 94:-1 95:1 96:-1 97:-1 98:-1 99:-1 100:-1 101:-1 102:1 103:-1 104:-1 105:-1 106:-1 107:-1 108:1 109:-1 110:-1 111:-1 112:-1 
1 1:-1 2:-1 3:1 4:-1 5:-1 6:-1 7:-1 8:1 9:-1 10:-1 11:-1 12:1 13:-1 14:-1 15:-1 16:-1 17:-1 18:-1 19:-1 20:-1 21:1 22:-1 23:-1 24:-1 25:-1 26:-1 27:-1 28:1 29:-1 30:-1 31:-1 32:-1 33:1 34:1 35:-1 36:1 37:-1 38:-1 39:-1 40:-1 41:-1 42:-1 43:-1 44:-1 45:-1 46:-1 47:-1 48:1 49:-1 50:1 51:-1 52:-1 53:1 54:-1 55:-1 56:-1 57:1 58:-1 59:-1 60:-1 61:-1 62:-1 63:-1 64:-1 65:-1 66:-1 67:1 68:-1 69:-1 70:-1 71:-1 72:-1 73:-1 74:-1 75:-1 76:1 77:-1 79:-1 80:-1 81:1 82:-1 83:1 84:-1 85:-1 86:-1 87:-1 88:1 89:-1 90:-1 91:-1 92:-1 93:-1 94:-1 95:-1 96:-1 97:-1 98:1 99:-1 100:-1 101:1 102:-1 103:-1 104:-1 105:-1 106:-1 107:-1 108:-1 109:-1 110:-1 111:-1 112:1 
0.4022929723116503 1:-1 2:-1 3:-1 4:-1 5:-1 6:1 7:1 8:-1 9:-1 10:-1 11:-1 12:-1 13:-1 14:-1 15:1 16:-1 17:-1 18:-1 19:-1 20:-1 21:-1 22:1 23:-1 24:-1 25:-1 26:-1 27:-1 28:1 29:-1 30:-1 31:-1 32:-1 33:1 34:1 35:-1 36:1 37:-1 38:-1 39:-1 40:-1 41:-1 42:-1 43:-1 44:-1 45:-1 46:-1 47:-1 48:1 49:-1 50:1 51:-1 52:1 53:-1 54:-1 55:-1 56:1 57:-1 58:-1 59:-1 60:-1 61:-1 62:-1 63:-1 64:-1 65:1 66:-1 67:-1 68:-1 69:-1 70:-1 71:-1 72:-1 73:-1 74:1 75:-1 76:-1 77:-1 79:-1 80:-1 81:1 82:-1 83:1 84:-1 85:-1 86:1 87:-1 88:-1 89:-1 90:-1 91:-1 92:-1 93:-1 94:-1 95:-1 96:-1 97:-1 98:1 99:-1 100:-1 101:-1 102:-1 103:-1 104:-1 105:1 106:1 107:-1 108:-1 109:-1 110:-1 111:-1 112:-1 
0.2115494837475489 1:-1 2:1 3:-1 4:-1 5:-1 6:-1 7:-1 8:1 9:-1 10:-1 11:-1 12:-1 13:-1 14:-1 15:1 16:-1 17:-1 18:-1 19:-1 20:-1 21:-1 22:1 23:-1 24:-1 25:-1 26:-1 27:-1 28:1 29:-1 30:-1 31:-1 32:1 33:-1 34:1 35:-1 36:1 37:-1 38:-1 39:-1 40:-1 41:-1 42:-1 43:-1 44:-1 45:-1 46:-1 47:-1 48:-1 49:1 50:1 51:-1 52:-1 53:1 54:-1 55:-1 56:-1 57:1 58:-1 59:-1 60:-1 61:-1 62:-1 63:-1 64:1 65:-1 66:-1 67:-1 68:-1 69:-1 70:-1 71:-1 72:-1 73:1 74:-1 75:-1 76:-1 77:-1 79:-1 80:1 81:-1 82:-1 83:-1 84:1 85:-1 86:1 87:-1 88:-1 89:-1 90:-1 91:1 92:-1 93:-1 94:-1 95:-1 96:-1 97:-1 98:-1 99:-1 100:-1 101:1 102:-1 103:-1 104:-1 105:-1 106:-1 107:-1 108:-1 109:1 110:-1 111:-1 112:-1 
0.3921613996999568 1:-1 2:-1 3:-1 4:1 5:-1 6:-1 7:-1 8:-1 9:-1 10:1 11:1 12:-1 13:-1 14:-1 15:-1 16:-1 17:-1 18:-1 19:-1 20:-1 21:-1 22:1 23:-1 24:-1 25:-1 26:-1 27:-1 28:1 29:-1 30:-1 31:-1 32:-1 33:1 34:-1 35:1 36:-1 37:1 38:-1 39:-1 40:-1 41:-1 42:-1 43:-1 44:-1 45:-1 46:-1 47:-1 48:1 49:-1 50:1 51:-1 52:-1 53:-1 54:-1 55:1 56:-1 57:-1 58:-1 59:1 60:-1 61:-1 62:-1 63:-1 64:-1 65:-1 66:-1 67:1 68:-1 69:-1 70:-1 71:-1 72:-1 73:-1 74:1 75:-1 76:-1 77:-1 79:-1 80:-1 81:1 82:-1 83:-1 84:1 85:-1 86:-1 87:-1 88:1 89:-1 90:-1 91:-1 92:-1 93:-1 94:-1 95:-1 96:-1 97:-1 98:1 99:-1 100:-1 101:-1 102:-1 103:-1 104:1 105:-1 106:-1 107:-1 108:-1 109:1 110:-1 111:-1 112:-1 
0.2964101522456011 1:-1 2:-1 3:-1 4:-1 5:1 6:-1 7:-1 8:-1 9:-1 10:1 11:-1 12:-1 13:-1 14:-1 15:1 16:-1 17:-1 18:-1 19:-1 20:-1 21:-1 22:1 23:-1 24:-1 25:-1 26:-1 27:-1 28:1 29:-1 30:-1 31:-1 32:-1 33:1 34:1 35:-1 36:-1 37:1 38:-1 39:-1 40:-1 41:-1 42:-1 43:-1 44:-1 45:1 46:-1 47:-1 48:-1 49:-1 50:1 51:-1 52:-1 53:1 54:-1 55:-1 56:-1 57:1 58:-1 59:-1 60:-1 61:-1 62:-1 63:-1 64:-1 65:-1 66:-1 67:1 68:-1 69:-1 70:-1 71:-1 72:-1 73:-1 74:-1 75:-1 76:1 77:-1 79:-1 80:-1 81:1 82:-1 83:-1 84:1 85:-1 86:1 87:-1 88:-1 89:-1 90:-1 91:-1 92:-1 93:-1 94:-1 95:1 96:-1 97:-1 98:-1 99:-1 100:-1 101:-1 102:-1 103:-1 104:1 105:-1 106:-1 107:-1 108:-1 109:-1 110:-1 111:1 112:-1 
0.04409974413451861 1:-1 2:1 3:-1 4:-1 5:-1 6:-1 7:-1 8:1 9:-1 10:-1 11:-1 12:-1 13:-1 14:-1 15:-1 16:-1 17:-1 18:-1 19:1 20:-1 21:1 22:-1 23:-1 24:-1 25:-1 26:-1 27:1 28:-1 29:-1 30:-1 31:-1 32:-1 33:1 34:1 35:-1 36:1 37:-1 38:-1 39:-1 40:-1 41:-1 42:-1 43:-1 44:-1 45:-1 46:-1 47:-1 48:1 49:-1 50:1 51:-1 52:-1 53:1 54:-1 55:-1 56:-1 57:1 58:-1 59:-1 60:-1 61:-1 62:-1 63:-1 64:-1 65:-1 66:-1 67:1 68:-1 69:-1 70:-1 71:-1 72:-1 73:-1 74:-1 75:-1 76:1 77:-1 79:-1 80:-1 81:1 82:-1 83:-1 84:1 85:-1 86:1 87:-1 88:-1 89:-1 90:-1 91:-1 92:-1 93:1 94:-1 95:-1 96:-1 97:-1 98:-1 99:-1 100:-1 101:-1 102:1 103:-1 104:-1 105:-1 106:-1 107:1 108:-1 109:-1 110:-1 111:-1 112:-1 
0.027798317501876 1:-1 2:-1 3:1 4:-1 5:-1 6:-1 7:-1 8:1 9:-1 10:-1 11:-1 12:1 13:-1 14:-1 15:-1 16:-1 17:-1 18:-1 19:-1 20:-1 21:1 22:-1 23:-1 24:-1 25:-1 26:-1 27:-1 28:1 29:-1 30:-1 31:-1 32:-1 33:1 34:1 35:-1 36:1 37:-1 38:-1 39:-1 40:-1 41:-1 42:-1 43:-1 44:-1 45:-1 46:-1 47:-1 48:1 49:-1 50:1 51:-1 52:-1 53:1 54:-1 55:-1 56:-1 57:1 58:-1 59:-1 60:-1 61:-1 62:1 63:-1 64:-1 65:-1 66:-1 67:-1 68:-1 69:-1 70:-1 71:-1 72:-1 73:-1 74:-1 75:-1 76:1 77:-1 79:-1 80:-1 81:1 82:-1 83:1 84:-1 85:-1 86:-1 87:-1 88:1 89:-1 90:-1 91:-1 92:-1 93:-1 94:-1 95:-1 96:-1 97:-1 98:1 99:-1 100:-1 101:1 102:-1 103:-1 104:-1 105:-1 106:-1 107:-1 108:-1 109:-1 110:-1 111:-1 112:1 
0.2076299429256818 1:-1 2:1 3:-1 4:-1 5:-1 6:-1 7:1 8:-1 9:-1 10:-1 11:-1 12:-1 13:-1 14:-1 15:-1 16:-1 17:-1 18:-1 19:1 20:-1 21:1 22:-1 23:-1 24:-1 25:-1 26:-1 27:1 28:-1 29:-1 30:-1 31:-1 32:-1 33:1 34:1 35:-1 36:1 37:-1 38:-1 39:-1 40:1 41:-1 42:-1 43:-1 44:-1 45:-1 46:-1 47:-1 48:-1 49:-1 50:1 51:-1 52:-1 53:1 54:-1 55:-1 56:-1 57:1 58:-1 59:-1 60:-1 61:-1 62:-1 63:-1 64:-1 65:-1 66:-1 67:1 68:-1 69:-1 70:-1 71:-1 72:-1 73:-1 74:-1 75:-1 76:1 77:-1 79:-1 80:-1 81:1 82:-1 83:-1 84:1 85:-1 86:1 87:-1 88:-1 89:-1 90:-1 91:-1 92:-1 93:1 94:-1 95:-1 96:-1 97:-1 98:-1 99:-1 100:-1 101:-1 102:1 103:-1 104:-1 105:-1 106:-1 107:-1 108:1 109:-1 110:-1 111:-1 112:-1 
0.2307253572593872 1:-1 2:-1 3:1 4:-1 5:-1 6:-1 7:1 8:-1 9:-1 10:-1 11:-1 12:1 13:-1 14:-1 15:-1 16:-1 17:-1 18:-1 19:-1 20:-1 21:1 22:-1 23:-1 24:-1 25:-1 26:-1 27:-1 28:1 29:-1 30:-1 31:-1 32:-1 33:1 34:1 35:-1 36:1 37:-1 38:-1 39:1 40:-1 41:-1 42:-1 43:-1 44:-1 45:-1 46:-1 47:-1 48:-1 49:-1 50:1 51:-1 52:-1 53:1 54:-1 55:-1 56:-1 57:1 58:-1 59:-1 60:-1 61:-1 62:1 63:-1 64:-1 65:-1 66:-1 67:-1 68:-1 69:-1 70:-1 71:1 72:-1 73:-1 74:-1 75:-1 76:-1 77:-1 79:-1 80:-1 81:1 82:-1 83:1 84:-1 85:-1 86:-1 87:-1 88:1 89:-1 90:-1 91:-1 92:-1 93:-1 94:-1 95:-1 96:-1 97:-1 98:1 99:-1 100:-1 101:1 102:-1 103:-1 104:-1 105:-1 106:-1 107:-1 108:-1 109:-1 110:-1 111:-1 112:1 
0.3936395082736546 1:-1 2:-1 3:1 4:-1 5:-1 6:-1 7:1 8:-1 9:-1 10:-1 11:-1 12:-1 13:1 14:-1 15:-1 16:-1 17:-1 18:-1 19:-1 20:-1 21:1 22:-1 23:-1 24:-1 25:-1 26:-1 27:-1 28:1 29:-1 30:-1 31:-1 32:-1 33:1 34:1 35:-1 36:1 37:-1 38:-1 39:-1 40:-1 41:-1 42:-1 43:-1 44:-1 45:-1 46:-1 47:-1 48:1 49:-1 50:-1 51:1 52:-1 53:1 54:-1 55:-1 56:-1 57:1 58:-1 59:-1 60:-1 61:-1 62:-1 63:-1 64:-1 65:-1 66:1 67:-1 68:-1 69:-1 70:-1 71:-1 72:-1 73:-1 74:-1 75:-1 76:1 77:-1 79:-1 80:-1 81:1 82:-1 83:-1 84:1 85:-1 86:1 87:-1 88:-1 89:-1 90:-1 91:-1 92:-1 93:1 94:-1 95:-1 96:-1 97:-1 98:-1 99:-1 100:-1 101:-1 102:-1 103:-1 104:1 105:-1 106:1 107:-1 108:-1 109:-1 110:-1 111:-1 112:-1 
0.1645286951238653 1:-1 2:-1 3:1 4:-1 5:-1 6:-1 7:-1 8:1 9:-1 10:-1 11:-1 12:-1 13:-1 14:-1 15:1 16:-1 17:-1 18:-1 19:-1 20:-1 21:-1 22:1 23:-1 24:-1 25:-1 26:-1 27:-1 28:1 29:-1 30:-1 31:-1 32:1 33:-1 34:1 35:-1 36:1 37:-1 38:-1 39:-1 40:-1 41:-1 42:-1 43:-1 44:-1 45:-1 46:-1 47:-1 48:-1 49:1 50:1 51:-1 52:-1 53:1 54:-1 55:-1 56:-1 57:1 58:-1 59:-1 60:-1 61:-1 62:-1 63:-1 64:1 65:-1 66:-1 67:-1 68:-1 69:-1 70:-1 71:-1 72:-1 73:1 74:-1 75:-1 76:-1 77:-1 79:-1 80:-1 81:-1 82:1 83:-1 84:1 85:-1 86:1 87:-1 88:-1 89:-1 90:-1 91:-1 92:-1 93:-1 94:-1 95:-1 96:-1 97:-1 98:-1 99:1 100:-1 101:1 102:-1 103:-1 104:-1 105:-1 106:-1 107:-1 108:-1 109:1 110:-1 111:-1 112:-1 
0.07624788812492563 1:-1 2:-1 3:-1 4:-1 5:-1 6:1 7:-1 8:-1 9:-1 10:1 11:-1 12:-1 13:-1 14:-1 15:-1 16:-1 17:-1 18:-1 19:-1 20:1 21:1 22:-1 23:1 24:-1 25:-1 26:-1 27:-1 28:-1 29:-1 30:-1 31:-1 32:-1 33:1 34:-1 35:1 36:-1 37:1 38:-1 39:-1 40:-1 41:-1 42:-1 43:-1 44:-1 45:-1 46:-1 47:-1 48:1 49:-1 50:-1 51:1 52:-1 53:1 54:-1 55:-1 56:-1 57:1 58:-1 59:-1 60:-1 61:-1 62:-1 63:-1 64:-1 65:-1 66:-1 67:1 68:-1 69:-1 70:-1 71:-1 72:-1 73:-1 74:-1 75:-1 76:1 77:-1 79:-1 80:-1 81:1 82:-1 83:-1 84:1 85:-1 86:1 87:-1 88:-1 89:-1 90:-1 91:-1 92:-1 93:-1 94:-1 95:-1 96:-1 97:1 98:-1 99:-1 100:-1 101:-1 102:-1 103:-1 104:1 105:-1 106:1 107:-1 108:-1 109:-1 110:-1 111:-1 112:-1 
0.04715462362599192 1:-1 2:1 3:-1 4:-1 5:-1 6:-1 7:-1 8:-1 9:-1 10:1 11:-1 12:-1 13:-1 14:-1 15:-1 16:-1 17:-1 18:-1 19:1 20:-1 21:-1 22:1 23:-1 24:-1 25:-1 26:-1 27:-1 28:1 29:-1 30:-1 31:-1 32:-1 33:1 34:-1 35:1 36:1 37:-1 38:-1 39:-1 40:-1 41:-1 42:-1 43:-1 44:-1 45:-1 46:-1 47:-1 48:1 49:-1 50:1 51:-1 52:-1 53:-1 54:1 55:-1 56:-1 57:1 58:-1 59:-1 60:-1 61:-1 62:-1 63:-1 64:-1 65:-1 66:-1 67:1 68:-1 69:-1 70:-1 71:-1 72:-1 73:-1 74:-1 75:-1 76:1 77:-1 79:-1 80:-1 81:1 82:-1 83:1 84:-1 85:-1 86:1 87:-1 88:-1 89:-1 90:-1 91:-1 92:-1 93:-1 94:-1 95:-1 96:-1 97:-1 98:1 99:-1 100:-1 101:-1 102:1 103:-1 104:-1 105:-1 106:-1 107:1 108:-1 109:-1 110:-1 111:-1 112:-1 
1 1:-1 2:-1 3:1 4:-1 5:-1 6:-1 7:1 8:-1 9:-1 10:-1 11:-1 12:-1 13:-1 14:-1 15:-1 16:-1 17:-1 18:-1 19:1 20:-1 21:-1 22:1 23:-1 24:-1 25:-1 26:-1 27:-1 28:1 29:-1 30:-1 31:-1 32:-1 33:1 34:1 35:-1 36:-1 37:1 38:-1 39:-1 40:-1 41:-1 42:-1 43:-1 44:-1 45:1 46:-1 47:-1 48:-1 49:-1 50:1 51:-1 52:-1 53:1 54:-1 55:-1 56:-1 57:-1 58:-1 59:1 60:-1 61:-1 62:-1 63:-1 64:-1 65:-1 66:-1 67:1 68:-1 69:-1 70:-1 71:-1 72:-1 73:-1 74:-1 75:-1 76:1 77:-1 79:-1 80:-1 81:1 82:-1 83:-1 84:1 85:-1 86:-1 87:-1 88:-1 89:-1 90:1 91:-1 92:1 93:-1 94:-1 95:-1 96:-1 97:-1 98:-1 99:-1 100:-1 101:-1 102:-1 103:-1 104:1 105:-1 106:1 107:-1 108:-1 109:-1 110:-1 111:-1 112:-1 
0.04954134185445998 1:-1 2:-1 3:1 4:-1 5:-1 6:-1 7:1 8:-1 9:-1 10:-1 11:-1 12:-1 13:-1 14:1 15:-1 16:-1 17:-1 18:-1 19:-1 20:-1 21:1 22:-1 23:-1 24:-1 25:-1 26:-1 27:-1 28:1 29:-1 30:-1 31:-1 32:-1 33:1 34:1 35:-1 36:1 37:-1 38:-1 39:-1 40:-1 41:-1 42:-1 43:-1 44:-1 45:-1 46:-1 47:1 48:-1 49:-1 50:-1 51:1 52:-1 53:1 54:-1 55:-1 56:-1 57:1 58:-1 59:-1 60:-1 61:-1 62:-1 63:1 64:-1 65:-1 66:-1 67:-1 68:-1 69:-1 70:-1 71:-1 72:1 73:-1 74:-1 75:-1 76:-1 77:-1 79:-1 80:-1 81:1 82:-1 83:-1 84:1 85:-1 86:1 87:-1 88:-1 89:-1 90:-1 91:-1 92:-1 93:1 94:-1 95:-1 96:-1 97:-1 98:-1 99:-1 100:-1 101:-1 102:-1 103:-1 104:1 105:-1 106:1 107:-1 108:-1 109:-1 110:-1 111:-1 112:-1 
0.2288036216649272 1:-1 2:-1 3:-1 4:-1 5:-1 6:1 7:-1 8:1 9:-1 10:-1 11:-1 12:-1 13:-1 14:-1 15:-1 16:-1 17:-1 18:-1 19:-1 20:1 21:1 22:-1 23:1 24:-1 25:-1 26:-1 27:-1 28:-1 29:-1 30:-1 31:-1 32:-1 33:1 34:-1 35:1 36:-1 37:1 38:-1 39:-1 40:-1 41:-1 42:-1 43:-1 44:-1 45:1 46:-1 47:-1 48:-1 49:-1 50:-1 51:1 52:-1 53:1 54:-1 55:-1 56:-1 57:1 58:-1 59:-1 60:-1 61:-1 62:-1 63:-1 64:-1 65:-1 66:-1 67:1 68:-1 69:-1 70:-1 71:-1 72:-1 73:-1 74:-1 75:-1 76:1 77:-1 79:-1 80:-1 81:1 82:-1 83:-1 84:1 85:-1 86:1 87:-1 88:-1 89:-1 90:-1 91:-1 92:-1 93:-1 94:-1 95:1 96:-1 97:-1 98:-1 99:-1 100:-1 101:-1 102:-1 103:-1 104:1 105:-1 106:1 107:-1 108:-1 109:-1 110:-1 111:-1 112:-1 
0.5995191915340343 1:-1 2:1 3:-1 4:-1 5:-1 6:-1 7:-1 8:1 9:-1 10:-1 11:-1 12:-1 13:-1 14:-1 15:-1 16:-1 17:-1 18:-1 19:1 20:-1 21:-1 22:1 23:-1 24:-1 25:-1 26:-1 27:-1 28:1 29:-1 30:-1 31:-1 32:-1 33:1 34:-1 35:1 36:1 37:-1 38:-1 39:-1 40:1 41:-1 42:-1 43:-1 44:-1 45:-1 46:-1 47:-1 48:-1 49:-1 50:1 51:-1 52:-1 53:-1 54:1 55:-1 56:-1 57:1 58:-1 59:-1 60:-1 61:-1 62:-1 63:-1 64:-1 65:-1 66:-1 67:1 68:-1 69:-1 70:-1 71:-1 72:-1 73:-1 74:-1 75:-1 76:1 77:-1 79:-1 80:-1 81:1 82:-1 83:1 84:-1 85:-1 86:1 87:-1 88:-1 89:-1 90:-1 91:-1 92:-1 93:-1 94:-1 95:-1 96:-1 97:-1 98:1 99:-1 100:-1 101:-1 102:-1 103:1 104:-1 105:-1 106:-1 107:1 108:-1 109:-1 110:-1 111:-1 112:-1 
1 1:-1 2:-1 3:1 4:-1 5:-1 6:-1 7:1 8:-1 9:-1 10:-1 11:-1 12:-1 13:-1 14:-1 15:1 16:-1 17:-1 18:-1 19:-1 20:-1 21:1 22:-1 23:-1 24:-1 25:-1 26:-1 27:-1 28:1 29:-1 30:-1 31:-1 32:-1 33:1 34:1 35:-1 36:1 37:-1 38:-1 39:-1 40:-1 41:-1 42:-1 43:-1 44:-1 45:-1 46:-1 47:-1 48:1 49:-1 50:1 51:-1 52:-1 53:1 54:-1 55:-1 56:-1 57:1 58:-1 59:-1 60:-1 61:-1 62:-1 63:-1 64:-1 65:-1 66:-1 67:1 68:-1 69:-1 70:-1 71:-1 72:-1 73:-1 74:-1 75:-1 76:1 77:-1 79:-1 80:-1 81:1 82:-1 83:1 84:-1 85:-1 86:1 87:-1 88:-1 89:-1 90:-1 91:-1 92:-1 93:-1 94:-1 95:-1 96:-1 97:-1 98:1 99:-1 100:-1 101:-1 102:-1 103:-1 104:1 105:-1 106:-1 107:-1 108:-1 109:-1 110:1 111:-1 112:-1 
0.2972306699664493 1:-1 2:1 3:-1 4:-1 5:-1 6:-1 7:-1 8:-1 9:-1 10:1 11:-1 12:-1 13:-1 14:-1 15:-1 16:-1 17:-1 18:-1 19:1 20:-1 21:-1 22:1 23:-1 24:-1 25:-1 26:-1 27:-1 28:1 29:-1 30:-1 31:-1 32:-1 33:1 34:-1 35:1 36:1 37:-1 38:-1 39:-1 40:1 41:-1 42:-1 43:-1 44:-1 45:-1 46:-1 47:-1 48:-1 49:-1 50:1 51:-1 52:-1 53:-1 54:1 55:-1 56:-1 57:-1 58:1 59:-1 60:-1 61:-1 62:-1 63:-1 64:-1 65:-1 66:-1 67:1 68:-1 69:-1 70:-1 71:-1 72:-1 73:-1 74:-1 75:-1 76:1 77:-1 79:-1 80:-1 81:1 82:-1 83:1 84:-1 85:-1 86:1 87:-1 88:-1 89:-1 90:-1 91:-1 92:-1 93:-1 94:-1 95:-1 96:-1 97:-1 98:1 99:-1 100:-1 101:-1 102:1 103:-1 104:-1 105:-1 106:-1 107:1 108:-1 109:-1 110:-1 111:-1 112:-1 
0.8786316212706835 1:-1 2:-1 3:-1 4:-1 5:-1 6:1 7:-1 8:-1 9:-1 10:1 11:-1 12:-1 13:-1 14:1 15:-1 16:-1 17:-1 18:-1 19:-1 20:-1 21:-1 22:1 23:-1 24:-1 25:-1 26:-1 27:-1 28:1 29:-1 30:-1 31:-1 32:-1 33:1 34:1 35:-1 36:-1 37:1 38:-1 39:-1 40:1 41:-1 42:-1 43:-1 44:-1 45:-1 46:-1 47:-1 48:-1 49:-1 50:1 51:-1 52:-1 53:1 54:-1 55:-1 56:-1 57:1 58:-1 59:-1 60:-1 61:-1 62:-1 63:-1 64:-1 65:-1 66:-1 67:1 68:-1 69:-1 70:-1 71:-1 72:-1 73:-1 74:-1 75:-1 76:1 77:-1 79:-1 80:-1 81:1 82:-1 83:-1 84:1 85:-1 86:1 87:-1 88:-1 89:-1 90:-1 91:-1 92:-1 93:-1 94:-1 95:1 96:-1 97:-1 98:-1 99:-1 100:-1 101:-1 102:-1 103:-1 104:1 105:-1 106:-1 107:-1 108:-1 109:-1 110:-1 111:1 112:-1 
0.1343747013668082 1:-1 2:-1 3:1 4:-1 5:-1 6:-1 7:1 8:-1 9:-1 10:-1 11:-1 12:-1 13:-1 14:-1 15:1 16:-1 17:-1 18:-1 19:-1 20:-1 21:1 22:-1 23:-1 24:-1 25:-1 26:-1 27:1 28:-1 29:-1 30:-1 31:-1 32:-1 33:1 34:1 35:-1 36:1 37:-1 38:-1 39:-1 40:-1 41:-1 42:-1 43:-1 44:-1 45:-1 46:-1 47:-1 48:1 49:-1 50:1 51:-1 52:-1 53:1 54:-1 55:-1 56:1 57:-1 58:-1 59:-1 60:-1 61:-1 62:-1 63:-1 64:-1 65:-1 66:-1 67:1 68:-1 69:-1 70:-1 71:-1 72:-1 73:-1 74:-1 75:-1 76:1 77:-1 79:-1 80:-1 81:1 82:-1 83:-1 84:1 85:-1 86:1 87:-1 88:-1 89:-1 90:-1 91:-1 92:-1 93:1 94:-1 95:-1 96:-1 97:-1 98:-1 99:-1 100:-1 101:-1 102:-1 103:1 104:-1 105:-1 106:-1 107:1 108:-1 109:-1 110:-1 111:-1 112:-1 
1 1:-1 2:-1 3:-1 4:-1 5:-1 6:1 7:1 8:-1 9:-1 10:-1 11:-1 12:-1 13:-1 14:-1 15:-1 16:-1 17:-1 18:-1 19:1 20:-1 21:-1 22:1 23:-1 24:-1 25:-1 26:-1 27:-1 28:1 29:-1 30:-1 31:-1 32:-1 33:1 34:1 35:-1 36:-1 37:1 38:-1 39:-1 40:-1 41:-1 42:-1 43:-1 44:-1 45:-1 46:-1 47:1 48:-1 49:-1 50:1 51:-1 52:-1 53:1 54:-1 55:-1 56:-1 57:-1 58:-1 59:1 60:-1 61:-1 62:-1 63:-1 64:-1 65:-1 66:-1 67:1 68:-1 69:-1 70:-1 71:-1 72:-1 73:-1 74:-1 75:-1 76:1 77:-1 79:-1 80:-1 81:1 82:-1 83:-1 84:1 85:-1 86:-1 87:-1 88:-1 89:-1 90:1 91:-1 92:1 93:-1 94:-1 95:-1 96:-1 97:-1 98:-1 99:-1 100:-1 101:-1 102:-1 103:-1 104:1 105:-1 106:1 107:-1 108:-1 109:-1 110:-1 111:-1 112:-1 
0.2603708863742662 1:-1 2:-1 3:-1 4:-1 5:-1 6:1 7:-1 8:1 9:-1 10:-1 11:-1 12:-1 13:-1 14:-1 15:-1 16:-1 17:-1 18:-1 19:1 20:-1 21:1 22:-1 23:1 24:-1 25:-1 26:-1 27:-1 28:-1 29:-1 30:-1 31:-1 32:-1 33:1 34:1 35:-1 36:1 37:-1 38:-1 39:-1 40:-1 41:-1 42:-1 43:-1 44:1 45:-1 46:-1 47:-1 48:-1 49:-1 50:1 51:-1 52:-1 53:1 54:-1 55:-1 56:-1 57:1 58:-1 59:-1 60:-1 61:-1 62:-1 63:-1 64:-1 65:-1 66:-1 67:1 68:-1 69:-1 70:-1 71:-1 72:-1 73:-1 74:-1 75:-1 76:1 77:-1 79:-1 80:-1 81:1 82:-1 83:-1 84:1 85:-1 86:1 87:-1 88:-1 89:-1 90:-1 91:-1 92:-1 93:1 94:-1 95:-1 96:-1 97:-1 98:-1 99:-1 100:-1 101:-1 102:-1 103:1 104:-1 105:-1 106:-1 107:1 108:-1 109:-1 110:-1 111:-1 112:-1 
0.1604197887008872 1:-1 2:1 3:-1 4:-1 5:-1 6:-1 7:-1 8:1 9:-1 10:-1 11:-1 12:-1 13:-1 14:-1 15:1 16:-1 17:-1 18:-1 19:-1 20:-1 21:-1 22:1 23:-1 24:-1 25:-1 26:-1 27:-1 28:1 29:-1 30:-1 31:-1 32:1 33:-1 34:1 35:-1 36:1 37:-1 38:-1 39:-1 40:-1 41:-1 42:-1 43:1 44:-1 45:-1 46:-1 47:-1 48:-1 49:-1 50:1 51:-1 52:-1 53:1 54:-1 55:-1 56:-1 57:1 58:-1 59:-1 60:-1 61:-1 62:-1 63:-1 64:1 65:-1 66:-1 67:-1 68:-1 69:-1 70:-1 71:-1 72:-1 73:1 74:-1 75:-1 76:-1 77:-1 79:-1 80:1 81:-1 82:-1 83:-1 84:1 85:-1 86:1 87:-1 88:-1 89:-1 90:-1 91:-1 92:-1 93:-1 94:1 95:-1 96:-1 97:-1 98:-1 99:-1 100:-1 101:1 102:-1 103:-1 104:-1 105:-1 106:-1 107:-1 108:-1 109:1 110:-1 111:-1 112:-1 
0.04034721977043681 1:-1 2:-1 3:1 4:-1 5:-1 6:-1 7:1 8:-1 9:-1 10:-1 11:-1 12:-1 13:-1 14:-1 15:-1 16:-1 17:1 18:-1 19:-1 20:-1 21:-1 22:1 23:-1 24:-1 25:-1 26:-1 27:-1 28:1 29:-1 30:-1 31:-1 32:-1 33:1 34:1 35:-1 36:-1 37:1 38:-1 39:-1 40:-1 41:-1 42:-1 43:-1 44:-1 45:-1 46:-1 47:-1 48:1 49:-1 50:1 51:-1 52:-1 53:1 54:-1 55:-1 56:-1 57:-1 58:-1 59:1 60:-1 61:-1 62:-1 63:-1 64:-1 65:-1 66:-1 67:1 68:-1 69:-1 70:-1 71:-1 72:-1 73:-1 74:-1 75:-1 76:1 77:-1 79:-1 80:-1 81:1 82:-1 83:-1 84:1 85:-1 86:-1 87:-1 88:-1 89:-1 90:1 91:-1 92:1 93:-1 94:-1 95:-1 96:-1 97:-1 98:-1 99:-1 100:-1 101:-1 102:-1 103:-1 104:1 105:-1 106:1 107:-1 108:-1 109:-1 110:-1 111:-1 112:-1 
1 1:-1 2:-1 3:1 4:-1 5:-1 6:-1 7:1 8:-1 9:-1 10:-1 11:-1 12:-1 13:-1 14:1 15:-1 16:-1 17:-1 18:-1 19:-1 20:-1 21:1 22:-1 23:-1 24:-1 25:-1 26:-1 27:-1 28:1 29:-1 30:-1 31:-1 32:-1 33:1 34:1 35:-1 36:1 37:-1 38:-1 39:-1 40:-1 41:-1 42:-1 43:-1 44:-1 45:-1 46:-1 47:-1 48:1 49:-1 50:1 51:-1 52:-1 53:1 54:-1 55:-1 56:-1 57:1 58:-1 59:-1 60:-1 61:-1 62:-1 63:-1 64:-1 65:-1 66:-1 67:1 68:-1 69:-1 70:-1 71:-1 72:-1 73:-1 74:-1 75:-1 76:1 77:-1 79:-1 80:-1 81:1 82:-1 83:1 84:-1 85:-1 86:1 87:-1 88:-1 89:-1 90:-1 91:-1 92:-1 93:-1 94:-1 95:-1 96:-1 97:-1 98:1 99:-1 100:-1 101:-1 102:-1 103:-1 104:1 105:-1 106:-1 107:-1 108:-1 109:-1 110:1 111:-1 112:-1 
0.08568178374008437 1:-1 2:-1 3:-1 4:-1 5:-1 6:1 7:1 8:-1 9:-1 10:-1 11:-1 12:-1 13:-1 14:1 15:-1 16:-1 17:-1 18:-1 19:-1 20:-1 21:1 22:-1 23:-1 24:-1 25:-1 26:-1 27:-1 28:1 29:-1 30:-1 31:-1 32:-1 33:1 34:1 35:-1 36:1 37:-1 38:-1 39:-1 40:-1 41:-1 42:-1 43:-1 44:-1 45:1 46:-1 47:-1 48:-1 49:-1 50:-1 51:1 52:-1 53:1 54:-1 55:-1 56:-1 57:1 58:-1 59:-1 60:-1 61:-1 62:-1 63:1 64:-1 65:-1 66:-1 67:-1 68:-1 69:-1 70:-1 71:-1 72:-1 73:-1 74:-1 75:1 76:-1 77:-1 79:-1 80:-1 81:1 82:-1 83:-1 84:1 85:-1 86:1 87:-1 88:-1 89:-1 90:-1 91:-1 92:-1 93:1 94:-1 95:-1 96:-1 97:-1 98:-1 99:-1 100:-1 101:-1 102:-1 103:-1 104:1 105:-1 106:1 107:-1 108:-1 109:-1 110:-1 111:-1 112:-1 
0.2531738410238458 1:-1 2:-1 3:1 4:-1 5:-1 6:-1 7:1 8:-1 9:-1 10:-1 11:-1 12:-1 13:-1 14:-1 15:-1 16:1 17:-1 18:-1 19:-1 20:-1 21:1 22:-1 23:-1 24:-1 25:-1 26:-1 27:-1 28:1 29:-1 30:-1 31:-1 32:-1 33:1 34:1 35:-1 36:1 37:-1 38:-1 39:1 40:-1 41:-1 42:-1 43:-1 44:-1 45:-1 46:-1 47:-1 48:-1 49:-1 50:1 51:-1 52:-1 53:1 54:-1 55:-1 56:-1 57:1 58:-1 59:-1 60:-1 61:-1 62:1 63:-1 64:-1 65:-1 66:-1 67:-1 68:-1 69:-1 70:-1 71:-1 72:-1 73:-1 74:-1 75:-1 76:1 77:-1 79:-1 80:-1 81:1 82:-1 83:1 84:-1 85:-1 86:-1 87:-1 88:1 89:-1 90:-1 91:-1 92:-1 93:-1 94:-1 95:-1 96:-1 97:-1 98:1 99:-1 100:-1 101:1 102:-1 103:-1 104:-1 105:-1 106:-1 107:-1 108:-1 109:-1 110:-1 111:-1 112:1 
0.3085205289962271 1:-1 2:-1 3:-1 4:-1 5:-1 6:1 7:1 8:-1 9:-1 10:-1 11:-1 12:-1 13:-1 14:-1 15:-1 16:-1 17:-1 18:1 19:-1 20:-1 21:-1 22:1 23:-1 24:-1 25:-1 26:-1 27:-1 28:1 29:-1 30:-1 31:-1 32:-1 33:1 34:1 35:-1 36:-1 37:1 38:-1 39:-1 40:-1 41:1 42:-1 43:-1 44:-1 45:-1 46:-1 47:-1 48:-1 49:-1 50:1 51:-1 52:-1 53:1 54:-1 55:-1 56:-1 57:-1 58:-1 59:1 60:-1 61:-1 62:-1 63:-1 64:-1 65:-1 66:-1 67:1 68:-1 69:-1 70:-1 71:-1 72:-1 73:-1 74:-1 75:-1 76:1 77:-1 79:-1 80:-1 81:1 82:-1 83:-1 84:1 85:-1 86:-1 87:-1 88:-1 89:-1 90:1 91:-1 92:1 93:-1 94:-1 95:-1 96:-1 97:-1 98:-1 99:-1 100:-1 101:-1 102:-1 103:-1 104:1 105:-1 106:1 107:-1 108:-1 109:-1 110:-1 111:-1 112:-1 
0.1637411597575302 1:-1 2:-1 3:1 4:-1 5:-1 6:-1 7:1 8:-1 9:-1 10:-1 11:-1 12:-1 13:-1 14:-1 15:-1 16:-1 17:1 18:-1 19:-1 20:-1 21:-1 22:1 23:-1 24:-1 25:-1 26:-1 27:-1 28:1 29:-1 30:-1 31:-1 32:-1 33:1 34:1 35:-1 36:-1 37:1 38:-1 39:-1 40:-1 41:1 42:-1 43:-1 44:-1 45:-1 46:-1 47:-1 48:-1 49:-1 50:1 51:-1 52:-1 53:1 54:-1 55:-1 56:-1 57:-1 58:-1 59:1 60:-1 61:-1 62:-1 63:-1 64:-1 65:-1 66:-1 67:1 68:-1 69:-1 70:-1 71:-1 72:-1 73:-1 74:-1 75:-1 76:1 77:-1 79:-1 80:-1 81:1 82:-1 83:-1 84:1 85:-1 86:-1 87:-1 88:-1 89:-1 90:1 91:-1 92:1 93:-1 94:-1 95:-1 96:-1 97:-1 98:-1 99:-1 100:-1 101:-1 102:-1 103:-1 104:1 105:-1 106:1 107:-1 108:-1 109:-1 110:-1 111:-1 112:-1 
0.3443756476884309 1:-1 2:-1 3:-1 4:1 5:-1 6:-1 7:-1 8:1 9:-1 10:-1 11:-1 12:-1 13:-1 14:-1 15:1 16:-1 17:-1 18:-1 19:-1 20:-1 21:-1 22:1 23:-1 24:-1 25:-1 26:-1 27:-1 28:1 29:-1 30:-1 31:-1 32:-1 33:1 34:1 35:-1 36:1 37:-1 38:-1 39:-1 40:-1 41:-1 42:-1 43:-1 44:-1 45:-1 46:-1 47:-1 48:1 49:-1 50:1 51:-1 52:1 53:-1 54:-1 55:-1 56:1 57:-1 58:-1 59:-1 60:-1 61:-1 62:-1 63:-1 64:-1 65:1 66:-1 67:-1 68:-1 69:-1 70:-1 71:-1 72:-1 73:-1 74:1 75:-1 76:-1 77:-1 79:-1 80:-1 81:1 82:-1 83:1 84:-1 85:-1 86:1 87:-1 88:-1 89:-1 90:-1 91:-1 92:-1 93:-1 94:-1 95:-1 96:-1 97:-1 98:1 99:-1 100:-1 101:-1 102:-1 103:-1 104:-1 105:1 106:1 107:-1 108:-1 109:-1 110:-1 111:-1 112:-1 
0.08343468002131177 1:-1 2:-1 3:-1 4:1 5:-1 6:-1 7:-1 8:1 9:-1 10:-1 11:-1 12:-1 13:-1 14:-1 15:1 16:-1 17:-1 18:-1 19:-1 20:-1 21:-1 22:1 23:-1 24:-1 25:-1 26:-1 27:-1 28:1 29:-1 30:-1 31:-1 32:1 33:-1 34:1 35:-1 36:1 37:-1 38:-1 39:-1 40:-1 41:-1 42:-1 43:-1 44:-1 45:-1 46:-1 47:-1 48:-1 49:1 50:1 51:-1 52:-1 53:1 54:-1 55:-1 56:-1 57:1 58:-1 59:-1 60:-1 61:-1 62:-1 63:-1 64:1 65:-1 66:-1 67:-1 68:-1 69:-1 70:-1 71:-1 72:-1 73:1 74:-1 75:-1 76:-1 77:-1 79:-1 80:-1 81:-1 82:1 83:-1 84:1 85:-1 86:1 87:-1 88:-1 89:-1 90:-1 91:-1 92:-1 93:-1 94:1 95:-1 96:-1 97:-1 98:-1 99:-1 100:-1 101:1 102:-1 103:-1 104:-1 105:-1 106:-1 107:-1 108:-1 109:1 110:-1 111:-1 112:-1 
1 1:-1 2:-1 3:1 4:-1 5:-1 6:-1 7:-1 8:1 9:-1 10:-1 11:-1 12:-1 13:-1 14:-1 15:-1 16:1 17:-1 18:-1 19:-1 20:-1 21:1 22:-1 23:-1 24:-1 25:-1 26:-1 27:-1 28:1 29:-1 30:-1 31:-1 32:-1 33:1 34:1 35:-1 36:1 37:-1 38:-1 39:-1 40:-1 41:-1 42:-1 43:-1 44:-1 45:-1 46:-1 47:-1 48:1 49:-1 50:1 51:-1 52:-1 53:1 54:-1 55:-1 56:-1 57:1 58:-1 59:-1 60:-1 61:-1 62:-1 63:-1 64:-1 65:-1 66:-1 67:1 68:-1 69:-1 70:-1 71:-1 72:-1 73:-1 74:-1 75:-1 76:1 77:-1 79:-1 80:-1 81:1 82:-1 83:1 84:-1 85:-1 86:1 87:-1 88:-1 89:-1 90:-1 91:-1 92:-1 93:-1 94:-1 95:-1 96:-1 97:-1 98:1 99:-1 100:-1 101:-1 102:-1 103:-1 104:1 105:-1 106:-1 107:-1 108:-1 109:-1 110:1 111:-1 112:-1 
0.4558041469269559 1:-1 2:-1 3:1 4:-1 5:-1 6:-1 7:1 8:-1 9:-1 10:-1 11:-1 12:-1 13:-1 14:-1 15:1 16:-1 17:-1 18:-1 19:-1 20:-1 21:1 22:-1 23:-1 24:-1 25:-1 26:-1 27:1 28:-1 29:-1 30:-1 31:-1 32:-1 33:1 34:1 35:-1 36:1 37:-1 38:-1 39:-1 40:-1 41:-1 42:-1 43:-1 44:-1 45:1 46:-1 47:-1 48:-1 49:-1 50:1 51:-1 52:-1 53:1 54:-1 55:-1 56:1 57:-1 58:-1 59:-1 60:-1 61:-1 62:-1 63:-1 64:-1 65:-1 66:-1 67:1 68:-1 69:-1 70:-1 71:-1 72:-1 73:-1 74:-1 75:-1 76:1 77:-1 79:-1 80:-1 81:1 82:-1 83:-1 84:1 85:-1 86:1 87:-1 88:-1 89:-1 90:-1 91:-1 92:-1 93:1 94:-1 95:-1 96:-1 97:-1 98:-1 99:-1 100:-1 101:-1 102:-1 103:1 104:-1 105:-1 106:-1 107:1 108:-1 109:-1 110:-1 111:-1 112:-1 
0.009003083106830883 1:-1 2:-1 3:-1 4:-1 5:-1 6:1 7:-1 8:1 9:-1 10:-1 11:-1 12:-1 13:-1 14:1 15:-1 16:-1 17:-1 18:-1 19:-1 20:-1 21:-1 22:1 23:-1 24:-1 25:-1 26:-1 27:-1 28:1 29:-1 30:-1 31:-1 32:-1 33:1 34:-1 35:1 36:1 37:-1 38:-1 39:-1 40:-1 41:1 42:-1 43:-1 44:-1 45:-1 46:-1 47:-1 48:-1 49:-1 50:-1 51:1 52:-1 53:-1 54:-1 55:1 56:-1 57:-1 58:-1 59:1 60:-1 61:-1 62:-1 63:-1 64:-1 65:-1 66:-1 67:1 68:-1 69:-1 70:-1 71:-1 72:-1 73:-1 74:-1 75:-1 76:1 77:-1 79:-1 80:-1 81:1 82:-1 83:-1 84:1 85:-1 86:-1 87:-1 88:1 89:-1 90:-1 91:-1 92:-1 93:1 94:-1 95:-1 96:-1 97:-1 98:-1 99:-1 100:1 101:-1 102:-1 103:-1 104:-1 105:-1 106:-1 107:1 108:-1 109:-1 110:-1 111:-1 112:-1 
0.3596945138296674 1:-1 2:-1 3:1 4:-1 5:-1 6:-1 7:-1 8:1 9:-1 10:-1 11:-1 12:-1 13:-1 14:-1 15:-1 16:-1 17:-1 18:-1 19:-1 20:1 21:1 22:-1 23:-1 24:-1 25:-1 26:-1 27:1 28:-1 29:-1 30:-1 31:-1 32:-1 33:1 34:-1 35:1 36:-1 37:1 38:-1 39:-1 40:-1 41:-1 42:-1 43:-1 44:1 45:-1 46:-1 47:-1 48:-1 49:-1 50:-1 51:1 52:-1 53:1 54:-1 55:-1 56:-1 57:1 58:-1 59:-1 60:-1 61:-1 62:-1 63:-1 64:-1 65:-1 66:-1 67:1 68:-1 69:-1 70:-1 71:-1 72:-1 73:-1 74:-1 75:-1 76:1 77:-1 79:-1 80:-1 81:1 82:-1 83:-1 84:1 85:-1 86:1 87:-1 88:-1 89:-1 90:-1 91:-1 92:-1 93:-1 94:-1 95:-1 96:-1 97:1 98:-1 99:-1 100:-1 101:-1 102:-1 103:-1 104:1 105:-1 106:1 107:-1 108:-1 109:-1 110:-1 111:-1 112:-1 
0.2711981737309799 1:-1 2:-1 3:-1 4:-1 5:-1 6:1 7:-1 8:1 9:-1 10:-1 11:-1 12:-1 13:-1 14:-1 15:-1 16:-1 17:-1 18:-1 19:1 20:-1 21:1 22:-1 23:-1 24:-1 25:-1 26:-1 27:1 28:-1 29:-1 30:-1 31:-1 32:-1 33:1 34:1 35:-1 36:1 37:-1 38:-1 39:-1 40:-1 41:-1 42:-1 43:-1 44:1 45:-1 46:-1 47:-1 48:-1 49:-1 50:1 51:-1 52:-1 53:1 54:-1 55:-1 56:-1 57:1 58:-1 59:-1 60:-1 61:-1 62:-1 63:-1 64:-1 65:-1 66:-1 67:1 68:-1 69:-1 70:-1 71:-1 72:-1 73:-1 74:-1 75:-1 76:1 77:-1 79:-1 80:-1 81:1 82:-1 83:-1 84:1 85:-1 86:1 87:-1 88:-1 89:-1 90:-1 91:-1 92:-1 93:1 94:-1 95:-1 96:-1 97:-1 98:-1 99:-1 100:-1 101:-1 102:-1 103:1 104:-1 105:-1 106:-1 107:1 108:-1 109:-1 110:-1 111:-1 112:-1 
0.1810976032865035 1:-1 2:1 3:-1 4:-1 5:-1 6:-1 7:1 8:-1 9:-1 10:-1 11:-1 12:-1 13:-1 14:-1 15:-1 16:-1 17:-1 18:-1 19:1 20:-1 21:1 22:-1 23:1 24:-1 25:-1 26:-1 27:-1 28:-1 29:-1 30:-1 31:-1 32:-1 33:1 34:1 35:-1 36:1 37:-1 38:-1 39:-1 40:1 41:-1 42:-1 43:-1 44:-1 45:-1 46:-1 47:-1 48:-1 49:-1 50:1 51:-1 52:-1 53:1 54:-1 55:-1 56:-1 57:1 58:-1 59:-1 60:-1 61:-1 62:-1 63:-1 64:-1 65:-1 66:-1 67:1 68:-1 69:-1 70:-1 71:-1 72:-1 73:-1 74:-1 75:-1 76:1 77:-1 79:-1 80:-1 81:1 82:-1 83:-1 84:1 85:-1 86:1 87:-1 88:-1 89:-1 90:-1 91:-1 92:-1 93:-1 94:-1 95:1 96:-1 97:-1 98:-1 99:-1 100:-1 101:-1 102:1 103:-1 104:-1 105:-1 106:-1 107:1 108:-1 109:-1 110:-1 111:-1 112:-1 
0.06652072096347413 1:-1 2:-1 3:1 4:-1 5:-1 6:-1 7:1 8:-1 9:-1 10:-1 11:-1 12:-1 13:1 14:-1 15:-1 16:-1 17:-1 18:-1 19:-1 20:-1 21:1 22:-1 23:-1 24:-1 25:-1 26:-1 27:-1 28:1 29:-1 30:-1 31:-1 32:-1 33:1 34:1 35:-1 36:1 37:-1 38:-1 39:-1 40:-1 41:-1 42:-1 43:-1 44:-1 45:-1 46:-1 47:1 48:-1 49:-1 50:-1 51:1 52:-1 53:1 54:-1 55:-1 56:-1 57:1 58:-1 59:-1 60:-1 61:-1 62:-1 63:-1 64:-1 65:-1 66:1 67:-1 68:-1 69:-1 70:-1 71:-1 72:1 73:-1 74:-1 75:-1 76:-1 77:-1 79:-1 80:-1 81:1 82:-1 83:-1 84:1 85:-1 86:1 87:-1 88:-1 89:-1 90:-1 91:-1 92:-1 93:-1 94:-1 95:1 96:-1 97:-1 98:-1 99:-1 100:-1 101:-1 102:-1 103:-1 104:1 105:-1 106:1 107:-1 108:-1 109:-1 110:-1 111:-1 112:-1 
0.207635051856638 1:-1 2:-1 3:1 4:-1 5:-1 6:-1 7:1 8:-1 9:-1 10:-1 11:1 12:-1 13:-1 14:-1 15:-1 16:-1 17:-1 18:-1 19:-1 20:-1 21:1 22:-1 23:-1 24:-1 25:-1 26:-1 27:-1 28:1 29:-1 30:-1 31:-1 32:-1 33:1 34:1 35:-1 36:1 37:-1 38:-1 39:-1 40:-1 41:-1 42:-1 43:-1 44:-1 45:-1 46:-1 47:-1 48:1 49:-1 50:1 51:-1 52:-1 53:1 54:-1 55:-1 56:-1 57:1 58:-1 59:-1 60:-1 61:-1 62:-1 63:-1 64:-1 65:-1 66:-1 67:1 68:-1 69:-1 70:-1 71:-1 72:-1 73:-1 74:-1 75:-1 76:1 77:-1 79:-1 80:-1 81:1 82:-1 83:1 84:-1 85:-1 86:1 87:-1 88:-1 89:-1 90:-1 91:-1 92:-1 93:-1 94:-1 95:-1 96:-1 97:-1 98:1 99:-1 100:-1 101:-1 102:-1 103:-1 104:1 105:-1 106:-1 107:-1 108:-1 109:-1 110:1 111:-1 112:-1 
0.1309353394391405 1:-1 2:-1 3:-1 4:-1 5:-1 6:1 7:-1 8:1 9:-1 10:-1 11:-1 12:-1 13:-1 14:-1 15:-1 16:-1 17:-1 18:-1 19:1 20:-1 21:1 22:-1 23:-1 24:-1 25:-1 26:-1 27:1 28:-1 29:-1 30:-1 31:-1 32:-1 33:1 34:1 35:-1 36:1 37:-1 38:-1 39:-1 40:1 41:-1 42:-1 43:-1 44:-1 45:-1 46:-1 47:-1 48:-1 49:-1 50:1 51:-1 52:-1 53:1 54:-1 55:-1 56:-1 57:1 58:-1 59:-1 60:-1 61:-1 62:-1 63:-1 64:-1 65:-1 66:-1 67:1 68:-1 69:-1 70:-1 71:-1 72:-1 73:-1 74:-1 75:-1 76:1 77:-1 79:-1 80:-1 81:1 82:-1 83:-1 84:1 85:-1 86:1 87:-1 88:-1 89:-1 90:-1 91:-1 92:-1 93:-1 94:-1 95:1 96:-1 97:-1 98:-1 99:-1 100:-1 101:-1 102:-1 103:1 104:-1 105:-1 106:-1 107:-1 108:1 109:-1 110:-1 111:-1 112:-1 
0.2304825776140576 1:-1 2:-1 3:-1 4:-1 5:-1 6:1 7:1 8:-1 9:-1 10:-1 11:-1 12:-1 13:-1 14:-1 15:-1 16:-1 17:-1 18:-1 19:1 20:-1 21:-1 22:1 23:-1 24:-1 25:-1 26:-1 27:-1 28:1 29:-1 30:-1 31:-1 32:-1 33:1 34:1 35:-1 36:-1 37:1 38:-1 39:-1 40:-1 41:-1 42:-1 43:-1 44:-1 45:1 46:-1 47:-1 48:-1 49:-1 50:1 51:-1 52:-1 53:1 54:-1 55:-1 56:-1 57:-1 58:-1 59:1 60:-1 61:-1 62:-1 63:-1 64:-1 65:-1 66:-1 67:1 68:-1 69:-1 70:-1 71:-1 72:-1 73:-1 74:-1 75:-1 76:1 77:-1 79:-1 80:-1 81:1 82:-1 83:-1 84:1 85:-1 86:-1 87:-1 88:-1 89:-1 90:1 91:-1 92:1 93:-1 94:-1 95:-1 96:-1 97:-1 98:-1 99:-1 100:-1 101:-1 102:-1 103:-1 104:-1 105:1 106:1 107:-1 108:-1 109:-1 110:-1 111:-1 112:-1 
0.5741551892896527 1:-1 2:-1 3:-1 4:-1 5:-1 6:1 7:-1 8:-1 9:-1 10:1 11:-1 12:-1 13:-1 14:-1 15:1 16:-1 17:-1 18:-1 19:-1 20:-1 21:-1 22:1 23:-1 24:-1 25:-1 26:-1 27:-1 28:1 29:-1 30:-1 31:-1 32:-1 33:1 34:1 35:-1 36:-1 37:1 38:-1 39:-1 40:-1 41:-1 42:-1 43:-1 44:1 45:-1 46:-1 47:-1 48:-1 49:-1 50:1 51:-1 52:-1 53:1 54:-1 55:-1 56:-1 57:1 58:-1 59:-1 60:-1 61:-1 62:-1 63:-1 64:-1 65:-1 66:-1 67:1 68:-1 69:-1 70:-1 71:-1 72:-1 73:-1 74:-1 75:-1 76:1 77:-1 79:-1 80:-1 81:1 82:-1 83:-1 84:1 85:-1 86:1 87:-1 88:-1 89:-1 90:-1 91:-1 92:-1 93:1 94:-1 95:-1 96:-1 97:-1 98:-1 99:-1 100:-1 101:-1 102:-1 103:-1 104:1 105:-1 106:-1 107:-1 108:-1 109:-1 110:-1 111:1 112:-1 
1 1:-1 2:-1 3:-1 4:1 5:-1 6:-1 7:1 8:-1 9:-1 10:-1 11:1 12:-1 13:-1 14:-1 15:-1 16:-1 17:-1 18:-1 19:-1 20:-1 21:-1 22:1 23:-1 24:-1 25:-1 26:-1 27:-1 28:1 29:-1 30:-1 31:-1 32:-1 33:1 34:-1 35:1 36:-1 37:1 38:-1 39:-1 40:-1 41:-1 42:-1 43:-1 44:-1 45:-1 46:-1 47:-1 48:1 49:-1 50:1 51:-1 52:-1 53:1 54:-1 55:-1 56:-1 57:1 58:-1 59:-1 60:-1 61:-1 62:-1 63:-1 64:-1 65:-1 66:-1 67:1 68:-1 69:-1 70:-1 71:-1 72:-1 73:-1 74:1 75:-1 76:-1 77:-1 79:-1 80:-1 81:1 82:-1 83:-1 84:1 85:-1 86:-1 87:-1 88:1 89:-1 90:-1 91:-1 92:-1 93:-1 94:-1 95:-1 96:-1 97:-1 98:1 99:-1 100:-1 101:-1 102:-1 103:-1 104:1 105:-1 106:-1 107:-1 108:-1 109:1 110:-1 111:-1 112:-1 
0.1775628659949346 1:-1 2:-1 3:-1 4:-1 5:-1 6:1 7:1 8:-1 9:-1 10:-1 11:-1 12:-1 13:-1 14:-1 15:1 16:-1 17:-1 18:-1 19:-1 20:-1 21:1 22:-1 23:1 24:-1 25:-1 26:-1 27:-1 28:-1 29:-1 30:-1 31:-1 32:-1 33:1 34:1 35:-1 36:1 37:-1 38:-1 39:-1 40:-1 41:-1 42:-1 43:-1 44:-1 45:1 46:-1 47:-1 48:-1 49:-1 50:1 51:-1 52:-1 53:1 54:-1 55:-1 56:1 57:-1 58:-1 59:-1 60:-1 61:-1 62:-1 63:-1 64:-1 65:-1 66:-1 67:1 68:-1 69:-1 70:-1 71:-1 72:-1 73:-1 74:-1 75:-1 76:1 77:-1 79:-1 80:-1 81:1 82:-1 83:-1 84:1 85:-1 86:1 87:-1 88:-1 89:-1 90:-1 91:-1 92:-1 93:-1 94:-1 95:1 96:-1 97:-1 98:-1 99:-1 100:-1 101:-1 102:-1 103:1 104:-1 105:-1 106:-1 107:1 108:-1 109:-1 110:-1 111:-1 112:-1 
0.1012686320035483 1:-1 2:-1 3:-1 4:-1 5:-1 6:1 7:1 8:-1 9:-1 10:-1 11:-1 12:-1 13:-1 14:-1 15:1 16:-1 17:-1 18:-1 19:-1 20:-1 21:1 22:-1 23:1 24:-1 25:-1 26:-1 27:-1 28:-1 29:-1 30:-1 31:-1 32:-1 33:1 34:1 35:-1 36:1 37:-1 38:-1 39:-1 40:-1 41:-1 42:-1 43:-1 44:-1 45:1 46:-1 47:-1 48:-1 49:-1 50:1 51:-1 52:-1 53:1 54:-1 55:-1 56:1 57:-1 58:-1 59:-1 60:-1 61:-1 62:-1 63:-1 64:-1 65:-1 66:-1 67:1 68:-1 69:-1 70:-1 71:-1 72:-1 73:-1 74:-1 75:-1 76:1 77:-1 79:-1 80:-1 81:1 82:-1 83:-1 84:1 85:-1 86:1 87:-1 88:-1 89:-1 90:-1 91:-1 92:-1 93:1 94:-1 95:-1 96:-1 97:-1 98:-1 99:-1 100:-1 101:-1 102:-1 103:1 104:-1 105:-1 106:-1 107:1 108:-1 109:-1 110:-1 111:-1 112:-1 
0.9936677969111736 1:-1 2:-1 3:1 4:-1 5:-1 6:-1 7:-1 8:1 9:-1 10:-1 11:-1 12:-1 13:-1 14:-1 15:-1 16:-1 17:-1 18:-1 19:1 20:-1 21:1 22:-1 23:1 24:-1 25:-1 26:-1 27:-1 28:-1 29:-1 30:-1 31:-1 32:-1 33:1 34:-1 35:1 36:-1 37:1 38:-1 39:-1 40:-1 41:-1 42:-1 43:-1 44:-1 45:-1 46:-1 47:-1 48:1 49:-1 50:-1 51:1 52:-1 53:1 54:-1 55:-1 56:-1 57:1 58:-1 59:-1 60:-1 61:-1 62:-1 63:-1 64:-1 65:-1 66:-1 67:1 68:-1 69:-1 70:-1 71:-1 72:-1 73:-1 74:-1 75:-1 76:1 77:-1 79:-1 80:-1 81:1 82:-1 83:-1 84:1 85:-1 86:1 87:-1 88:-1 89:-1 90:-1 91:-1 92:-1 93:-1 94:-1 95:-1 96:-1 97:1 98:-1 99:-1 100:-1 101:-1 102:-1 103:-1 104:1 105:-1 106:1 107:-1 108:-1 109:-1 110:-1 111:-1 112:-1 
0.434896500188683 1:-1 2:-1 3:-1 4:-1 5:-1 6:1 7:-1 8:1 9:-1 10:-1 11:-1 12:-1 13:-1 14:-1 15:-1 16:-1 17:-1 18:-1 19:-1 20:1 21:1 22:-1 23:-1 24:-1 25:-1 26:-1 27:1 28:-1 29:-1 30:-1 31:-1 32:-1 33:1 34:-1 35:1 36:-1 37:1 38:-1 39:-1 40:-1 41:-1 42:-1 43:-1 44:1 45:-1 46:-1 47:-1 48:-1 49:-1 50:-1 51:1 52:-1 53:1 54:-1 55:-1 56:-1 57:1 58:-1 59:-1 60:-1 61:-1 62:-1 63:-1 64:-1 65:-1 66:-1 67:1 68:-1 69:-1 70:-1 71:-1 72:-1 73:-1 74:-1 75:-1 76:1 77:-1 79:-1 80:-1 81:1 82:-1 83:-1 84:1 85:-1 86:1 87:-1 88:-1 89:-1 90:-1 91:-1 92:-1 93:-1 94:-1 95:1 96:-1 97:-1 98:-1 99:-1 100:-1 101:-1 102:-1 103:-1 104:1 105:-1 106:1 107:-1 108:-1 109:-1 110:-1 111:-1 112:-1 
0.9471917934956462 1:-1 2:-1 3:1 4:-1 5:-1 6:-1 7:-1 8:-1 9:-1 10:1 11:-1 12:-1 13:-1 14:-1 15:1 16:-1 17:-1 18:-1 19:-1 20:-1 21:-1 22:1 23:-1 24:-1 25:-1 26:-1 27:-1 28:1 29:-1 30:-1 31:-1 32:-1 33:1 34:1 35:-1 36:-1 37:1 38:-1 39:-1 40:1 41:-1 42:-1 43:-1 44:-1 45:-1 46:-1 47:-1 48:-1 49:-1 50:1 51:-1 52:-1 53:1 54:-1 55:-1 56:-1 57:1 58:-1 59:-1 60:-1 61:-1 62:-1 63:-1 64:-1 65:-1 66:-1 67:1 68:-1 69:-1 70:-1 71:-1 72:-1 73:-1 74:-1 75:-1 76:1 77:-1 79:-1 80:-1 81:1 82:-1 83:-1 84:1 85:-1 86:1 87:-1 88:-1 89:-1 90:-1 91:-1 92:-1 93:-1 94:-1 95:1 96:-1 97:-1 98:-1 99:-1 100:-1 101:-1 102:-1 103:-1 104:1 105:-1 106:-1 107:-1 108:-1 109:-1 110:-1 111:1 112:-1 
0.8729074411624371 1:-1 2:-1 3:-1 4:-1 5:-1 6:1 7:-1 8:1 9:-1 10:-1 11:-1 12:-1 13:-1 14:-1 15:-1 16:-1 17:-1 18:-1 19:1 20:-1 21:1 22:-1 23:1 24:-1 25:-1 26:-1 27:-1 28:-1 29:-1 30:-1 31:-1 32:-1 33:1 34:-1 35:1 36:-1 37:1 38:-1 39:-1 40:-1 41:-1 42:-1 43:-1 44:1 45:-1 46:-1 47:-1 48:-1 49:-1 50:-1 51:1 52:-1 53:1 54:-1 55:-1 56:-1 57:1 58:-1 59:-1 60:-1 61:-1 62:-1 63:-1 64:-1 65:-1 66:-1 67:1 68:-1 69:-1 70:-1 71:-1 72:-1 73:-1 74:-1 75:-1 76:1 77:-1 79:-1 80:-1 81:1 82:-1 83:-1 84:1 85:-1 86:1 87:-1 88:-1 89:-1 90:-1 91:-1 92:-1 93:-1 94:-1 95:1 96:-1 97:-1 98:-1 99:-1 100:-1 101:-1 102:-1 103:-1 104:1 105:-1 106:1 107:-1 108:-1 109:-1 110:-1 111:-1 112:-1 
0.3682216115267267 1:-1 2:-1 3:-1 4:-1 5:-1 6:1 7:-1 8:1 9:-1 10:-1 11:-1 12:-1 13:-1 14:-1 15:-1 16:-1 17:-1 18:-1 19:1 20:-1 21:1 22:-1 23:-1 24:-1 25:-1 26:-1 27:1 28:-1 29:-1 30:-1 31:-1 32:-1 33:1 34:-1 35:1 36:-1 37:1 38:-1 39:-1 40:-1 41:-1 42:-1 43:-1 44:-1 45:1 46:-1 47:-1 48:-1 49:-1 50:-1 51:1 52:-1 53:1 54:-1 55:-1 56:-1 57:1 58:-1 59:-1 60:-1 61:-1 62:-1 63:-1 64:-1 65:-1 66:-1 67:1 68:-1 69:-1 70:-1 71:-1 72:-1 73:-1 74:-1 75:-1 76:1 77:-1 79:-1 80:-1 81:1 82:-1 83:-1 84:1 85:-1 86:1 87:-1 88:-1 89:-1 90:-1 91:-1 92:-1 93:-1 94:-1 95:-1 96:-1 97:1 98:-1 99:-1 100:-1 101:-1 102:-1 103:-1 104:1 105:-1 106:1 107:-1 108:-1 109:-1 110:-1 111:-1 112:-1 
0.1283054233434218 1:-1 2:-1 3:1 4:-1 5:-1 6:-1 7:-1 8:1 9:-1 10:-1 11:-1 12:-1 13:-1 14:-1 15:-1 16:-1 17:-1 18:-1 19:1 20:-1 21:1 22:-1 23:-1 24:-1 25:-1 26:-1 27:1 28:-1 29:-1 30:-1 31:-1 32:-1 33:1 34:-1 35:1 36:-1 37:1 38:-1 39:-1 40:-1 41:-1 42:-1 43:-1 44:1 45:-1 46:-1 47:-1 48:-1 49:-1 50:-1 51:1 52:-1 53:1 54:-1 55:-1 56:-1 57:1 58:-1 59:-1 60:-1 61:-1 62:-1 63:-1 64:-1 65:-1 66:-1 67:1 68:-1 69:-1 70:-1 71:-1 72:-1 73:-1 74:-1 75:-1 76:1 77:-1 79:-1 80:-1 81:1 82:-1 83:-1 84:1 85:-1 86:1 87:-1 88:-1 89:-1 90:-1 91:-1 92:-1 93:-1 94:-1 95:1 96:-1 97:-1 98:-1 99:-1 100:-1 101:-1 102:-1 103:-1 104:1 105:-1 106:1 107:-1 108:-1 109:-1 110:-1 111:-1 112:-1 
0.6730975929936988 1:-1 2:-1 3:-1 4:-1 5:-1 6:1 7:1 8:-1 9:-1 10:-1 11:-1 12:-1 13:-1 14:-1 15:-1 16:-1 17:-1 18:-1 19:1 20:-1 21:-1 22:1 23:-1 24:-1 25:-1 26:-1 27:-1 28:1 29:-1 30:-1 31:-1 32:-1 33:1 34:1 35:-1 36:-1 37:1 38:-1 39:-1 40:-1 41:-1 42:-1 43:-1 44:-1 45:-1 46:-1 47:-1 48:1 49:-1 50:1 51:-1 52:-1 53:1 54:-1 55:-1 56:-1 57:-1 58:-1 59:1 60:-1 61:-1 62:-1 63:-1 64:-1 65:-1 66:-1 67:1 68:-1 69:-1 70:-1 71:-1 72:-1 73:-1 74:-1 75:-1 76:1 77:-1 79:-1 80:-1 81:1 82:-1 83:-1 84:1 85:-1 86:-1 87:-1 88:-1 89:-1 90:1 91:-1 92:1 93:-1 94:-1 95:-1 96:-1 97:-1 98:-1 99:-1 100:-1 101:-1 102:-1 103:-1 104:-1 105:1 106:1 107:-1 108:-1 109:-1 110:-1 111:-1 112:-1 
0.1716003298592771 1:-1 2:1 3:-1 4:-1 5:-1 6:-1 7:1 8:-1 9:-1 10:-1 11:-1 12:-1 13:-1 14:-1 15:-1 16:-1 17:-1 18:-1 19:1 20:-1 21:1 22:-1 23:1 24:-1 25:-1 26:-1 27:-1 28:-1 29:-1 30:-1 31:-1 32:-1 33:1 34:1 35:-1 36:1 37:-1 38:-1 39:-1 40:-1 41:-1 42:1 43:-1 44:-1 45:-1 46:-1 47:-1 48:-1 49:-1 50:1 51:-1 52:-1 53:1 54:-1 55:-1 56:-1 57:1 58:-1 59:-1 60:-1 61:-1 62:-1 63:-1 64:-1 65:-1 66:-1 67:1 68:-1 69:-1 70:-1 71:-1 72:-1 73:-1 74:-1 75:-1 76:1 77:-1 79:-1 80:-1 81:1 82:-1 83:-1 84:1 85:-1 86:1 87:-1 88:-1 89:-1 90:-1 91:-1 92:-1 93:1 94:-1 95:-1 96:-1 97:-1 98:-1 99:-1 100:-1 101:-1 102:-1 103:1 104:-1 105:-1 106:-1 107:-1 108:1 109:-1 110:-1 111:-1 112:-1 
0.3602988277967262 1:-1 2:-1 3:-1 4:-1 5:-1 6:1 7:-1 8:1 9:-1 10:-1 11:-1 12:-1 13:-1 14:-1 15:-1 16:-1 17:-1 18:-1 19:1 20:-1 21:1 22:-1 23:1 24:-1 25:-1 26:-1 27:-1 28:-1 29:-1 30:-1 31:-1 32:-1 33:1 34:1 35:-1 36:1 37:-1 38:-1 39:-1 40:-1 41:-1 42:1 43:-1 44:-1 45:-1 46:-1 47:-1 48:-1 49:-1 50:1 51:-1 52:-1 53:1 54:-1 55:-1 56:-1 57:1 58:-1 59:-1 60:-1 61:-1 62:-1 63:-1 64:-1 65:-1 66:-1 67:1 68:-1 69:-1 70:-1 71:-1 72:-1 73:-1 74:-1 75:-1 76:1 77:-1 79:-1 80:-1 81:1 82:-1 83:-1 84:1 85:-1 86:1 87:-1 88:-1 89:-1 90:-1 91:-1 92:-1 93:1 94:-1 95:-1 96:-1 97:-1 98:-1 99:-1 100:-1 101:-1 102:-1 103:1 104:-1 105:-1 106:-1 107:1 108:-1 109:-1 110:-1 111:-1 112:-1 
1 1:-1 2:-1 3:1 4:-1 5:-1 6:-1 7:1 8:-1 9:-1 10:-1 11:-1 12:-1 13:-1 14:-1 15:-1 16:1 17:-1 18:-1 19:-1 20:-1 21:1 22:-1 23:-1 24:-1 25:-1 26:-1 27:-1 28:1 29:-1 30:-1 31:-1 32:-1 33:1 34:1 35:-1 36:1 37:-1 38:-1 39:-1 40:-1 41:-1 42:-1 43:-1 44:-1 45:-1 46:-1 47:-1 48:1 49:-1 50:1 51:-1 52:-1 53:1 54:-1 55:-1 56:-1 57:1 58:-1 59:-1 60:-1 61:-1 62:-1 63:-1 64:-1 65:-1 66:-1 67:1 68:-1 69:-1 70:-1 71:-1 72:-1 73:-1 74:-1 75:-1 76:1 77:-1 79:-1 80:-1 81:1 82:-1 83:1 84:-1 85:-1 86:1 87:-1 88:-1 89:-1 90:-1 91:-1 92:-1 93:-1 94:-1 95:-1 96:-1 97:-1 98:1 99:-1 100:-1 101:-1 102:-1 103:-1 104:1 105:-1 106:-1 107:-1 108:-1 109:-1 110:1 111:-1 112:-1 
0.3525882516838209 1:-1 2:-1 3:-1 4:-1 5:-1 6:1 7:-1 8:1 9:-1 10:-1 11:-1 12:-1 13:-1 14:-1 15:-1 16:-1 17:-1 18:-1 19:-1 20:1 21:1 22:-1 23:1 24:-1 25:-1 26:-1 27:-1 28:-1 29:-1 30:-1 31:-1 32:-1 33:1 34:-1 35:1 36:-1 37:1 38:-1 39:-1 40:-1 41:-1 42:-1 43:-1 44:-1 45:1 46:-1 47:-1 48:-1 49:-1 50:-1 51:1 52:-1 53:1 54:-1 55:-1 56:-1 57:1 58:-1 59:-1 60:-1 61:-1 62:-1 63:-1 64:-1 65:-1 66:-1 67:1 68:-1 69:-1 70:-1 71:-1 72:-1 73:-1 74:-1 75:-1 76:1 77:-1 79:-1 80:-1 81:1 82:-1 83:-1 84:1 85:-1 86:1 87:-1 88:-1 89:-1 90:-1 91:-1 92:-1 93:-1 94:-1 95:-1 96:-1 97:1 98:-1 99:-1 100:-1 101:-1 102:-1 103:-1 104:1 105:-1 106:1 107:-1 108:-1 109:-1 110:-1 111:-1 112:-1 
0.03137480734225145 1:-1 2:-1 3:1 4:-1 5:-1 6:-1 7:1 8:-1 9:-1 10:-1 11:-1 12:-1 13:-1 14:1 15:-1 16:-1 17:-1 18:-1 19:-1 20:-1 21:1 22:-1 23:-1 24:-1 25:-1 26:-1 27:-1 28:1 29:-1 30:-1 31:-1 32:-1 33:1 34:1 35:-1 36:1 37:-1 38:-1 39:-1 40:-1 41:-1 42:-1 43:-1 44:-1 45:-1 46:-1 47:-1 48:1 49:-1 50:-1 51:1 52:-1 53:1 54:-1 55:-1 56:-1 57:1 58:-1 59:-1 60:-1 61:-1 62:-1 63:-1 64:-1 65:-1 66:1 67:-1 68:-1 69:-1 70:-1 71:-1 72:-1 73:-1 74:-1 75:1 76:-1 77:-1 79:-1 80:-1 81:1 82:-1 83:-1 84:1 85:-1 86:1 87:-1 88:-1 89:-1 90:-1 91:-1 92:-1 93:1 94:-1 95:-1 96:-1 97:-1 98:-1 99:-1 100:-1 101:-1 102:-1 103:-1 104:1 105:-1 106:1 107:-1 108:-1 109:-1 110:-1 111:-1 112:-1 
0.3345903948531996 1:-1 2:-1 3:1 4:-1 5:-1 6:-1 7:1 8:-1 9:-1 10:-1 11:-1 12:-1 13:-1 14:-1 15:1 16:-1 17:-1 18:-1 19:-1 20:-1 21:1 22:-1 23:1 24:-1 25:-1 26:-1 27:-1 28:-1 29:-1 30:-1 31:-1 32:-1 33:1 34:1 35:-1 36:1 37:-1 38:-1 39:-1 40:-1 41:-1 42:-1 43:-1 44:-1 45:-1 46:-1 47:-1 48:1 49:-1 50:1 51:-1 52:-1 53:1 54:-1 55:-1 56:1 57:-1 58:-1 59:-1 60:-1 61:-1 62:-1 63:-1 64:-1 65:-1 66:-1 67:1 68:-1 69:-1 70:-1 71:-1 72:-1 73:-1 74:-1 75:-1 76:1 77:-1 79:-1 80:-1 81:1 82:-1 83:-1 84:1 85:-1 86:1 87:-1 88:-1 89:-1 90:-1 91:-1 92:-1 93:-1 94:-1 95:1 96:-1 97:-1 98:-1 99:-1 100:-1 101:-1 102:-1 103:1 104:-1 105:-1 106:-1 107:1 108:-1 109:-1 110:-1 111:-1 112:-1 
0.3421752400837921 1:-1 2:-1 3:-1 4:-1 5:-1 6:1 7:-1 8:1 9:-1 10:-1 11:-1 12:-1 13:-1 14:-1 15:-1 16:-1 17:-1 18:-1 19:1 20:-1 21:-1 22:1 23:-1 24:-1 25:-1 26:-1 27:-1 28:1 29:-1 30:-1 31:-1 32:-1 33:1 34:-1 35:1 36:1 37:-1 38:-1 39:-1 40:-1 41:-1 42:-1 43:-1 44:-1 45:1 46:-1 47:-1 48:-1 49:-1 50:1 51:-1 52:-1 53:-1 54:1 55:-1 56:-1 57:1 58:-1 59:-1 60:-1 61:-1 62:-1 63:-1 64:-1 65:-1 66:-1 67:1 68:-1 69:-1 70:-1 71:-1 72:-1 73:-1 74:-1 75:-1 76:1 77:-1 79:-1 80:-1 81:1 82:-1 83:1 84:-1 85:-1 86:1 87:-1 88:-1 89:-1 90:-1 91:-1 92:-1 93:-1 94:-1 95:-1 96:-1 97:-1 98:1 99:-1 100:-1 101:-1 102:-1 103:1 104:-1 105:-1 106:-1 107:1 108:-1 109:-1 110:-1 111:-1 112:-1 
0.4259349736424081 1:-1 2:-1 3:-1 4:-1 5:-1 6:1 7:-1 8:1 9:-1 10:-1 11:-1 12:-1 13:-1 14:-1 15:-1 16:-1 17:-1 18:-1 19:1 20:-1 21:1 22:-1 23:1 24:-1 25:-1 26:-1 27:-1 28:-1 29:-1 30:-1 31:-1 32:-1 33:1 34:1 35:-1 36:1 37:-1 38:-1 39:-1 40:-1 41:-1 42:1 43:-1 44:-1 45:-1 46:-1 47:-1 48:-1 49:-1 50:1 51:-1 52:-1 53:1 54:-1 55:-1 56:-1 57:1 58:-1 59:-1 60:-1 61:-1 62:-1 63:-1 64:-1 65:-1 66:-1 67:1 68:-1 69:-1 70:-1 71:-1 72:-1 73:-1 74:-1 75:-1 76:1 77:-1 79:-1 80:-1 81:1 82:-1 83:-1 84:1 85:-1 86:1 87:-1 88:-1 89:-1 90:-1 91:-1 92:-1 93:-1 94:-1 95:1 96:-1 97:-1 98:-1 99:-1 100:-1 101:-1 102:-1 103:1 104:-1 105:-1 106:-1 107:1 108:-1 109:-1 110:-1 111:-1 112:-1 
0.07509965983674075 1:-1 2:1 3:-1 4:-1 5:-1 6:-1 7:-1 8:-1 9:-1 10:1 11:-1 12:-1 13:-1 14:-1 15:-1 16:-1 17:-1 18:-1 19:1 20:-1 21:-1 22:1 23:-1 24:-1 25:-1 26:-1 27:-1 28:1 29:-1 30:-1 31:-1 32:-1 33:1 34:-1 35:1 36:1 37:-1 38:-1 39:-1 40:-1 41:-1 42:-1 43:-1 44:-1 45:-1 46:-1 47:-1 48:1 49:-1 50:1 51:-1 52:-1 53:-1 54:1 55:-1 56:-1 57:1 58:-1 59:-1 60:-1 61:-1 62:-1 63:-1 64:-1 65:-1 66:-1 67:1 68:-1 69:-1 70:-1 71:-1 72:-1 73:-1 74:-1 75:-1 76:1 77:-1 79:-1 80:-1 81:1 82:-1 83:1 84:-1 85:-1 86:1 87:-1 88:-1 89:-1 90:-1 91:-1 92:-1 93:-1 94:-1 95:-1 96:-1 97:-1 98:1 99:-1 100:-1 101:-1 102:-1 103:1 104:-1 105:-1 106:-1 107:1 108:-1 109:-1 110:-1 111:-1 112:-1 
0.2158604786503993 1:-1 2:-1 3:-1 4:1 5:-1 6:-1 7:-1 8:1 9:-1 10:-1 11:-1 12:-1 13:-1 14:-1 15:1 16:-1 17:-1 18:-1 19:-1 20:-1 21:-1 22:1 23:-1 24:-1 25:-1 26:-1 27:-1 28:1 29:-1 30:-1 31:-1 32:1 33:-1 34:1 35:-1 36:1 37:-1 38:-1 39:-1 40:-1 41:-1 42:-1 43:-1 44:-1 45:-1 46:-1 47:-1 48:-1 49:1 50:1 51:-1 52:-1 53:1 54:-1 55:-1 56:-1 57:1 58:-1 59:-1 60:-1 61:-1 62:-1 63:-1 64:1 65:-1 66:-1 67:-1 68:-1 69:-1 70:-1 71:-1 72:-1 73:1 74:-1 75:-1 76:-1 77:-1 79:-1 80:1 81:-1 82:-1 83:-1 84:1 85:-1 86:1 87:-1 88:-1 89:-1 90:-1 91:-1 92:-1 93:-1 94:-1 95:-1 96:-1 97:-1 98:-1 99:1 100:-1 101:1 102:-1 103:-1 104:-1 105:-1 106:-1 107:-1 108:-1 109:1 110:-1 111:-1 112:-1 
0.005639016640219196 1:-1 2:-1 3:1 4:-1 5:-1 6:-1 7:1 8:-1 9:-1 10:-1 11:-1 12:-1 13:-1 14:1 15:-1 16:-1 17:-1 18:-1 19:-1 20:-1 21:1 22:-1 23:-1 24:-1 25:-1 26:-1 27:-1 28:1 29:-1 30:-1 31:-1 32:-1 33:1 34:1 35:-1 36:1 37:-1 38:-1 39:-1 40:-1 41:-1 42:-1 43:-1 44:-1 45:1 46:-1 47:-1 48:-1 49:-1 50:-1 51:1 52:-1 53:1 54:-1 55:-1 56:-1 57:1 58:-1 59:-1 60:-1 61:-1 62:-1 63:-1 64:-1 65:-1 66:1 67:-1 68:-1 69:-1 70:-1 71:-1 72:1 73:-1 74:-1 75:-1 76:-1 77:-1 79:-1 80:-1 81:1 82:-1 83:-1 84:1 85:-1 86:1 87:-1 88:-1 89:-1 90:-1 91:-1 92:-1 93:1 94:-1 95:-1 96:-1 97:-1 98:-1 99:-1 100:-1 101:-1 102:-1 103:-1 104:1 105:-1 106:1 107:-1 108:-1 109:-1 110:-1 111:-1 112:-1 
0.2714145033176632 1:-1 2:-1 3:1 4:-1 5:-1 6:-1 7:1 8:-1 9:-1 10:-1 11:-1 12:1 13:-1 14:-1 15:-1 16:-1 17:-1 18:-1 19:-1 20:-1 21:1 22:-1 23:-1 24:-1 25:-1 26:-1 27:-1 28:1 29:-1 30:-1 31:-1 32:-1 33:1 34:1 35:-1 36:1 37:-1 38:-1 39:1 40:-1 41:-1 42:-1 43:-1 44:-1 45:-1 46:-1 47:-1 48:-1 49:-1 50:1 51:-1 52:-1 53:1 54:-1 55:-1 56:-1 57:1 58:-1 59:-1 60:-1 61:-1 62:-1 63:-1 64:-1 65:-1 66:-1 67:1 68:-1 69:-1 70:-1 71:-1 72:-1 73:-1 74:-1 75:-1 76:1 77:-1 79:-1 80:-1 81:1 82:-1 83:1 84:-1 85:-1 86:-1 87:-1 88:1 89:-1 90:-1 91:-1 92:-1 93:-1 94:-1 95:-1 96:-1 97:-1 98:1 99:-1 100:-1 101:1 102:-1 103:-1 104:-1 105:-1 106:-1 107:-1 108:-1 109:-1 110:-1 111:-1 112:1 
0.05387753562989007 1:-1 2:-1 3:1 4:-1 5:-1 6:-1 7:1 8:-1 9:-1 10:-1 11:-1 12:-1 13:1 14:-1 15:-1 16:-1 17:-1 18:-1 19:-1 20:-1 21:1 22:-1 23:-1 24:-1 25:-1 26:-1 27:-1 28:1 29:-1 30:-1 31:-1 32:-1 33:1 34:1 35:-1 36:1 37:-1 38:-1 39:-1 40:-1 41:-1 42:-1 43:-1 44:-1 45:1 46:-1 47:-1 48:-1 49:-1 50:-1 51:1 52:-1 53:1 54:-1 55:-1 56:-1 57:1 58:-1 59:-1 60:-1 61:-1 62:-1 63:1 64:-1 65:-1 66:-1 67:-1 68:-1 69:-1 70:-1 71:-1 72:-1 73:-1 74:-1 75:1 76:-1 77:-1 79:-1 80:-1 81:1 82:-1 83:-1 84:1 85:-1 86:1 87:-1 88:-1 89:-1 90:-1 91:-1 92:-1 93:1 94:-1 95:-1 96:-1 97:-1 98:-1 99:-1 100:-1 101:-1 102:-1 103:-1 104:1 105:-1 106:1 107:-1 108:-1 109:-1 110:-1 111:-1 112:-1 
0.3585718094769085 1:-1 2:-1 3:1 4:-1 5:-1 6:-1 7:1 8:-1 9:-1 10:-1 11:-1 12:-1 13:-1 14:-1 15:-1 16:-1 17:-1 18:-1 19:-1 20:1 21:1 22:-1 23:-1 24:-1 25:-1 26:-1 27:1 28:-1 29:-1 30:-1 31:-1 32:-1 33:1 34:1 35:-1 36:1 37:-1 38:-1 39:-1 40:-1 41:-1 42:-1 43:-1 44:-1 45:-1 46:-1 47:-1 48:1 49:-1 50:1 51:-1 52:-1 53:1 54:-1 55:-1 56:1 57:-1 58:-1 59:-1 60:-1 61:-1 62:-1 63:-1 64:-1 65:-1 66:-1 67:1 68:-1 69:-1 70:-1 71:-1 72:-1 73:-1 74:-1 75:-1 76:1 77:-1 79:-1 80:-1 81:1 82:-1 83:-1 84:1 85:-1 86:1 87:-1 88:-1 89:-1 90:-1 91:-1 92:-1 93:-1 94:-1 95:1 96:-1 97:-1 98:-1 99:-1 100:-1 101:-1 102:-1 103:1 104:-1 105:-1 106:-1 107:1 108:-1 109:-1 110:-1 111:-1 112:-1 
0.0786327451838025 1:-1 2:-1 3:1 4:-1 5:-1 6:-1 7:1 8:-1 9:-1 10:-1 11:-1 12:-1 13:1 14:-1 15:-1 16:-1 17:-1 18:-1 19:-1 20:-1 21:1 22:-1 23:-1 24:-1 25:-1 26:-1 27:-1 28:1 29:-1 30:-1 31:-1 32:-1 33:1 34:1 35:-1 36:1 37:-1 38:-1 39:-1 40:-1 41:-1 42:-1 43:-1 44:-1 45:-1 46:-1 47:-1 48:1 49:-1 50:-1 51:1 52:-1 53:1 54:-1 55:-1 56:-1 57:1 58:-1 59:-1 60:-1 61:-1 62:-1 63:-1 64:-1 65:-1 66:-1 67:1 68:-1 69:-1 70:-1 71:-1 72:-1 73:-1 74:-1 75:-1 76:1 77:-1 79:-1 80:-1 81:1 82:-1 83:-1 84:1 85:-1 86:1 87:-1 88:-1 89:-1 90:-1 91:-1 92:-1 93:1 94:-1 95:-1 96:-1 97:-1 98:-1 99:-1 100:-1 101:-1 102:-1 103:-1 104:1 105:-1 106:1 107:-1 108:-1 109:-1 110:-1 111:-1 112:-1 
0.1362637039603249 1:-1 2:-1 3:-1 4:-1 5:-1 6:1 7:-1 8:-1 9:-1 10:1 11:-1 12:-1 13:-1 14:-1 15:1 16:-1 17:-1 18:-1 19:-1 20:-1 21:-1 22:1 23:-1 24:-1 25:-1 26:-1 27:-1 28:1 29:-1 30:-1 31:-1 32:-1 33:1 34:-1 35:1 36:-1 37:1 38:-1 39:-1 40:-1 41:-1 42:-1 43:-1 44:-1 45:-1 46:-1 47:-1 48:1 49:-1 50:1 51:-1 52:-1 53:1 54:-1 55:-1 56:-1 57:1 58:-1 59:-1 60:-1 61:-1 62:-1 63:-1 64:-1 65:-1 66:-1 67:1 68:-1 69:-1 70:-1 71:-1 72:-1 73:-1 74:1 75:-1 76:-1 77:-1 79:-1 80:-1 81:1 82:-1 83:-1 84:1 85:-1 86:-1 87:-1 88:1 89:-1 90:-1 91:-1 92:-1 93:-1 94:-1 95:-1 96:-1 97:-1 98:1 99:-1 100:-1 101:-1 102:-1 103:-1 104:1 105:-1 106:-1 107:-1 108:-1 109:1 110:-1 111:-1 112:-1 
0.01012712241122696 1:-1 2:-1 3:1 4:-1 5:-1 6:-1 7:-1 8:1 9:-1 10:-1 11:-1 12:-1 13:-1 14:-1 15:1 16:-1 17:-1 18:-1 19:-1 20:-1 21:-1 22:1 23:-1 24:-1 25:-1 26:-1 27:-1 28:1 29:-1 30:-1 31:-1 32:-1 33:1 34:1 35:-1 36:1 37:-1 38:-1 39:-1 40:-1 41:-1 42:-1 43:-1 44:-1 45:-1 46:-1 47:-1 48:1 49:-1 50:1 51:-1 52:1 53:-1 54:-1 55:-1 56:1 57:-1 58:-1 59:-1 60:-1 61:-1 62:-1 63:-1 64:-1 65:1 66:-1 67:-1 68:-1 69:-1 70:-1 71:-1 72:-1 73:-1 74:1 75:-1 76:-1 77:-1 79:-1 80:-1 81:1 82:-1 83:1 84:-1 85:-1 86:1 87:-1 88:-1 89:-1 90:-1 91:-1 92:-1 93:-1 94:-1 95:-1 96:-1 97:-1 98:1 99:-1 100:-1 101:-1 102:-1 103:-1 104:-1 105:1 106:1 107:-1 108:-1 109:-1 110:-1 111:-1 112:-1 
0.01243286611363255 1:-1 2:-1 3:1 4:-1 5:-1 6:-1 7:1 8:-1 9:-1 10:-1 11:-1 12:1 13:-1 14:-1 15:-1 16:-1 17:-1 18:-1 19:-1 20:-1 21:1 22:-1 23:-1 24:-1 25:-1 26:-1 27:-1 28:1 29:-1 30:-1 31:-1 32:-1 33:1 34:1 35:-1 36:1 37:-1 38:-1 39:1 40:-1 41:-1 42:-1 43:-1 44:-1 45:-1 46:-1 47:-1 48:-1 49:-1 50:1 51:-1 52:-1 53:1 54:-1 55:-1 56:-1 57:1 58:-1 59:-1 60:-1 61:-1 62:1 63:-1 64:-1 65:-1 66:-1 67:-1 68:-1 69:-1 70:-1 71:-1 72:-1 73:-1 74:-1 75:-1 76:1 77:-1 79:-1 80:-1 81:1 82:-1 83:1 84:-1 85:-1 86:-1 87:-1 88:1 89:-1 90:-1 91:-1 92:-1 93:-1 94:-1 95:-1 96:-1 97:-1 98:1 99:-1 100:-1 101:1 102:-1 103:-1 104:-1 105:-1 106:-1 107:-1 108:-1 109:-1 110:-1 111:-1 112:1 
0.1549759626191091 1:-1 2:-1 3:1 4:-1 5:-1 6:-1 7:1 8:-1 9:-1 10:-1 11:-1 12:-1 13:-1 14:-1 15:-1 16:-1 17:-1 18:-1 19:1 20:-1 21:-1 22:1 23:-1 24:-1 25:-1 26:-1 27:-1 28:1 29:-1 30:-1 31:-1 32:-1 33:1 34:1 35:-1 36:-1 37:1 38:-1 39:-1 40:-1 41:1 42:-1 43:-1 44:-1 45:-1 46:-1 47:-1 48:-1 49:-1 50:1 51:-1 52:-1 53:1 54:-1 55:-1 56:-1 57:-1 58:-1 59:1 60:-1 61:-1 62:-1 63:-1 64:-1 65:-1 66:-1 67:1 68:-1 69:-1 70:-1 71:-1 72:-1 73:-1 74:-1 75:-1 76:1 77:-1 79:-1 80:-1 81:1 82:-1 83:-1 84:1 85:-1 86:-1 87:-1 88:-1 89:-1 90:1 91:-1 92:1 93:-1 94:-1 95:-1 96:-1 97:-1 98:-1 99:-1 100:-1 101:-1 102:-1 103:-1 104:-1 105:1 106:1 107:-1 108:-1 109:-1 110:-1 111:-1 112:-1 
0.01542377091163898 1:-1 2:1 3:-1 4:-1 5:-1 6:-1 7:-1 8:1 9:-1 10:-1 11:-1 12:-1 13:-1 14:-1 15:-1 16:-1 17:-1 18:-1 19:1 20:-1 21:1 22:-1 23:1 24:-1 25:-1 26:-1 27:-1 28:-1 29:-1 30:-1 31:-1 32:-1 33:1 34:1 35:-1 36:1 37:-1 38:-1 39:-1 40:-1 41:-1 42:-1 43:-1 44:-1 45:-1 46:-1 47:-1 48:1 49:-1 50:1 51:-1 52:-1 53:1 54:-1 55:-1 56:-1 57:1 58:-1 59:-1 60:-1 61:-1 62:-1 63:-1 64:-1 65:-1 66:-1 67:1 68:-1 69:-1 70:-1 71:-1 72:-1 73:-1 74:-1 75:-1 76:1 77:-1 79:-1 80:-1 81:1 82:-1 83:-1 84:1 85:-1 86:1 87:-1 88:-1 89:-1 90:-1 91:-1 92:-1 93:1 94:-1 95:-1 96:-1 97:-1 98:-1 99:-1 100:-1 101:-1 102:1 103:-1 104:-1 105:-1 106:-1 107:-1 108:1 109:-1 110:-1 111:-1 112:-1 
0.01935499685304314 1:-1 2:-1 3:1 4:-1 5:-1 6:-1 7:1 8:-1 9:-1 10:-1 11:-1 12:-1 13:1 14:-1 15:-1 16:-1 17:-1 18:-1 19:-1 20:-1 21:1 22:-1 23:-1 24:-1 25:-1 26:-1 27:-1 28:1 29:-1 30:-1 31:-1 32:-1 33:1 34:1 35:-1 36:1 37:-1 38:-1 39:-1 40:-1 41:-1 42:-1 43:-1 44:-1 45:1 46:-1 47:-1 48:-1 49:-1 50:-1 51:1 52:-1 53:1 54:-1 55:-1 56:-1 57:1 58:-1 59:-1 60:-1 61:-1 62:-1 63:1 64:-1 65:-1 66:-1 67:-1 68:-1 69:-1 70:-1 71:-1 72:1 73:-1 74:-1 75:-1 76:-1 77:-1 79:-1 80:-1 81:1 82:-1 83:-1 84:1 85:-1 86:1 87:-1 88:-1 89:-1 90:-1 91:-1 92:-1 93:1 94:-1 95:-1 96:-1 97:-1 98:-1 99:-1 100:-1 101:-1 102:-1 103:-1 104:1 105:-1 106:1 107:-1 108:-1 109:-1 110:-1 111:-1 112:-1 
1 1:-1 2:-1 3:-1 4:-1 5:-1 6:1 7:-1 8:1 9:-1 10:-1 11:-1 12:-1 13:-1 14:-1 15:-1 16:-1 17:-1 18:-1 19:1 20:-1 21:1 22:-1 23:-1 24:-1 25:-1 26:-1 27:1 28:-1 29:-1 30:-1 31:-1 32:-1 33:1 34:1 35:-1 36:1 37:-1 38:-1 39:-1 40:1 41:-1 42:-1 43:-1 44:-1 45:-1 46:-1 47:-1 48:-1 49:-1 50:1 51:-1 52:-1 53:1 54:-1 55:-1 56:-1 57:1 58:-1 59:-1 60:-1 61:-1 62:-1 63:-1 64:-1 65:-1 66:-1 67:1 68:-1 69:-1 70:-1 71:-1 72:-1 73:-1 74:-1 75:-1 76:1 77:-1 79:-1 80:-1 81:1 82:-1 83:-1 84:1 85:-1 86:1 87:-1 88:-1 89:-1 90:-1 91:-1 92:-1 93:1 94:-1 95:-1 96:-1 97:-1 98:-1 99:-1 100:-1 101:-1 102:-1 103:1 104:-1 105:-1 106:-1 107:1 108:-1 109:-1 110:-1 111:-1 112:-1 
0.1075258228201016 1:-1 2:-1 3:-1 4:-1 5:-1 6:1 7:-1 8:1 9:-1 10:-1 11:-1 12:-1 13:-1 14:-1 15:-1 16:-1 17:-1 18:-1 19:1 20:-1 21:1 22:-1 23:-1 24:-1 25:-1 26:-1 27:1 28:-1 29:-1 30:-1 31:-1 32:-1 33:1 34:1 35:-1 36:1 37:-1 38:-1 39:-1 40:-1 41:-1 42:-1 43:-1 44:1 45:-1 46:-1 47:-1 48:-1 49:-1 50:1 51:-1 52:-1 53:1 54:-1 55:-1 56:-1 57:1 58:-1 59:-1 60:-1 61:-1 62:-1 63:-1 64:-1 65:-1 66:-1 67:1 68:-1 69:-1 70:-1 71:-1 72:-1 73:-1 74:-1 75:-1 76:1 77:-1 79:-1 80:-1 81:1 82:-1 83:-1 84:1 85:-1 86:1 87:-1 88:-1 89:-1 90:-1 91:-1 92:-1 93:-1 94:-1 95:1 96:-1 97:-1 98:-1 99:-1 100:-1 101:-1 102:-1 103:1 104:-1 105:-1 106:-1 107:1 108:-1 109:-1 110:-1 111:-1 112:-1 
0.415549937717804 1:-1 2:-1 3:1 4:-1 5:-1 6:-1 7:-1 8:-1 9:-1 10:1 11:-1 12:-1 13:-1 14:-1 15:1 16:-1 17:-1 18:-1 19:-1 20:-1 21:-1 22:1 23:-1 24:-1 25:-1 26:-1 27:-1 28:1 29:-1 30:-1 31:-1 32:-1 33:1 34:1 35:-1 36:-1 37:1 38:-1 39:-1 40:-1 41:-1 42:-1 43:-1 44:1 45:-1 46:-1 47:-1 48:-1 49:-1 50:1 51:-1 52:-1 53:1 54:-1 55:-1 56:-1 57:1 58:-1 59:-1 60:-1 61:-1 62:-1 63:-1 64:-1 65:-1 66:-1 67:1 68:-1 69:-1 70:-1 71:-1 72:-1 73:-1 74:-1 75:-1 76:1 77:-1 79:-1 80:-1 81:1 82:-1 83:-1 84:1 85:-1 86:1 87:-1 88:-1 89:-1 90:-1 91:-1 92:-1 93:-1 94:-1 95:1 96:-1 97:-1 98:-1 99:-1 100:-1 101:-1 102:-1 103:-1 104:1 105:-1 106:-1 107:-1 108:-1 109:-1 110:-1 111:1 112:-1 
0.1789231982854962 1:-1 2:-1 3:1 4:-1 5:-1 6:-1 7:-1 8:1 9:-1 10:-1 11:-1 12:-1 13:-1 14:-1 15:-1 16:-1 17:-1 18:-1 19:1 20:-1 21:1 22:-1 23:-1 24:-1 25:-1 26:-1 27:1 28:-1 29:-1 30:-1 31:-1 32:-1 33:1 34:-1 35:1 36:-1 37:1 38:-1 39:-1 40:-1 41:-1 42:-1 43:-1 44:-1 45:1 46:-1 47:-1 48:-1 49:-1 50:-1 51:1 52:-1 53:1 54:-1 55:-1 56:-1 57:1 58:-1 59:-1 60:-1 61:-1 62:-1 63:-1 64:-1 65:-1 66:-1 67:1 68:-1 69:-1 70:-1 71:-1 72:-1 73:-1 74:-1 75:-1 76:1 77:-1 79:-1 80:-1 81:1 82:-1 83:-1 84:1 85:-1 86:1 87:-1 88:-1 89:-1 90:-1 91:-1 92:-1 93:-1 94:-1 95:-1 96:-1 97:1 98:-1 99:-1 100:-1 101:-1 102:-1 103:-1 104:1 105:-1 106:1 107:-1 108:-1 109:-1 110:-1 111:-1 112:-1 
0.4058018986494579 1:-1 2:-1 3:1 4:-1 5:-1 6:-1 7:-1 8:-1 9:-1 10:1 11:-1 12:-1 13:-1 14:-1 15:1 16:-1 17:-1 18:-1 19:-1 20:-1 21:-1 22:1 23:-1 24:-1 25:-1 26:-1 27:-1 28:1 29:-1 30:-1 31:-1 32:-1 33:1 34:1 35:-1 36:-1 37:1 38:-1 39:-1 40:-1 41:-1 42:1 43:-1 44:-1 45:-1 46:-1 47:-1 48:-1 49:-1 50:1 51:-1 52:-1 53:1 54:-1 55:-1 56:-1 57:1 58:-1 59:-1 60:-1 61:-1 62:-1 63:-1 64:-1 65:-1 66:-1 67:1 68:-1 69:-1 70:-1 71:-1 72:-1 73:-1 74:-1 75:-1 76:1 77:-1 79:-1 80:-1 81:1 82:-1 83:-1 84:1 85:-1 86:1 87:-1 88:-1 89:-1 90:-1 91:-1 92:-1 93:-1 94:-1 95:1 96:-1 97:-1 98:-1 99:-1 100:-1 101:-1 102:-1 103:-1 104:1 105:-1 106:-1 107:-1 108:-1 109:-1 110:-1 111:1 112:-1 
0.2663817183570482 1:-1 2:-1 3:-1 4:-1 5:-1 6:1 7:1 8:-1 9:-1 10:-1 11:-1 12:-1 13:-1 14:-1 15:1 16:-1 17:-1 18:-1 19:-1 20:-1 21:1 22:-1 23:-1 24:-1 25:-1 26:-1 27:1 28:-1 29:-1 30:-1 31:-1 32:-1 33:1 34:1 35:-1 36:1 37:-1 38:-1 39:-1 40:-1 41:-1 42:-1 43:-1 44:-1 45:1 46:-1 47:-1 48:-1 49:-1 50:1 51:-1 52:-1 53:1 54:-1 55:-1 56:1 57:-1 58:-1 59:-1 60:-1 61:-1 62:-1 63:-1 64:-1 65:-1 66:-1 67:1 68:-1 69:-1 70:-1 71:-1 72:-1 73:-1 74:-1 75:-1 76:1 77:-1 79:-1 80:-1 81:1 82:-1 83:-1 84:1 85:-1 86:1 87:-1 88:-1 89:-1 90:-1 91:-1 92:-1 93:1 94:-1 95:-1 96:-1 97:-1 98:-1 99:-1 100:-1 101:-1 102:-1 103:1 104:-1 105:-1 106:-1 107:1 108:-1 109:-1 110:-1 111:-1 112:-1 
0.1541820747619799 1:-1 2:-1 3:-1 4:1 5:-1 6:-1 7:1 8:-1 9:-1 10:-1 11:-1 12:-1 13:-1 14:-1 15:-1 16:1 17:-1 18:-1 19:-1 20:-1 21:1 22:-1 23:-1 24:-1 25:-1 26:-1 27:-1 28:1 29:-1 30:-1 31:-1 32:-1 33:1 34:1 35:-1 36:1 37:-1 38:-1 39:1 40:-1 41:-1 42:-1 43:-1 44:-1 45:-1 46:-1 47:-1 48:-1 49:-1 50:1 51:-1 52:-1 53:1 54:-1 55:-1 56:-1 57:1 58:-1 59:-1 60:-1 61:-1 62:-1 63:-1 64:-1 65:-1 66:-1 67:1 68:-1 69:-1 70:-1 71:1 72:-1 73:-1 74:-1 75:-1 76:-1 77:-1 79:-1 80:-1 81:1 82:-1 83:1 84:-1 85:-1 86:-1 87:-1 88:1 89:-1 90:-1 91:-1 92:-1 93:-1 94:-1 95:-1 96:-1 97:-1 98:1 99:-1 100:-1 101:1 102:-1 103:-1 104:-1 105:-1 106:-1 107:-1 108:-1 109:-1 110:-1 111:-1 112:1 
0.06447209727961514 1:-1 2:-1 3:-1 4:-1 5:-1 6:1 7:-1 8:1 9:-1 10:-1 11:-1 12:-1 13:-1 14:-1 15:-1 16:-1 17:-1 18:-1 19:1 20:-1 21:1 22:-1 23:1 24:-1 25:-1 26:-1 27:-1 28:-1 29:-1 30:-1 31:-1 32:-1 33:1 34:1 35:-1 36:1 37:-1 38:-1 39:-1 40:-1 41:-1 42:1 43:-1 44:-1 45:-1 46:-1 47:-1 48:-1 49:-1 50:1 51:-1 52:-1 53:1 54:-1 55:-1 56:-1 57:1 58:-1 59:-1 60:-1 61:-1 62:-1 63:-1 64:-1 65:-1 66:-1 67:1 68:-1 69:-1 70:-1 71:-1 72:-1 73:-1 74:-1 75:-1 76:1 77:-1 79:-1 80:-1 81:1 82:-1 83:-1 84:1 85:-1 86:1 87:-1 88:-1 89:-1 90:-1 91:-1 92:-1 93:1 94:-1 95:-1 96:-1 97:-1 98:-1 99:-1 100:-1 101:-1 102:-1 103:1 104:-1 105:-1 106:-1 107:-1 108:1 109:-1 110:-1 111:-1 112:-1 
0.6794306317847698 1:-1 2:-1 3:-1 4:-1 5:-1 6:1 7:1 8:-1 9:-1 10:-1 11:1 12:-1 13:-1 14:-1 15:-1 16:-1 17:-1 18:-1 19:-1 20:-1 21:-1 22:1 23:-1 24:-1 25:-1 26:-1 27:-1 28:1 29:-1 30:-1 31:-1 32:-1 33:1 34:-1 35:1 36:-1 37:1 38:-1 39:-1 40:-1 41:-1 42:-1 43:-1 44:-1 45:-1 46:-1 47:-1 48:1 49:-1 50:1 51:-1 52:-1 53:-1 54:-1 55:1 56:-1 57:1 58:-1 59:-1 60:-1 61:-1 62:-1 63:-1 64:-1 65:-1 66:-1 67:1 68:-1 69:-1 70:-1 71:-1 72:-1 73:-1 74:1 75:-1 76:-1 77:-1 79:-1 80:-1 81:1 82:-1 83:-1 84:1 85:-1 86:-1 87:-1 88:1 89:-1 90:-1 91:-1 92:-1 93:-1 94:-1 95:-1 96:-1 97:-1 98:1 99:-1 100:-1 101:-1 102:-1 103:-1 104:1 105:-1 106:-1 107:-1 108:-1 109:1 110:-1 111:-1 112:-1 
0.6997877994067819 1:-1 2:-1 3:-1 4:-1 5:-1 6:1 7:-1 8:-1 9:-1 10:1 11:-1 12:-1 13:-1 14:1 15:-1 16:-1 17:-1 18:-1 19:-1 20:-1 21:-1 22:1 23:-1 24:-1 25:-1 26:-1 27:-1 28:1 29:-1 30:-1 31:-1 32:-1 33:1 34:1 35:-1 36:-1 37:1 38:-1 39:-1 40:1 41:-1 42:-1 43:-1 44:-1 45:-1 46:-1 47:-1 48:-1 49:-1 50:1 51:-1 52:-1 53:1 54:-1 55:-1 56:-1 57:1 58:-1 59:-1 60:-1 61:-1 62:-1 63:-1 64:-1 65:-1 66:-1 67:1 68:-1 69:-1 70:-1 71:-1 72:-1 73:-1 74:-1 75:-1 76:1 77:-1 79:-1 80:-1 81:1 82:-1 83:-1 84:1 85:-1 86:1 87:-1 88:-1 89:-1 90:-1 91:-1 92:-1 93:1 94:-1 95:-1 96:-1 97:-1 98:-1 99:-1 100:-1 101:-1 102:-1 103:-1 104:1 105:-1 106:-1 107:-1 108:-1 109:-1 110:-1 111:1 112:-1 
0.7668781094080938 1:-1 2:-1 3:-1 4:1 5:-1 6:-1 7:1 8:-1 9:-1 10:-1 11:-1 12:1 13:-1 14:-1 15:-1 16:-1 17:-1 18:-1 19:-1 20:-1 21:1 22:-1 23:-1 24:-1 25:-1 26:-1 27:-1 28:1 29:-1 30:-1 31:-1 32:-1 33:1 34:1 35:-1 36:1 37:-1 38:-1 39:-1 40:-1 41:-1 42:-1 43:-1 44:-1 45:-1 46:-1 47:-1 48:1 49:-1 50:1 51:-1 52:-1 53:1 54:-1 55:-1 56:-1 57:1 58:-1 59:-1 60:-1 61:-1 62:-1 63:-1 64:-1 65:-1 66:-1 67:1 68:-1 69:-1 70:-1 71:-1 72:-1 73:-1 74:-1 75:-1 76:1 77:-1 79:-1 80:-1 81:1 82:-1 83:1 84:-1 85:-1 86:-1 87:-1 88:1 89:-1 90:-1 91:-1 92:-1 93:-1 94:-1 95:-1 96:-1 97:-1 98:1 99:-1 100:-1 101:1 102:-1 103:-1 104:-1 105:-1 106:-1 107:-1 108:-1 109:-1 110:-1 111:-1 112:1 
0.006271649065660138 1:-1 2:1 3:-1 4:-1 5:-1 6:-1 7:1 8:-1 9:-1 10:-1 11:-1 12:-1 13:-1 14:-1 15:-1 16:-1 17:-1 18:-1 19:1 20:-1 21:1 22:-1 23:1 24:-1 25:-1 26:-1 27:-1 28:-1 29:-1 30:-1 31:-1 32:-1 33:1 34:1 35:-1 36:1 37:-1 38:-1 39:-1 40:1 41:-1 42:-1 43:-1 44:-1 45:-1 46:-1 47:-1 48:-1 49:-1 50:1 51:-1 52:-1 53:1 54:-1 55:-1 56:-1 57:1 58:-1 59:-1 60:-1 61:-1 62:-1 63:-1 64:-1 65:-1 66:-1 67:1 68:-1 69:-1 70:-1 71:-1 72:-1 73:-1 74:-1 75:-1 76:1 77:-1 79:-1 80:-1 81:1 82:-1 83:-1 84:1 85:-1 86:1 87:-1 88:-1 89:-1 90:-1 91:-1 92:-1 93:1 94:-1 95:-1 96:-1 97:-1 98:-1 99:-1 100:-1 101:-1 102:-1 103:1 104:-1 105:-1 106:-1 107:1 108:-1 109:-1 110:-1 111:-1 112:-1 
0.2104417127367154 1:-1 2:1 3:-1 4:-1 5:-1 6:-1 7:-1 8:1 9:-1 10:-1 11:-1 12:-1 13:-1 14:-1 15:1 16:-1 17:-1 18:-1 19:-1 20:-1 21:-1 22:1 23:-1 24:-1 25:-1 26:-1 27:-1 28:1 29:-1 30:-1 31:-1 32:1 33:-1 34:1 35:-1 36:1 37:-1 38:-1 39:-1 40:-1 41:-1 42:-1 43:1 44:-1 45:-1 46:-1 47:-1 48:-1 49:-1 50:1 51:-1 52:-1 53:1 54:-1 55:-1 56:-1 57:1 58:-1 59:-1 60:-1 61:-1 62:-1 63:-1 64:1 65:-1 66:-1 67:-1 68:-1 69:-1 70:-1 71:-1 72:-1 73:1 74:-1 75:-1 76:-1 77:-1 79:-1 80:-1 81:-1 82:1 83:-1 84:1 85:-1 86:1 87:-1 88:-1 89:-1 90:-1 91:-1 92:-1 93:-1 94:-1 95:-1 96:-1 97:-1 98:-1 99:1 100:-1 101:1 102:-1 103:-1 104:-1 105:-1 106:-1 107:-1 108:-1 109:1 110:-1 111:-1 112:-1 
0.5248649912783299 1:-1 2:-1 3:1 4:-1 5:-1 6:-1 7:1 8:-1 9:-1 10:-1 11:-1 12:-1 13:-1 14:-1 15:1 16:-1 17:-1 18:-1 19:-1 20:-1 21:1 22:-1 23:1 24:-1 25:-1 26:-1 27:-1 28:-1 29:-1 30:-1 31:-1 32:-1 33:1 34:1 35:-1 36:1 37:-1 38:-1 39:-1 40:-1 41:-1 42:-1 43:-1 44:-1 45:1 46:-1 47:-1 48:-1 49:-1 50:1 51:-1 52:-1 53:1 54:-1 55:-1 56:1 57:-1 58:-1 59:-1 60:-1 61:-1 62:-1 63:-1 64:-1 65:-1 66:-1 67:1 68:-1 69:-1 70:-1 71:-1 72:-1 73:-1 74:-1 75:-1 76:1 77:-1 79:-1 80:-1 81:1 82:-1 83:-1 84:1 85:-1 86:1 87:-1 88:-1 89:-1 90:-1 91:-1 92:-1 93:-1 94:-1 95:1 96:-1 97:-1 98:-1 99:-1 100:-1 101:-1 102:-1 103:1 104:-1 105:-1 106:-1 107:1 108:-1 109:-1 110:-1 111:-1 112:-1 
6.572407846368008e-05 1:-1 2:-1 3:1 4:-1 5:-1 6:-1 7:1 8:-1 9:-1 10:-1 11:-1 12:-1 13:1 14:-1 15:-1 16:-1 17:-1 18:-1 19:-1 20:-1 21:1 22:-1 23:-1 24:-1 25:-1 26:-1 27:-1 28:1 29:-1 30:-1 31:-1 32:-1 33:1 34:1 35:-1 36:1 37:-1 38:-1 39:-1 40:-1 41:-1 42:-1 43:-1 44:1 45:-1 46:-1 47:-1 48:-1 49:-1 50:-1 51:1 52:-1 53:1 54:-1 55:-1 56:-1 57:1 58:-1 59:-1 60:-1 61:-1 62:-1 63:-1 64:-1 65:-1 66:1 67:-1 68:-1 69:-1 70:-1 71:-1 72:-1 73:-1 74:-1 75:1 76:-1 77:-1 79:-1 80:-1 81:1 82:-1 83:-1 84:1 85:-1 86:1 87:-1 88:-1 89:-1 90:-1 91:-1 92:-1 93:1 94:-1 95:-1 96:-1 97:-1 98:-1 99:-1 100:-1 101:-1 102:-1 103:-1 104:1 105:-1 106:1 107:-1 108:-1 109:-1 110:-1 111:-1 112:-1 
0.06868138344524824 1:-1 2:-1 3:-1 4:1 5:-1 6:-1 7:1 8:-1 9:-1 10:-1 11:-1 12:-1 13:-1 14:-1 15:-1 16:1 17:-1 18:-1 19:-1 20:-1 21:1 22:-1 23:-1 24:-1 25:-1 26:-1 27:-1 28:1 29:-1 30:-1 31:-1 32:-1 33:1 34:1 35:-1 36:1 37:-1 38:-1 39:-1 40:-1 41:-1 42:-1 43:-1 44:-1 45:-1 46:-1 47:-1 48:1 49:-1 50:1 51:-1 52:-1 53:1 54:-1 55:-1 56:-1 57:1 58:-1 59:-1 60:-1 61:-1 62:1 63:-1 64:-1 65:-1 66:-1 67:-1 68:-1 69:-1 70:-1 71:-1 72:-1 73:-1 74:-1 75:-1 76:1 77:-1 79:-1 80:-1 81:1 82:-1 83:1 84:-1 85:-1 86:-1 87:-1 88:1 89:-1 90:-1 91:-1 92:-1 93:-1 94:-1 95:-1 96:-1 97:-1 98:1 99:-1 100:-1 101:1 102:-1 103:-1 104:-1 105:-1 106:-1 107:-1 108:-1 109:-1 110:-1 111:-1 112:1 
0.3433748347196827 1:-1 2:-1 3:1 4:-1 5:-1 6:-1 7:1 8:-1 9:-1 10:-1 11:-1 12:-1 13:-1 14:-1 15:-1 16:-1 17:-1 18:-1 19:-1 20:1 21:1 22:-1 23:1 24:-1 25:-1 26:-1 27:-1 28:-1 29:-1 30:-1 31:-1 32:-1 33:1 34:1 35:-1 36:1 37:-1 38:-1 39:-1 40:-1 41:-1 42:-1 43:-1 44:-1 45:1 46:-1 47:-1 48:-1 49:-1 50:1 51:-1 52:-1 53:1 54:-1 55:-1 56:1 57:-1 58:-1 59:-1 60:-1 61:-1 62:-1 63:-1 64:-1 65:-1 66:-1 67:1 68:-1 69:-1 70:-1 71:-1 72:-1 73:-1 74:-1 75:-1 76:1 77:-1 79:-1 80:-1 81:1 82:-1 83:-1 84:1 85:-1 86:1 87:-1 88:-1 89:-1 90:-1 91:-1 92:-1 93:1 94:-1 95:-1 96:-1 97:-1 98:-1 99:-1 100:-1 101:-1 102:-1 103:-1 104:-1 105:1 106:-1 107:1 108:-1 109:-1 110:-1 111:-1 112:-1 
0.1144450854141284 1:-1 2:-1 3:1 4:-1 5:-1 6:-1 7:-1 8:1 9:-1 10:-1 11:-1 12:1 13:-1 14:-1 15:-1 16:-1 17:-1 18:-1 19:-1 20:-1 21:1 22:-1 23:-1 24:-1 25:-1 26:-1 27:-1 28:1 29:-1 30:-1 31:-1 32:-1 33:1 34:1 35:-1 36:1 37:-1 38:-1 39:-1 40:-1 41:-1 42:-1 43:-1 44:-1 45:-1 46:-1 47:-1 48:1 49:-1 50:1 51:-1 52:-1 53:1 54:-1 55:-1 56:-1 57:1 58:-1 59:-1 60:-1 61:-1 62:-1 63:-1 64:-1 65:-1 66:-1 67:1 68:-1 69:-1 70:-1 71:1 72:-1 73:-1 74:-1 75:-1 76:-1 77:-1 79:-1 80:-1 81:1 82:-1 83:1 84:-1 85:-1 86:-1 87:-1 88:1 89:-1 90:-1 91:-1 92:-1 93:-1 94:-1 95:-1 96:-1 97:-1 98:1 99:-1 100:-1 101:1 102:-1 103:-1 104:-1 105:-1 106:-1 107:-1 108:-1 109:-1 110:-1 111:-1 112:1 
1 1:-1 2:-1 3:-1 4:-1 5:-1 6:1 7:1 8:-1 9:-1 10:-1 11:-1 12:-1 13:-1 14:-1 15:1 16:-1 17:-1 18:-1 19:-1 20:-1 21:-1 22:1 23:-1 24:-1 25:-1 26:-1 27:-1 28:1 29:-1 30:-1 31:-1 32:-1 33:1 34:-1 35:1 36:-1 37:1 38:-1 39:-1 40:-1 41:-1 42:-1 43:-1 44:-1 45:-1 46:-1 47:-1 48:1 49:-1 50:1 51:-1 52:-1 53:1 54:-1 55:-1 56:-1 57:1 58:-1 59:-1 60:-1 61:-1 62:-1 63:-1 64:-1 65:-1 66:-1 67:1 68:-1 69:-1 70:-1 71:-1 72:-1 73:-1 74:1 75:-1 76:-1 77:-1 79:-1 80:-1 81:1 82:-1 83:-1 84:1 85:-1 86:-1 87:-1 88:1 89:-1 90:-1 91:-1 92:-1 93:-1 94:-1 95:-1 96:-1 97:-1 98:1 99:-1 100:-1 101:-1 102:-1 103:-1 104:1 105:-1 106:-1 107:-1 108:-1 109:1 110:-1 111:-1 112:-1 
0.1965755803776023 1:-1 2:-1 3:-1 4:-1 5:-1 6:1 7:1 8:-1 9:-1 10:-1 11:-1 12:-1 13:-1 14:-1 15:-1 16:-1 17:-1 18:1 19:-1 20:-1 21:-1 22:1 23:-1 24:-1 25:-1 26:-1 27:-1 28:1 29:-1 30:-1 31:-1 32:-1 33:1 34:1 35:-1 36:-1 37:1 38:-1 39:-1 40:-1 41:-1 42:-1 43:-1 44:-1 45:1 46:-1 47:-1 48:-1 49:-1 50:1 51:-1 52:-1 53:1 54:-1 55:-1 56:-1 57:-1 58:-1 59:1 60:-1 61:-1 62:-1 63:-1 64:-1 65:-1 66:-1 67:1 68:-1 69:-1 70:-1 71:-1 72:-1 73:-1 74:-1 75:-1 76:1 77:-1 79:-1 80:-1 81:1 82:-1 83:-1 84:1 85:-1 86:-1 87:-1 88:-1 89:-1 90:1 91:-1 92:1 93:-1 94:-1 95:-1 96:-1 97:-1 98:-1 99:-1 100:-1 101:-1 102:-1 103:-1 104:1 105:-1 106:1 107:-1 108:-1 109:-1 110:-1 111:-1 112:-1 
0.05708658335213825 1:-1 2:-1 3:1 4:-1 5:-1 6:-1 7:1 8:-1 9:-1 10:-1 11:-1 12:-1 13:1 14:-1 15:-1 16:-1 17:-1 18:-1 19:-1 20:-1 21:1 22:-1 23:-1 24:-1 25:-1 26:-1 27:-1 28:1 29:-1 30:-1 31:-1 32:-1 33:1 34:1 35:-1 36:1 37:-1 38:-1 39:-1 40:-1 41:-1 42:-1 43:-1 44:-1 45:-1 46:-1 47:1 48:-1 49:-1 50:-1 51:1 52:-1 53:1 54:-1 55:-1 56:-1 57:1 58:-1 59:-1 60:-1 61:-1 62:-1 63:1 64:-1 65:-1 66:-1 67:-1 68:-1 69:-1 70:-1 71:-1 72:-1 73:-1 74:-1 75:1 76:-1 77:-1 79:-1 80:-1 81:1 82:-1 83:-1 84:1 85:-1 86:1 87:-1 88:-1 89:-1 90:-1 91:-1 92:-1 93:-1 94:-1 95:1 96:-1 97:-1 98:-1 99:-1 100:-1 101:-1 102:-1 103:-1 104:1 105:-1 106:1 107:-1 108:-1 109:-1 110:-1 111:-1 112:-1 
0.3247963573000007 1:-1 2:-1 3:-1 4:-1 5:-1 6:1 7:-1 8:-1 9:-1 10:1 11:-1 12:-1 13:-1 14:-1 15:-1 16:-1 17:-1 18:-1 19:1 20:-1 21:1 22:-1 23:-1 24:-1 25:-1 26:-1 27:1 28:-1 29:-1 30:-1 31:-1 32:-1 33:1 34:-1 35:1 36:-1 37:1 38:-1 39:-1 40:-1 41:-1 42:-1 43:-1 44:-1 45:-1 46:-1 47:-1 48:1 49:-1 50:-1 51:1 52:-1 53:1 54:-1 55:-1 56:-1 57:1 58:-1 59:-1 60:-1 61:-1 62:-1 63:-1 64:-1 65:-1 66:-1 67:1 68:-1 69:-1 70:-1 71:-1 72:-1 73:-1 74:-1 75:-1 76:1 77:-1 79:-1 80:-1 81:1 82:-1 83:-1 84:1 85:-1 86:1 87:-1 88:-1 89:-1 90:-1 91:-1 92:-1 93:-1 94:-1 95:-1 96:-1 97:1 98:-1 99:-1 100:-1 101:-1 102:-1 103:-1 104:1 105:-1 106:1 107:-1 108:-1 109:-1 110:-1 111:-1 112:-1 
0.2328550442888948 1:-1 2:-1 3:-1 4:1 5:-1 6:-1 7:-1 8:1 9:-1 10:-1 11:-1 12:-1 13:-1 14:-1 15:-1 16:-1 17:-1 18:-1 19:1 20:-1 21:-1 22:1 23:-1 24:-1 25:-1 26:-1 27:-1 28:1 29:-1 30:-1 31:-1 32:-1 33:1 34:-1 35:1 36:1 37:-1 38:-1 39:-1 40:1 41:-1 42:-1 43:-1 44:-1 45:-1 46:-1 47:-1 48:-1 49:-1 50:1 51:-1 52:-1 53:-1 54:1 55:-1 56:-1 57:-1 58:1 59:-1 60:-1 61:-1 62:-1 63:-1 64:-1 65:-1 66:-1 67:1 68:-1 69:-1 70:-1 71:-1 72:-1 73:-1 74:-1 75:-1 76:1 77:-1 79:-1 80:-1 81:1 82:-1 83:1 84:-1 85:-1 86:1 87:-1 88:-1 89:-1 90:-1 91:-1 92:-1 93:-1 94:-1 95:-1 96:-1 97:-1 98:1 99:-1 100:-1 101:-1 102:1 103:-1 104:-1 105:-1 106:-1 107:1 108:-1 109:-1 110:-1 111:-1 112:-1 
0.2182693645092495 1:-1 2:-1 3:1 4:-1 5:-1 6:-1 7:-1 8:-1 9:-1 10:1 11:-1 12:-1 13:-1 14:1 15:-1 16:-1 17:-1 18:-1 19:-1 20:-1 21:-1 22:1 23:-1 24:-1 25:-1 26:-1 27:-1 28:1 29:-1 30:-1 31:-1 32:-1 33:1 34:1 35:-1 36:-1 37:1 38:-1 39:-1 40:-1 41:-1 42:1 43:-1 44:-1 45:-1 46:-1 47:-1 48:-1 49:-1 50:1 51:-1 52:-1 53:1 54:-1 55:-1 56:-1 57:1 58:-1 59:-1 60:-1 61:-1 62:-1 63:-1 64:-1 65:-1 66:-1 67:1 68:-1 69:-1 70:-1 71:-1 72:-1 73:-1 74:-1 75:-1 76:1 77:-1 79:-1 80:-1 81:1 82:-1 83:-1 84:1 85:-1 86:1 87:-1 88:-1 89:-1 90:-1 91:-1 92:-1 93:1 94:-1 95:-1 96:-1 97:-1 98:-1 99:-1 100:-1 101:-1 102:-1 103:-1 104:1 105:-1 106:-1 107:-1 108:-1 109:-1 110:-1 111:1 112:-1 
0.0523596020760741 1:-1 2:-1 3:-1 4:-1 5:-1 6:1 7:1 8:-1 9:-1 10:-1 11:-1 12:-1 13:-1 14:1 15:-1 16:-1 17:-1 18:-1 19:-1 20:-1 21:1 22:-1 23:-1 24:-1 25:-1 26:-1 27:-1 28:1 29:-1 30:-1 31:-1 32:-1 33:1 34:1 35:-1 36:1 37:-1 38:-1 39:-1 40:-1 41:-1 42:-1 43:-1 44:-1 45:-1 46:-1 47:1 48:-1 49:-1 50:-1 51:1 52:-1 53:1 54:-1 55:-1 56:-1 57:1 58:-1 59:-1 60:-1 61:-1 62:-1 63:1 64:-1 65:-1 66:-1 67:-1 68:-1 69:-1 70:-1 71:-1 72:1 73:-1 74:-1 75:-1 76:-1 77:-1 79:-1 80:-1 81:1 82:-1 83:-1 84:1 85:-1 86:1 87:-1 88:-1 89:-1 90:-1 91:-1 92:-1 93:1 94:-1 95:-1 96:-1 97:-1 98:-1 99:-1 100:-1 101:-1 102:-1 103:-1 104:1 105:-1 106:1 107:-1 108:-1 109:-1 110:-1 111:-1 112:-1 
0.03881982055718639 1:-1 2:-1 3:-1 4:-1 5:-1 6:1 7:-1 8:-1 9:-1 10:1 11:-1 12:-1 13:-1 14:1 15:-1 16:-1 17:-1 18:-1 19:-1 20:-1 21:-1 22:1 23:-1 24:-1 25:-1 26:-1 27:-1 28:1 29:-1 30:-1 31:-1 32:-1 33:1 34:1 35:-1 36:-1 37:1 38:-1 39:-1 40:-1 41:-1 42:-1 43:-1 44:-1 45:1 46:-1 47:-1 48:-1 49:-1 50:1 51:-1 52:-1 53:1 54:-1 55:-1 56:-1 57:1 58:-1 59:-1 60:-1 61:-1 62:-1 63:-1 64:-1 65:-1 66:-1 67:1 68:-1 69:-1 70:-1 71:-1 72:-1 73:-1 74:-1 75:-1 76:1 77:-1 79:-1 80:-1 81:1 82:-1 83:-1 84:1 85:-1 86:1 87:-1 88:-1 89:-1 90:-1 91:-1 92:-1 93:-1 94:-1 95:1 96:-1 97:-1 98:-1 99:-1 100:-1 101:-1 102:-1 103:-1 104:-1 105:1 106:-1 107:-1 108:-1 109:-1 110:-1 111:1 112:-1 
0.09775527045780122 1:-1 2:-1 3:-1 4:-1 5:-1 6:1 7:-1 8:1 9:-1 10:-1 11:-1 12:-1 13:-1 14:1 15:-1 16:-1 17:-1 18:-1 19:-1 20:-1 21:-1 22:1 23:-1 24:-1 25:-1 26:-1 27:-1 28:1 29:-1 30:-1 31:-1 32:-1 33:1 34:-1 35:1 36:1 37:-1 38:-1 39:-1 40:1 41:-1 42:-1 43:-1 44:-1 45:-1 46:-1 47:-1 48:-1 49:-1 50:1 51:-1 52:-1 53:-1 54:1 55:-1 56:-1 57:-1 58:1 59:-1 60:-1 61:-1 62:-1 63:-1 64:-1 65:-1 66:-1 67:1 68:-1 69:-1 70:-1 71:-1 72:-1 73:-1 74:-1 75:-1 76:1 77:-1 79:-1 80:-1 81:1 82:-1 83:1 84:-1 85:-1 86:1 87:-1 88:-1 89:-1 90:-1 91:-1 92:-1 93:-1 94:-1 95:-1 96:-1 97:-1 98:1 99:-1 100:-1 101:-1 102:-1 103:1 104:-1 105:-1 106:-1 107:1 108:-1 109:-1 110:-1 111:-1 112:-1 
0.4912886214976847 1:-1 2:-1 3:1 4:-1 5:-1 6:-1 7:1 8:-1 9:-1 10:-1 11:-1 12:-1 13:-1 14:-1 15:-1 16:1 17:-1 18:-1 19:-1 20:-1 21:1 22:-1 23:-1 24:-1 25:-1 26:-1 27:-1 28:1 29:-1 30:-1 31:-1 32:-1 33:1 34:1 35:-1 36:1 37:-1 38:-1 39:-1 40:-1 41:-1 42:-1 43:-1 44:-1 45:-1 46:-1 47:-1 48:1 49:-1 50:1 51:-1 52:-1 53:1 54:-1 55:-1 56:-1 57:1 58:-1 59:-1 60:-1 61:-1 62:-1 63:-1 64:-1 65:-1 66:-1 67:1 68:-1 69:-1 70:-1 71:-1 72:-1 73:-1 74:-1 75:-1 76:1 77:-1 79:-1 80:-1 81:1 82:-1 83:1 84:-1 85:-1 86:-1 87:-1 88:1 89:-1 90:-1 91:-1 92:-1 93:-1 94:-1 95:-1 96:-1 97:-1 98:1 99:-1 100:-1 101:1 102:-1 103:-1 104:-1 105:-1 106:-1 107:-1 108:-1 109:-1 110:-1 111:-1 112:1 
0.5022941540812875 1:-1 2:-1 3:1 4:-1 5:-1 6:-1 7:-1 8:1 9:-1 10:-1 11:-1 12:-1 13:-1 14:-1 15:1 16:-1 17:-1 18:-1 19:-1 20:-1 21:1 22:-1 23:-1 24:-1 25:-1 26:-1 27:-1 28:1 29:-1 30:-1 31:-1 32:-1 33:1 34:1 35:-1 36:1 37:-1 38:-1 39:-1 40:-1 41:-1 42:-1 43:-1 44:-1 45:-1 46:-1 47:-1 48:1 49:-1 50:1 51:-1 52:-1 53:1 54:-1 55:-1 56:-1 57:1 58:-1 59:-1 60:-1 61:-1 62:-1 63:-1 64:-1 65:-1 66:-1 67:1 68:-1 69:-1 70:-1 71:-1 72:-1 73:-1 74:-1 75:-1 76:1 77:-1 79:-1 80:-1 81:1 82:-1 83:1 84:-1 85:-1 86:1 87:-1 88:-1 89:-1 90:-1 91:-1 92:-1 93:-1 94:-1 95:-1 96:-1 97:-1 98:1 99:-1 100:-1 101:-1 102:-1 103:-1 104:1 105:-1 106:-1 107:-1 108:-1 109:-1 110:1 111:-1 112:-1 
0.5895792301993189 1:-1 2:-1 3:-1 4:-1 5:-1 6:1 7:-1 8:-1 9:-1 10:1 11:-1 12:-1 13:-1 14:-1 15:-1 16:-1 17:-1 18:-1 19:1 20:-1 21:1 22:-1 23:-1 24:-1 25:-1 26:-1 27:1 28:-1 29:-1 30:-1 31:-1 32:-1 33:1 34:-1 35:1 36:-1 37:1 38:-1 39:-1 40:-1 41:-1 42:-1 43:-1 44:-1 45:1 46:-1 47:-1 48:-1 49:-1 50:-1 51:1 52:-1 53:1 54:-1 55:-1 56:-1 57:1 58:-1 59:-1 60:-1 61:-1 62:-1 63:-1 64:-1 65:-1 66:-1 67:1 68:-1 69:-1 70:-1 71:-1 72:-1 73:-1 74:-1 75:-1 76:1 77:-1 79:-1 80:-1 81:1 82:-1 83:-1 84:1 85:-1 86:1 87:-1 88:-1 89:-1 90:-1 91:-1 92:-1 93:-1 94:-1 95:1 96:-1 97:-1 98:-1 99:-1 100:-1 101:-1 102:-1 103:-1 104:1 105:-1 106:1 107:-1 108:-1 109:-1 110:-1 111:-1 112:-1 
1 1:-1 2:-1 3:-1 4:-1 5:-1 6:1 7:1 8:-1 9:-1 10:-1 11:-1 12:-1 13:-1 14:-1 15:-1 16:-1 17:-1 18:-1 19:1 20:-1 21:-1 22:1 23:-1 24:-1 25:-1 26:-1 27:-1 28:1 29:-1 30:-1 31:-1 32:-1 33:1 34:1 35:-1 36:-1 37:1 38:-1 39:-1 40:-1 41:1 42:-1 43:-1 44:-1 45:-1 46:-1 47:-1 48:-1 49:-1 50:1 51:-1 52:-1 53:1 54:-1 55:-1 56:-1 57:-1 58:-1 59:1 60:-1 61:-1 62:-1 63:-1 64:-1 65:-1 66:-1 67:1 68:-1 69:-1 70:-1 71:-1 72:-1 73:-1 74:-1 75:-1 76:1 77:-1 79:-1 80:-1 81:1 82:-1 83:-1 84:1 85:-1 86:-1 87:-1 88:-1 89:-1 90:1 91:-1 92:1 93:-1 94:-1 95:-1 96:-1 97:-1 98:-1 99:-1 100:-1 101:-1 102:-1 103:-1 104:1 105:-1 106:1 107:-1 108:-1 109:-1 110:-1 111:-1 112:-1 
0.01843696157353293 1:-1 2:-1 3:-1 4:-1 5:-1 6:1 7:-1 8:-1 9:-1 10:1 11:-1 12:-1 13:-1 14:-1 15:1 16:-1 17:-1 18:-1 19:-1 20:-1 21:-1 22:1 23:-1 24:-1 25:-1 26:-1 27:-1 28:1 29:-1 30:-1 31:-1 32:-1 33:1 34:1 35:-1 36:-1 37:1 38:-1 39:-1 40:1 41:-1 42:-1 43:-1 44:-1 45:-1 46:-1 47:-1 48:-1 49:-1 50:1 51:-1 52:-1 53:1 54:-1 55:-1 56:-1 57:1 58:-1 59:-1 60:-1 61:-1 62:-1 63:-1 64:-1 65:-1 66:-1 67:1 68:-1 69:-1 70:-1 71:-1 72:-1 73:-1 74:-1 75:-1 76:1 77:-1 79:-1 80:-1 81:1 82:-1 83:-1 84:1 85:-1 86:1 87:-1 88:-1 89:-1 90:-1 91:-1 92:-1 93:-1 94:-1 95:1 96:-1 97:-1 98:-1 99:-1 100:-1 101:-1 102:-1 103:-1 104:1 105:-1 106:-1 107:-1 108:-1 109:-1 110:-1 111:1 112:-1 
0.08374332960386262 1:-1 2:-1 3:-1 4:-1 5:-1 6:1 7:-1 8:-1 9:-1 10:1 11:-1 12:-1 13:-1 14:-1 15:-1 16:-1 17:-1 18:-1 19:1 20:-1 21:1 22:-1 23:-1 24:-1 25:-1 26:-1 27:1 28:-1 29:-1 30:-1 31:-1 32:-1 33:1 34:-1 35:1 36:-1 37:1 38:-1 39:-1 40:-1 41:-1 42:-1 43:-1 44:-1 45:1 46:-1 47:-1 48:-1 49:-1 50:-1 51:1 52:-1 53:1 54:-1 55:-1 56:-1 57:1 58:-1 59:-1 60:-1 61:-1 62:-1 63:-1 64:-1 65:-1 66:-1 67:1 68:-1 69:-1 70:-1 71:-1 72:-1 73:-1 74:-1 75:-1 76:1 77:-1 79:-1 80:-1 81:1 82:-1 83:-1 84:1 85:-1 86:1 87:-1 88:-1 89:-1 90:-1 91:-1 92:-1 93:-1 94:-1 95:-1 96:-1 97:1 98:-1 99:-1 100:-1 101:-1 102:-1 103:-1 104:1 105:-1 106:1 107:-1 108:-1 109:-1 110:-1 111:-1 112:-1 
0.002208039152275843 1:-1 2:-1 3:-1 4:1 5:-1 6:-1 7:-1 8:1 9:-1 10:-1 11:-1 12:-1 13:-1 14:-1 15:1 16:-1 17:-1 18:-1 19:-1 20:-1 21:-1 22:1 23:-1 24:-1 25:-1 26:-1 27:-1 28:1 29:-1 30:-1 31:-1 32:1 33:-1 34:1 35:-1 36:1 37:-1 38:-1 39:-1 40:-1 41:-1 42:-1 43:-1 44:-1 45:-1 46:-1 47:-1 48:-1 49:1 50:1 51:-1 52:-1 53:1 54:-1 55:-1 56:-1 57:1 58:-1 59:-1 60:-1 61:-1 62:-1 63:-1 64:1 65:-1 66:-1 67:-1 68:-1 69:-1 70:-1 71:-1 72:-1 73:1 74:-1 75:-1 76:-1 77:-1 79:-1 80:-1 81:-1 82:1 83:-1 84:1 85:-1 86:1 87:-1 88:-1 89:-1 90:-1 91:-1 92:-1 93:-1 94:-1 95:-1 96:-1 97:-1 98:-1 99:1 100:-1 101:1 102:-1 103:-1 104:-1 105:-1 106:-1 107:-1 108:-1 109:1 110:-1 111:-1 112:-1 
0.2802826148950461 1:-1 2:1 3:-1 4:-1 5:-1 6:-1 7:1 8:-1 9:-1 10:-1 11:-1 12:-1 13:-1 14:-1 15:-1 16:-1 17:-1 18:-1 19:1 20:-1 21:1 22:-1 23:1 24:-1 25:-1 26:-1 27:-1 28:-1 29:-1 30:-1 31:-1 32:-1 33:1 34:1 35:-1 36:1 37:-1 38:-1 39:-1 40:-1 41:-1 42:-1 43:-1 44:-1 45:-1 46:-1 47:-1 48:1 49:-1 50:1 51:-1 52:-1 53:1 54:-1 55:-1 56:-1 57:1 58:-1 59:-1 60:-1 61:-1 62:-1 63:-1 64:-1 65:-1 66:-1 67:1 68:-1 69:-1 70:-1 71:-1 72:-1 73:-1 74:-1 75:-1 76:1 77:-1 79:-1 80:-1 81:1 82:-1 83:-1 84:1 85:-1 86:1 87:-1 88:-1 89:-1 90:-1 91:-1 92:-1 93:1 94:-1 95:-1 96:-1 97:-1 98:-1 99:-1 100:-1 101:-1 102:-1 103:1 104:-1 105:-1 106:-1 107:-1 108:1 109:-1 110:-1 111:-1 112:-1 
0.1458474706201192 1:-1 2:-1 3:-1 4:-1 5:-1 6:1 7:-1 8:1 9:-1 10:-1 11:-1 12:-1 13:-1 14:-1 15:-1 16:-1 17:-1 18:-1 19:-1 20:1 21:1 22:-1 23:1 24:-1 25:-1 26:-1 27:-1 28:-1 29:-1 30:-1 31:-1 32:-1 33:1 34:-1 35:1 36:-1 37:1 38:-1 39:-1 40:-1 41:-1 42:-1 43:-1 44:1 45:-1 46:-1 47:-1 48:-1 49:-1 50:-1 51:1 52:-1 53:1 54:-1 55:-1 56:-1 57:1 58:-1 59:-1 60:-1 61:-1 62:-1 63:-1 64:-1 65:-1 66:-1 67:1 68:-1 69:-1 70:-1 71:-1 72:-1 73:-1 74:-1 75:-1 76:1 77:-1 79:-1 80:-1 81:1 82:-1 83:-1 84:1 85:-1 86:1 87:-1 88:-1 89:-1 90:-1 91:-1 92:-1 93:-1 94:-1 95:1 96:-1 97:-1 98:-1 99:-1 100:-1 101:-1 102:-1 103:-1 104:1 105:-1 106:1 107:-1 108:-1 109:-1 110:-1 111:-1 112:-1 
0.03545045909985388 1:-1 2:-1 3:1 4:-1 5:-1 6:-1 7:-1 8:1 9:-1 10:-1 11:-1 12:-1 13:-1 14:-1 15:-1 16:-1 17:-1 18:-1 19:1 20:-1 21:1 22:-1 23:-1 24:-1 25:-1 26:-1 27:1 28:-1 29:-1 30:-1 31:-1 32:-1 33:1 34:-1 35:1 36:-1 37:1 38:-1 39:-1 40:-1 41:-1 42:-1 43:-1 44:-1 45:1 46:-1 47:-1 48:-1 49:-1 50:-1 51:1 52:-1 53:1 54:-1 55:-1 56:-1 57:1 58:-1 59:-1 60:-1 61:-1 62:-1 63:-1 64:-1 65:-1 66:-1 67:1 68:-1 69:-1 70:-1 71:-1 72:-1 73:-1 74:-1 75:-1 76:1 77:-1 79:-1 80:-1 81:1 82:-1 83:-1 84:1 85:-1 86:1 87:-1 88:-1 89:-1 90:-1 91:-1 92:-1 93:-1 94:-1 95:1 96:-1 97:-1 98:-1 99:-1 100:-1 101:-1 102:-1 103:-1 104:1 105:-1 106:1 107:-1 108:-1 109:-1 110:-1 111:-1 112:-1 
0.1906832031655959 1:-1 2:-1 3:1 4:-1 5:-1 6:-1 7:-1 8:1 9:-1 10:-1 11:-1 12:-1 13:-1 14:-1 15:1 16:-1 17:-1 18:-1 19:-1 20:-1 21:-1 22:1 23:-1 24:-1 25:-1 26:-1 27:-1 28:1 29:-1 30:-1 31:-1 32:1 33:-1 34:1 35:-1 36:1 37:-1 38:-1 39:-1 40:-1 41:-1 42:-1 43:-1 44:-1 45:-1 46:-1 47:-1 48:-1 49:1 50:1 51:-1 52:-1 53:1 54:-1 55:-1 56:-1 57:1 58:-1 59:-1 60:-1 61:-1 62:-1 63:-1 64:1 65:-1 66:-1 67:-1 68:-1 69:-1 70:-1 71:-1 72:-1 73:1 74:-1 75:-1 76:-1 77:-1 79:-1 80:1 81:-1 82:-1 83:-1 84:1 85:-1 86:1 87:-1 88:-1 89:-1 90:-1 91:-1 92:-1 93:-1 94:1 95:-1 96:-1 97:-1 98:-1 99:-1 100:-1 101:1 102:-1 103:-1 104:-1 105:-1 106:-1 107:-1 108:-1 109:1 110:-1 111:-1 112:-1 
0.376454261590008 1:-1 2:-1 3:-1 4:-1 5:-1 6:1 7:-1 8:1 9:-1 10:-1 11:-1 12:-1 13:-1 14:-1 15:-1 16:-1 17:-1 18:-1 19:1 20:-1 21:1 22:-1 23:1 24:-1 25:-1 26:-1 27:-1 28:-1 29:-1 30:-1 31:-1 32:-1 33:1 34:-1 35:1 36:-1 37:1 38:-1 39:-1 40:-1 41:-1 42:-1 43:-1 44:-1 45:-1 46:-1 47:-1 48:1 49:-1 50:-1 51:1 52:-1 53:1 54:-1 55:-1 56:-1 57:1 58:-1 59:-1 60:-1 61:-1 62:-1 63:-1 64:-1 65:-1 66:-1 67:1 68:-1 69:-1 70:-1 71:-1 72:-1 73:-1 74:-1 75:-1 76:1 77:-1 79:-1 80:-1 81:1 82:-1 83:-1 84:1 85:-1 86:1 87:-1 88:-1 89:-1 90:-1 91:-1 92:-1 93:-1 94:-1 95:1 96:-1 97:-1 98:-1 99:-1 100:-1 101:-1 102:-1 103:-1 104:1 105:-1 106:1 107:-1 108:-1 109:-1 110:-1 111:-1 112:-1 
0.1858449667888102 1:-1 2:1 3:-1 4:-1 5:-1 6:-1 7:1 8:-1 9:-1 10:-1 11:-1 12:-1 13:-1 14:-1 15:-1 16:-1 17:-1 18:-1 19:1 20:-1 21:1 22:-1 23:1 24:-1 25:-1 26:-1 27:-1 28:-1 29:-1 30:-1 31:-1 32:-1 33:1 34:1 35:-1 36:1 37:-1 38:-1 39:-1 40:-1 41:-1 42:-1 43:-1 44:-1 45:-1 46:-1 47:-1 48:1 49:-1 50:1 51:-1 52:-1 53:1 54:-1 55:-1 56:-1 57:1 58:-1 59:-1 60:-1 61:-1 62:-1 63:-1 64:-1 65:-1 66:-1 67:1 68:-1 69:-1 70:-1 71:-1 72:-1 73:-1 74:-1 75:-1 76:1 77:-1 79:-1 80:-1 81:1 82:-1 83:-1 84:1 85:-1 86:1 87:-1 88:-1 89:-1 90:-1 91:-1 92:-1 93:1 94:-1 95:-1 96:-1 97:-1 98:-1 99:-1 100:-1 101:-1 102:1 103:-1 104:-1 105:-1 106:-1 107:-1 108:1 109:-1 110:-1 111:-1 112:-1 
0.9256234746612739 1:-1 2:1 3:-1 4:-1 5:-1 6:-1 7:-1 8:1 9:-1 10:-1 11:-1 12:-1 13:-1 14:-1 15:-1 16:-1 17:-1 18:-1 19:1 20:-1 21:1 22:-1 23:-1 24:-1 25:-1 26:-1 27:1 28:-1 29:-1 30:-1 31:-1 32:-1 33:1 34:1 35:-1 36:1 37:-1 38:-1 39:-1 40:-1 41:-1 42:-1 43:-1 44:-1 45:-1 46:-1 47:-1 48:1 49:-1 50:1 51:-1 52:-1 53:1 54:-1 55:-1 56:-1 57:1 58:-1 59:-1 60:-1 61:-1 62:-1 63:-1 64:-1 65:-1 66:-1 67:1 68:-1 69:-1 70:-1 71:-1 72:-1 73:-1 74:-1 75:-1 76:1 77:-1 79:-1 80:-1 81:1 82:-1 83:-1 84:1 85:-1 86:1 87:-1 88:-1 89:-1 90:-1 91:-1 92:-1 93:1 94:-1 95:-1 96:-1 97:-1 98:-1 99:-1 100:-1 101:-1 102:-1 103:1 104:-1 105:-1 106:-1 107:-1 108:1 109:-1 110:-1 111:-1 112:-1 
0.1172794400729375 1:-1 2:-1 3:1 4:-1 5:-1 6:-1 7:1 8:-1 9:-1 10:-1 11:-1 12:-1 13:1 14:-1 15:-1 16:-1 17:-1 18:-1 19:-1 20:-1 21:1 22:-1 23:-1 24:-1 25:-1 26:-1 27:-1 28:1 29:-1 30:-1 31:-1 32:-1 33:1 34:1 35:-1 36:1 37:-1 38:-1 39:-1 40:-1 41:-1 42:-1 43:-1 44:-1 45:1 46:-1 47:-1 48:-1 49:-1 50:-1 51:1 52:-1 53:1 54:-1 55:-1 56:-1 57:1 58:-1 59:-1 60:-1 61:-1 62:-1 63:-1 64:-1 65:-1 66:1 67:-1 68:-1 69:-1 70:-1 71:-1 72:1 73:-1 74:-1 75:-1 76:-1 77:-1 79:-1 80:-1 81:1 82:-1 83:-1 84:1 85:-1 86:1 87:-1 88:-1 89:-1 90:-1 91:-1 92:-1 93:1 94:-1 95:-1 96:-1 97:-1 98:-1 99:-1 100:-1 101:-1 102:-1 103:-1 104:1 105:-1 106:1 107:-1 108:-1 109:-1 110:-1 111:-1 112:-1 
0.2472336286025165 1:-1 2:-1 3:-1 4:-1 5:1 6:-1 7:-1 8:-1 9:-1 10:1 11:-1 12:-1 13:-1 14:1 15:-1 16:-1 17:-1 18:-1 19:-1 20:-1 21:-1 22:1 23:-1 24:-1 25:-1 26:-1 27:-1 28:1 29:-1 30:-1 31:-1 32:-1 33:1 34:1 35:-1 36:-1 37:1 38:-1 39:-1 40:-1 41:-1 42:1 43:-1 44:-1 45:-1 46:-1 47:-1 48:-1 49:-1 50:1 51:-1 52:-1 53:1 54:-1 55:-1 56:-1 57:1 58:-1 59:-1 60:-1 61:-1 62:-1 63:-1 64:-1 65:-1 66:-1 67:1 68:-1 69:-1 70:-1 71:-1 72:-1 73:-1 74:-1 75:-1 76:1 77:-1 79:-1 80:-1 81:1 82:-1 83:-1 84:1 85:-1 86:1 87:-1 88:-1 89:-1 90:-1 91:-1 92:-1 93:1 94:-1 95:-1 96:-1 97:-1 98:-1 99:-1 100:-1 101:-1 102:-1 103:-1 104:1 105:-1 106:-1 107:-1 108:-1 109:-1 110:-1 111:1 112:-1 
0.1398049449558697 1:-1 2:-1 3:-1 4:-1 5:-1 6:1 7:-1 8:1 9:-1 10:-1 11:-1 12:-1 13:-1 14:-1 15:-1 16:-1 17:-1 18:-1 19:1 20:-1 21:1 22:-1 23:-1 24:-1 25:-1 26:-1 27:1 28:-1 29:-1 30:-1 31:-1 32:-1 33:1 34:-1 35:1 36:-1 37:1 38:-1 39:-1 40:-1 41:-1 42:-1 43:-1 44:-1 45:-1 46:-1 47:-1 48:1 49:-1 50:-1 51:1 52:-1 53:1 54:-1 55:-1 56:-1 57:1 58:-1 59:-1 60:-1 61:-1 62:-1 63:-1 64:-1 65:-1 66:-1 67:1 68:-1 69:-1 70:-1 71:-1 72:-1 73:-1 74:-1 75:-1 76:1 77:-1 79:-1 80:-1 81:1 82:-1 83:-1 84:1 85:-1 86:1 87:-1 88:-1 89:-1 90:-1 91:-1 92:-1 93:-1 94:-1 95:1 96:-1 97:-1 98:-1 99:-1 100:-1 101:-1 102:-1 103:-1 104:1 105:-1 106:1 107:-1 108:-1 109:-1 110:-1 111:-1 112:-1 
0.01486855105089981 1:-1 2:-1 3:1 4:-1 5:-1 6:-1 7:1 8:-1 9:-1 10:-1 11:-1 12:-1 13:-1 14:1 15:-1 16:-1 17:-1 18:-1 19:-1 20:-1 21:1 22:-1 23:-1 24:-1 25:-1 26:-1 27:-1 28:1 29:-1 30:-1 31:-1 32:-1 33:1 34:1 35:-1 36:1 37:-1 38:-1 39:-1 40:-1 41:-1 42:-1 43:-1 44:1 45:-1 46:-1 47:-1 48:-1 49:-1 50:-1 51:1 52:-1 53:1 54:-1 55:-1 56:-1 57:1 58:-1 59:-1 60:-1 61:-1 62:-1 63:-1 64:-1 65:-1 66:1 67:-1 68:-1 69:-1 70:-1 71:-1 72:-1 73:-1 74:-1 75:1 76:-1 77:-1 79:-1 80:-1 81:1 82:-1 83:-1 84:1 85:-1 86:1 87:-1 88:-1 89:-1 90:-1 91:-1 92:-1 93:1 94:-1 95:-1 96:-1 97:-1 98:-1 99:-1 100:-1 101:-1 102:-1 103:-1 104:1 105:-1 106:1 107:-1 108:-1 109:-1 110:-1 111:-1 112:-1 
0.2039943519763353 1:-1 2:-1 3:-1 4:1 5:-1 6:-1 7:-1 8:-1 9:-1 10:1 11:-1 12:-1 13:-1 14:-1 15:1 16:-1 17:-1 18:-1 19:-1 20:-1 21:-1 22:1 23:-1 24:-1 25:-1 26:-1 27:-1 28:1 29:-1 30:-1 31:-1 32:-1 33:1 34:-1 35:1 36:-1 37:1 38:-1 39:-1 40:-1 41:-1 42:-1 43:-1 44:-1 45:-1 46:-1 47:-1 48:1 49:-1 50:1 51:-1 52:-1 53:1 54:-1 55:-1 56:-1 57:1 58:-1 59:-1 60:-1 61:-1 62:-1 63:-1 64:-1 65:-1 66:-1 67:1 68:-1 69:-1 70:-1 71:-1 72:-1 73:-1 74:1 75:-1 76:-1 77:-1 79:-1 80:-1 81:1 82:-1 83:-1 84:1 85:-1 86:-1 87:-1 88:1 89:-1 90:-1 91:-1 92:-1 93:-1 94:-1 95:-1 96:-1 97:-1 98:1 99:-1 100:-1 101:-1 102:-1 103:-1 104:1 105:-1 106:-1 107:-1 108:-1 109:1 110:-1 111:-1 112:-1 
0.3545249573714689 1:-1 2:-1 3:1 4:-1 5:-1 6:-1 7:1 8:-1 9:-1 10:-1 11:-1 12:-1 13:-1 14:-1 15:1 16:-1 17:-1 18:-1 19:-1 20:-1 21:1 22:-1 23:-1 24:-1 25:-1 26:-1 27:1 28:-1 29:-1 30:-1 31:-1 32:-1 33:1 34:1 35:-1 36:1 37:-1 38:-1 39:-1 40:-1 41:-1 42:-1 43:-1 44:1 45:-1 46:-1 47:-1 48:-1 49:-1 50:1 51:-1 52:-1 53:1 54:-1 55:-1 56:1 57:-1 58:-1 59:-1 60:-1 61:-1 62:-1 63:-1 64:-1 65:-1 66:-1 67:1 68:-1 69:-1 70:-1 71:-1 72:-1 73:-1 74:-1 75:-1 76:1 77:-1 79:-1 80:-1 81:1 82:-1 83:-1 84:1 85:-1 86:1 87:-1 88:-1 89:-1 90:-1 91:-1 92:-1 93:-1 94:-1 95:1 96:-1 97:-1 98:-1 99:-1 100:-1 101:-1 102:-1 103:1 104:-1 105:-1 106:-1 107:1 108:-1 109:-1 110:-1 111:-1 112:-1 
0.01094554045335457 1:-1 2:-1 3:1 4:-1 5:-1 6:-1 7:1 8:-1 9:-1 10:-1 11:-1 12:-1 13:1 14:-1 15:-1 16:-1 17:-1 18:-1 19:-1 20:-1 21:1 22:-1 23:-1 24:-1 25:-1 26:-1 27:-1 28:1 29:-1 30:-1 31:-1 32:-1 33:1 34:1 35:-1 36:1 37:-1 38:-1 39:-1 40:-1 41:-1 42:-1 43:-1 44:-1 45:-1 46:-1 47:-1 48:1 49:-1 50:-1 51:1 52:-1 53:1 54:-1 55:-1 56:-1 57:1 58:-1 59:-1 60:-1 61:-1 62:-1 63:-1 64:-1 65:-1 66:1 67:-1 68:-1 69:-1 70:-1 71:-1 72:-1 73:-1 74:-1 75:1 76:-1 77:-1 79:-1 80:-1 81:1 82:-1 83:-1 84:1 85:-1 86:1 87:-1 88:-1 89:-1 90:-1 91:-1 92:-1 93:-1 94:-1 95:1 96:-1 97:-1 98:-1 99:-1 100:-1 101:-1 102:-1 103:-1 104:1 105:-1 106:1 107:-1 108:-1 109:-1 110:-1 111:-1 112:-1 
0.08936059169618628 1:-1 2:-1 3:1 4:-1 5:-1 6:-1 7:1 8:-1 9:-1 10:-1 11:-1 12:-1 13:-1 14:1 15:-1 16:-1 17:-1 18:-1 19:-1 20:-1 21:1 22:-1 23:-1 24:-1 25:-1 26:-1 27:-1 28:1 29:-1 30:-1 31:-1 32:-1 33:1 34:1 35:-1 36:1 37:-1 38:-1 39:-1 40:-1 41:-1 42:-1 43:-1 44:-1 45:-1 46:-1 47:-1 48:1 49:-1 50:-1 51:1 52:-1 53:1 54:-1 55:-1 56:-1 57:1 58:-1 59:-1 60:-1 61:-1 62:-1 63:1 64:-1 65:-1 66:-1 67:-1 68:-1 69:-1 70:-1 71:-1 72:-1 73:-1 74:-1 75:1 76:-1 77:-1 79:-1 80:-1 81:1 82:-1 83:-1 84:1 85:-1 86:1 87:-1 88:-1 89:-1 90:-1 91:-1 92:-1 93:1 94:-1 95:-1 96:-1 97:-1 98:-1 99:-1 100:-1 101:-1 102:-1 103:-1 104:1 105:-1 106:1 107:-1 108:-1 109:-1 110:-1 111:-1 112:-1 
0.7060702262278143 1:-1 2:-1 3:-1 4:-1 5:-1 6:1 7:-1 8:-1 9:-1 10:1 11:-1 12:-1 13:-1 14:-1 15:1 16:-1 17:-1 18:-1 19:-1 20:-1 21:-1 22:1 23:-1 24:-1 25:-1 26:-1 27:-1 28:1 29:-1 30:-1 31:-1 32:-1 33:1 34:1 35:-1 36:-1 37:1 38:-1 39:-1 40:-1 41:-1 42:-1 43:-1 44:-1 45:1 46:-1 47:-1 48:-1 49:-1 50:1 51:-1 52:-1 53:1 54:-1 55:-1 56:-1 57:1 58:-1 59:-1 60:-1 61:-1 62:-1 63:-1 64:-1 65:-1 66:-1 67:1 68:-1 69:-1 70:-1 71:-1 72:-1 73:-1 74:-1 75:-1 76:1 77:-1 79:-1 80:-1 81:1 82:-1 83:-1 84:1 85:-1 86:1 87:-1 88:-1 89:-1 90:-1 91:-1 92:-1 93:1 94:-1 95:-1 96:-1 97:-1 98:-1 99:-1 100:-1 101:-1 102:-1 103:-1 104:1 105:-1 106:-1 107:-1 108:-1 109:-1 110:-1 111:1 112:-1 
0.1805650001926848 1:-1 2:1 3:-1 4:-1 5:-1 6:-1 7:-1 8:1 9:-1 10:-1 11:-1 12:-1 13:-1 14:-1 15:1 16:-1 17:-1 18:-1 19:-1 20:-1 21:-1 22:1 23:-1 24:-1 25:-1 26:-1 27:-1 28:1 29:-1 30:-1 31:-1 32:1 33:-1 34:1 35:-1 36:1 37:-1 38:-1 39:-1 40:-1 41:-1 42:-1 43:-1 44:-1 45:-1 46:-1 47:-1 48:-1 49:1 50:1 51:-1 52:-1 53:1 54:-1 55:-1 56:-1 57:1 58:-1 59:-1 60:-1 61:-1 62:-1 63:-1 64:1 65:-1 66:-1 67:-1 68:-1 69:-1 70:-1 71:-1 72:-1 73:1 74:-1 75:-1 76:-1 77:-1 79:-1 80:-1 81:-1 82:1 83:-1 84:1 85:-1 86:1 87:-1 88:-1 89:-1 90:-1 91:-1 92:-1 93:-1 94:1 95:-1 96:-1 97:-1 98:-1 99:-1 100:-1 101:1 102:-1 103:-1 104:-1 105:-1 106:-1 107:-1 108:-1 109:1 110:-1 111:-1 112:-1 
0.07881704653091665 1:-1 2:-1 3:1 4:-1 5:-1 6:-1 7:1 8:-1 9:-1 10:-1 11:-1 12:-1 13:-1 14:-1 15:-1 16:-1 17:-1 18:-1 19:-1 20:1 21:1 22:-1 23:-1 24:-1 25:-1 26:-1 27:1 28:-1 29:-1 30:-1 31:-1 32:-1 33:1 34:1 35:-1 36:1 37:-1 38:-1 39:-1 40:-1 41:-1 42:-1 43:-1 44:-1 45:-1 46:-1 47:-1 48:1 49:-1 50:1 51:-1 52:-1 53:1 54:-1 55:-1 56:1 57:-1 58:-1 59:-1 60:-1 61:-1 62:-1 63:-1 64:-1 65:-1 66:-1 67:1 68:-1 69:-1 70:-1 71:-1 72:-1 73:-1 74:-1 75:-1 76:1 77:-1 79:-1 80:-1 81:1 82:-1 83:-1 84:1 85:-1 86:1 87:-1 88:-1 89:-1 90:-1 91:-1 92:-1 93:1 94:-1 95:-1 96:-1 97:-1 98:-1 99:-1 100:-1 101:-1 102:-1 103:1 104:-1 105:-1 106:-1 107:1 108:-1 109:-1 110:-1 111:-1 112:-1 
0.132345449316165 1:-1 2:-1 3:-1 4:-1 5:-1 6:1 7:-1 8:1 9:-1 10:-1 11:-1 12:-1 13:-1 14:1 15:-1 16:-1 17:-1 18:-1 19:-1 20:-1 21:-1 22:1 23:-1 24:-1 25:-1 26:-1 27:-1 28:1 29:-1 30:-1 31:-1 32:-1 33:1 34:-1 35:1 36:1 37:-1 38:-1 39:-1 40:-1 41:-1 42:-1 43:-1 44:-1 45:1 46:-1 47:-1 48:-1 49:-1 50:1 51:-1 52:-1 53:-1 54:1 55:-1 56:-1 57:-1 58:1 59:-1 60:-1 61:-1 62:-1 63:-1 64:-1 65:-1 66:-1 67:1 68:-1 69:-1 70:-1 71:-1 72:-1 73:-1 74:-1 75:-1 76:1 77:-1 79:-1 80:-1 81:1 82:-1 83:1 84:-1 85:-1 86:1 87:-1 88:-1 89:-1 90:-1 91:-1 92:-1 93:-1 94:-1 95:-1 96:-1 97:-1 98:1 99:-1 100:-1 101:-1 102:-1 103:1 104:-1 105:-1 106:-1 107:1 108:-1 109:-1 110:-1 111:-1 112:-1 
0.3930533161613008 1:-1 2:1 3:-1 4:-1 5:-1 6:-1 7:1 8:-1 9:-1 10:-1 11:-1 12:-1 13:-1 14:-1 15:-1 16:-1 17:-1 18:-1 19:1 20:-1 21:1 22:-1 23:1 24:-1 25:-1 26:-1 27:-1 28:-1 29:-1 30:-1 31:-1 32:-1 33:1 34:1 35:-1 36:1 37:-1 38:-1 39:-1 40:1 41:-1 42:-1 43:-1 44:-1 45:-1 46:-1 47:-1 48:-1 49:-1 50:1 51:-1 52:-1 53:1 54:-1 55:-1 56:-1 57:1 58:-1 59:-1 60:-1 61:-1 62:-1 63:-1 64:-1 65:-1 66:-1 67:1 68:-1 69:-1 70:-1 71:-1 72:-1 73:-1 74:-1 75:-1 76:1 77:-1 79:-1 80:-1 81:1 82:-1 83:-1 84:1 85:-1 86:1 87:-1 88:-1 89:-1 90:-1 91:-1 92:-1 93:-1 94:-1 95:1 96:-1 97:-1 98:-1 99:-1 100:-1 101:-1 102:-1 103:1 104:-1 105:-1 106:-1 107:-1 108:1 109:-1 110:-1 111:-1 112:-1 
0.1024282624880888 1:-1 2:-1 3:1 4:-1 5:-1 6:-1 7:1 8:-1 9:-1 10:-1 11:-1 12:-1 13:-1 14:-1 15:-1 16:-1 17:-1 18:-1 19:-1 20:1 21:1 22:-1 23:-1 24:-1 25:-1 26:-1 27:1 28:-1 29:-1 30:-1 31:-1 32:-1 33:1 34:1 35:-1 36:1 37:-1 38:-1 39:-1 40:-1 41:-1 42:-1 43:-1 44:-1 45:1 46:-1 47:-1 48:-1 49:-1 50:1 51:-1 52:-1 53:1 54:-1 55:-1 56:1 57:-1 58:-1 59:-1 60:-1 61:-1 62:-1 63:-1 64:-1 65:-1 66:-1 67:1 68:-1 69:-1 70:-1 71:-1 72:-1 73:-1 74:-1 75:-1 76:1 77:-1 79:-1 80:-1 81:1 82:-1 83:-1 84:1 85:-1 86:1 87:-1 88:-1 89:-1 90:-1 91:-1 92:-1 93:-1 94:-1 95:1 96:-1 97:-1 98:-1 99:-1 100:-1 101:-1 102:-1 103:-1 104:-1 105:1 106:-1 107:1 108:-1 109:-1 110:-1 111:-1 112:-1 
0.2397870947539945 1:-1 2:-1 3:1 4:-1 5:-1 6:-1 7:-1 8:-1 9:-1 10:1 11:-1 12:-1 13:-1 14:-1 15:1 16:-1 17:-1 18:-1 19:-1 20:-1 21:-1 22:1 23:-1 24:-1 25:-1 26:-1 27:-1 28:1 29:-1 30:-1 31:-1 32:-1 33:1 34:1 35:-1 36:-1 37:1 38:-1 39:-1 40:-1 41:-1 42:-1 43:-1 44:-1 45:1 46:-1 47:-1 48:-1 49:-1 50:1 51:-1 52:-1 53:1 54:-1 55:-1 56:-1 57:1 58:-1 59:-1 60:-1 61:-1 62:-1 63:-1 64:-1 65:-1 66:-1 67:1 68:-1 69:-1 70:-1 71:-1 72:-1 73:-1 74:-1 75:-1 76:1 77:-1 79:-1 80:-1 81:1 82:-1 83:-1 84:1 85:-1 86:1 87:-1 88:-1 89:-1 90:-1 91:-1 92:-1 93:1 94:-1 95:-1 96:-1 97:-1 98:-1 99:-1 100:-1 101:-1 102:-1 103:-1 104:1 105:-1 106:-1 107:-1 108:-1 109:-1 110:-1 111:1 112:-1 
0.790668005761713 1:-1 2:-1 3:-1 4:-1 5:-1 6:1 7:-1 8:-1 9:-1 10:1 11:-1 12:-1 13:-1 14:-1 15:1 16:-1 17:-1 18:-1 19:-1 20:-1 21:-1 22:1 23:-1 24:-1 25:-1 26:-1 27:-1 28:1 29:-1 30:-1 31:-1 32:-1 33:1 34:1 35:-1 36:-1 37:1 38:-1 39:-1 40:-1 41:-1 42:1 43:-1 44:-1 45:-1 46:-1 47:-1 48:-1 49:-1 50:1 51:-1 52:-1 53:1 54:-1 55:-1 56:-1 57:1 58:-1 59:-1 60:-1 61:-1 62:-1 63:-1 64:-1 65:-1 66:-1 67:1 68:-1 69:-1 70:-1 71:-1 72:-1 73:-1 74:-1 75:-1 76:1 77:-1 79:-1 80:-1 81:1 82:-1 83:-1 84:1 85:-1 86:1 87:-1 88:-1 89:-1 90:-1 91:-1 92:-1 93:-1 94:-1 95:1 96:-1 97:-1 98:-1 99:-1 100:-1 101:-1 102:-1 103:-1 104:1 105:-1 106:-1 107:-1 108:-1 109:-1 110:-1 111:1 112:-1 
0.3271248603416381 1:-1 2:-1 3:-1 4:1 5:-1 6:-1 7:1 8:-1 9:-1 10:-1 11:-1 12:-1 13:-1 14:-1 15:-1 16:1 17:-1 18:-1 19:-1 20:-1 21:1 22:-1 23:-1 24:-1 25:-1 26:-1 27:-1 28:1 29:-1 30:-1 31:-1 32:-1 33:1 34:1 35:-1 36:1 37:-1 38:-1 39:-1 40:-1 41:-1 42:-1 43:-1 44:-1 45:-1 46:-1 47:-1 48:1 49:-1 50:1 51:-1 52:-1 53:1 54:-1 55:-1 56:-1 57:1 58:-1 59:-1 60:-1 61:-1 62:-1 63:-1 64:-1 65:-1 66:-1 67:1 68:-1 69:-1 70:-1 71:-1 72:-1 73:-1 74:-1 75:-1 76:1 77:-1 79:-1 80:-1 81:1 82:-1 83:1 84:-1 85:-1 86:-1 87:-1 88:1 89:-1 90:-1 91:-1 92:-1 93:-1 94:-1 95:-1 96:-1 97:-1 98:1 99:-1 100:-1 101:1 102:-1 103:-1 104:-1 105:-1 106:-1 107:-1 108:-1 109:-1 110:-1 111:-1 112:1 
0.04869785942117789 1:-1 2:-1 3:1 4:-1 5:-1 6:-1 7:-1 8:1 9:-1 10:-1 11:-1 12:-1 13:-1 14:-1 15:-1 16:1 17:-1 18:-1 19:-1 20:-1 21:1 22:-1 23:-1 24:-1 25:-1 26:-1 27:-1 28:1 29:-1 30:-1 31:-1 32:-1 33:1 34:1 35:-1 36:1 37:-1 38:-1 39:1 40:-1 41:-1 42:-1 43:-1 44:-1 45:-1 46:-1 47:-1 48:-1 49:-1 50:1 51:-1 52:-1 53:1 54:-1 55:-1 56:-1 57:1 58:-1 59:-1 60:-1 61:-1 62:-1 63:-1 64:-1 65:-1 66:-1 67:1 68:-1 69:-1 70:-1 71:1 72:-1 73:-1 74:-1 75:-1 76:-1 77:-1 79:-1 80:-1 81:1 82:-1 83:1 84:-1 85:-1 86:-1 87:-1 88:1 89:-1 90:-1 91:-1 92:-1 93:-1 94:-1 95:-1 96:-1 97:-1 98:1 99:-1 100:-1 101:1 102:-1 103:-1 104:-1 105:-1 106:-1 107:-1 108:-1 109:-1 110:-1 111:-1 112:1 
0.2452959103178303 1:-1 2:-1 3:1 4:-1 5:-1 6:-1 7:-1 8:1 9:-1 10:-1 11:-1 12:-1 13:-1 14:1 15:-1 16:-1 17:-1 18:-1 19:-1 20:-1 21:-1 22:1 23:-1 24:-1 25:-1 26:-1 27:-1 28:1 29:-1 30:-1 31:-1 32:-1 33:1 34:-1 35:1 36:1 37:-1 38:-1 39:-1 40:-1 41:1 42:-1 43:-1 44:-1 45:-1 46:-1 47:-1 48:-1 49:-1 50:-1 51:1 52:-1 53:-1 54:-1 55:1 56:-1 57:-1 58:-1 59:1 60:-1 61:-1 62:-1 63:-1 64:-1 65:-1 66:-1 67:1 68:-1 69:-1 70:-1 71:-1 72:-1 73:-1 74:-1 75:-1 76:1 77:-1 79:-1 80:-1 81:1 82:-1 83:-1 84:1 85:-1 86:-1 87:-1 88:1 89:-1 90:-1 91:-1 92:-1 93:1 94:-1 95:-1 96:-1 97:-1 98:-1 99:-1 100:1 101:-1 102:-1 103:-1 104:-1 105:-1 106:-1 107:1 108:-1 109:-1 110:-1 111:-1 112:-1 
0.6818811802914674 1:-1 2:-1 3:-1 4:-1 5:-1 6:1 7:-1 8:-1 9:-1 10:1 11:-1 12:-1 13:-1 14:-1 15:1 16:-1 17:-1 18:-1 19:-1 20:-1 21:-1 22:1 23:-1 24:-1 25:-1 26:-1 27:-1 28:1 29:-1 30:-1 31:-1 32:-1 33:1 34:-1 35:1 36:-1 37:1 38:-1 39:-1 40:-1 41:-1 42:-1 43:-1 44:-1 45:-1 46:-1 47:-1 48:1 49:-1 50:1 51:-1 52:-1 53:-1 54:-1 55:1 56:-1 57:-1 58:-1 59:1 60:-1 61:-1 62:-1 63:-1 64:-1 65:-1 66:-1 67:1 68:-1 69:-1 70:-1 71:-1 72:-1 73:-1 74:1 75:-1 76:-1 77:-1 79:-1 80:-1 81:1 82:-1 83:-1 84:1 85:-1 86:-1 87:-1 88:1 89:-1 90:-1 91:-1 92:-1 93:-1 94:-1 95:-1 96:-1 97:-1 98:1 99:-1 100:-1 101:-1 102:-1 103:-1 104:1 105:-1 106:-1 107:-1 108:-1 109:1 110:-1 111:-1 112:-1 
0.08766121143546386 1:-1 2:-1 3:1 4:-1 5:-1 6:-1 7:1 8:-1 9:-1 10:-1 11:-1 12:1 13:-1 14:-1 15:-1 16:-1 17:-1 18:-1 19:-1 20:-1 21:1 22:-1 23:-1 24:-1 25:-1 26:-1 27:-1 28:1 29:-1 30:-1 31:-1 32:-1 33:1 34:1 35:-1 36:1 37:-1 38:-1 39:-1 40:-1 41:-1 42:-1 43:-1 44:-1 45:-1 46:-1 47:-1 48:1 49:-1 50:1 51:-1 52:-1 53:1 54:-1 55:-1 56:-1 57:1 58:-1 59:-1 60:-1 61:-1 62:1 63:-1 64:-1 65:-1 66:-1 67:-1 68:-1 69:-1 70:-1 71:1 72:-1 73:-1 74:-1 75:-1 76:-1 77:-1 79:-1 80:-1 81:1 82:-1 83:1 84:-1 85:-1 86:-1 87:-1 88:1 89:-1 90:-1 91:-1 92:-1 93:-1 94:-1 95:-1 96:-1 97:-1 98:1 99:-1 100:-1 101:1 102:-1 103:-1 104:-1 105:-1 106:-1 107:-1 108:-1 109:-1 110:-1 111:-1 112:1 
0.1641132571635024 1:-1 2:-1 3:-1 4:-1 5:1 6:-1 7:-1 8:-1 9:-1 10:1 11:-1 12:-1 13:-1 14:1 15:-1 16:-1 17:-1 18:-1 19:-1 20:-1 21:-1 22:1 23:-1 24:-1 25:-1 26:-1 27:-1 28:1 29:-1 30:-1 31:-1 32:-1 33:1 34:1 35:-1 36:-1 37:1 38:-1 39:-1 40:1 41:-1 42:-1 43:-1 44:-1 45:-1 46:-1 47:-1 48:-1 49:-1 50:1 51:-1 52:-1 53:1 54:-1 55:-1 56:-1 57:1 58:-1 59:-1 60:-1 61:-1 62:-1 63:-1 64:-1 65:-1 66:-1 67:1 68:-1 69:-1 70:-1 71:-1 72:-1 73:-1 74:-1 75:-1 76:1 77:-1 79:-1 80:-1 81:1 82:-1 83:-1 84:1 85:-1 86:1 87:-1 88:-1 89:-1 90:-1 91:-1 92:-1 93:-1 94:-1 95:1 96:-1 97:-1 98:-1 99:-1 100:-1 101:-1 102:-1 103:-1 104:1 105:-1 106:-1 107:-1 108:-1 109:-1 110:-1 111:1 112:-1 
0.09501414579811379 1:-1 2:-1 3:-1 4:-1 5:1 6:-1 7:-1 8:-1 9:-1 10:1 11:-1 12:-1 13:-1 14:1 15:-1 16:-1 17:-1 18:-1 19:-1 20:-1 21:-1 22:1 23:-1 24:-1 25:-1 26:-1 27:-1 28:1 29:-1 30:-1 31:-1 32:-1 33:1 34:1 35:-1 36:-1 37:1 38:-1 39:-1 40:-1 41:-1 42:-1 43:-1 44:-1 45:1 46:-1 47:-1 48:-1 49:-1 50:1 51:-1 52:-1 53:1 54:-1 55:-1 56:-1 57:1 58:-1 59:-1 60:-1 61:-1 62:-1 63:-1 64:-1 65:-1 66:-1 67:1 68:-1 69:-1 70:-1 71:-1 72:-1 73:-1 74:-1 75:-1 76:1 77:-1 79:-1 80:-1 81:1 82:-1 83:-1 84:1 85:-1 86:1 87:-1 88:-1 89:-1 90:-1 91:-1 92:-1 93:1 94:-1 95:-1 96:-1 97:-1 98:-1 99:-1 100:-1 101:-1 102:-1 103:-1 104:1 105:-1 106:-1 107:-1 108:-1 109:-1 110:-1 111:1 112:-1 
0.1647479511411472 1:-1 2:-1 3:-1 4:-1 5:1 6:-1 7:-1 8:-1 9:-1 10:1 11:-1 12:-1 13:-1 14:-1 15:1 16:-1 17:-1 18:-1 19:-1 20:-1 21:-1 22:1 23:-1 24:-1 25:-1 26:-1 27:-1 28:1 29:-1 30:-1 31:-1 32:-1 33:1 34:1 35:-1 36:-1 37:1 38:-1 39:-1 40:-1 41:-1 42:-1 43:-1 44:1 45:-1 46:-1 47:-1 48:-1 49:-1 50:1 51:-1 52:-1 53:1 54:-1 55:-1 56:-1 57:1 58:-1 59:-1 60:-1 61:-1 62:-1 63:-1 64:-1 65:-1 66:-1 67:1 68:-1 69:-1 70:-1 71:-1 72:-1 73:-1 74:-1 75:-1 76:1 77:-1 79:-1 80:-1 81:1 82:-1 83:-1 84:1 85:-1 86:1 87:-1 88:-1 89:-1 90:-1 91:-1 92:-1 93:1 94:-1 95:-1 96:-1 97:-1 98:-1 99:-1 100:-1 101:-1 102:-1 103:-1 104:1 105:-1 106:-1 107:-1 108:-1 109:-1 110:-1 111:1 112:-1 
