svm_type c_svc
kernel_type rbf
gamma 0.125
nr_class 2
total_sv 768
rho -0.461779
label 1 -1
nr_sv 500 268
SV
0.5385856533718365 1:1 2:85 3:66 4:29 5:0 6:26.6 7:0.351 8:31 
0.5382665513940597 1:1 2:89 3:66 4:23 5:94 6:28.1 7:0.167 8:21 
0.5380725710624159 1:5 2:116 3:74 4:0 5:0 6:25.6 7:0.201 8:30 
0.5382755024595747 1:10 2:115 3:0 4:0 5:0 6:35.299999 7:0.134 8:29 
0.5270540197523345 1:4 2:110 3:92 4:0 5:0 6:37.599998 7:0.191 8:30 
0.5385545207076512 1:10 2:139 3:80 4:0 5:0 6:27.1 7:1.441 8:57 
0.5376462042493859 1:1 2:103 3:30 4:38 5:83 6:43.299999 7:0.183 8:33 
0.5381849572142353 1:3 2:126 3:88 4:41 5:235 6:39.299999 7:0.704 8:27 
0.5383252256783574 1:8 2:99 3:84 4:0 5:0 6:35.400002 7:0.388 8:50 
0.5380807172289193 1:1 2:97 3:66 4:15 5:140 6:23.200001 7:0.487 8:22 
0.5382998318771941 1:13 2:145 3:82 4:19 5:110 6:22.200001 7:0.245 8:57 
0.5383090016232751 1:5 2:117 3:92 4:0 5:0 6:34.099998 7:0.337 8:38 
0.5384806382314284 1:5 2:109 3:75 4:26 5:0 6:36 7:0.546 8:60 
0.5383082706527423 1:3 2:88 3:58 4:11 5:54 6:24.799999 7:0.267 8:22 
0.5382954633953613 1:6 2:92 3:92 4:0 5:0 6:19.9 7:0.188 8:28 
0.5442270341888735 1:10 2:122 3:78 4:31 5:0 6:27.6 7:0.512 8:45 
0.5383025860874051 1:4 2:103 3:60 4:33 5:192 6:24 7:0.966 8:33 
0.5385703747982107 1:11 2:138 3:76 4:0 5:0 6:33.200001 7:0.42 8:35 
0.5383137047395516 1:3 2:180 3:64 4:25 5:70 6:34 7:0.271 8:26 
0.6395232970358509 1:7 2:133 3:84 4:0 5:0 6:40.200001 7:0.696 8:37 
0.5383321335100858 1:7 2:106 3:92 4:18 5:0 6:22.700001 7:0.235 8:48 
0.5649204796971961 1:7 2:159 3:64 4:0 5:0 6:27.4 7:0.294 8:40 
0.5384188184834067 1:1 2:146 3:56 4:0 5:0 6:29.700001 7:0.564 8:29 
0.5383199857585008 1:2 2:71 3:70 4:27 5:0 6:28 7:0.586 8:22 
0.5384239047254682 1:7 2:105 3:0 4:0 5:0 6:0 7:0.305 8:24 
0.5378057392204697 1:1 2:103 3:80 4:11 5:82 6:19.4 7:0.491 8:22 
0.5380763767918726 1:1 2:101 3:50 4:15 5:36 6:24.200001 7:0.526 8:26 
0.5383183595492795 1:5 2:88 3:66 4:21 5:23 6:24.4 7:0.342 8:30 
0.5380479199170558 1:7 2:150 3:66 4:42 5:342 6:34.700001 7:0.718 8:42 
0.5378919508033044 1:1 2:73 3:50 4:10 5:0 6:23 7:0.248 8:21 
0.5378919508321183 1:0 2:100 3:88 4:60 5:110 6:46.799999 7:0.962 8:31 
0.5385453856226543 1:0 2:146 3:82 4:0 5:0 6:40.5 7:1.781 8:44 
0.5381535418482977 1:0 2:105 3:64 4:41 5:142 6:41.5 7:0.173 8:22 
0.4871850282064067 1:2 2:84 3:0 4:0 5:0 6:0 7:0.304 8:21 
0.5380807871048043 1:5 2:44 3:62 4:0 5:0 6:25 7:0.587 8:36 
0.5380594616271701 1:2 2:141 3:58 4:34 5:128 6:25.4 7:0.699 8:24 
0.5377955520346764 1:5 2:99 3:74 4:27 5:0 6:29 7:0.203 8:32 
0.5381236716208657 1:2 2:109 3:92 4:0 5:0 6:42.700001 7:0.845 8:54 
0.5382718816687749 1:1 2:95 3:66 4:13 5:38 6:19.6 7:0.334 8:25 
0.5380807247405918 1:4 2:146 3:85 4:27 5:100 6:28.9 7:0.189 8:27 
0.5384406017656383 1:5 2:139 3:64 4:35 5:140 6:28.6 7:0.411 8:26 
0.5381002917435044 1:4 2:129 3:86 4:20 5:270 6:35.099998 7:0.231 8:23 
0.5383251169412909 1:1 2:79 3:75 4:30 5:0 6:32 7:0.396 8:22 
0.5382173967161645 1:1 2:0 3:48 4:20 5:0 6:24.700001 7:0.14 8:22 
0.5385528318322408 1:7 2:62 3:78 4:0 5:0 6:32.599998 7:0.391 8:41 
0.5367300611606948 1:5 2:95 3:72 4:33 5:0 6:37.700001 7:0.37 8:27 
0.501018073132425 1:2 2:112 3:66 4:22 5:0 6:25 7:0.307 8:24 
0.5385547727412399 1:3 2:113 3:44 4:13 5:0 6:22.4 7:0.14 8:22 
0.5334541405121788 1:2 2:74 3:0 4:0 5:0 6:0 7:0.102 8:22 
0.5380459121590584 1:7 2:83 3:78 4:26 5:71 6:29.299999 7:0.767 8:36 
0.5378510192578932 1:0 2:101 3:65 4:28 5:0 6:24.6 7:0.237 8:22 
0.5382872238537643 1:2 2:110 3:74 4:29 5:125 6:32.400002 7:0.698 8:27 
0.5382420434714148 1:13 2:106 3:72 4:54 5:0 6:36.599998 7:0.178 8:45 
0.5385547819769929 1:2 2:100 3:68 4:25 5:71 6:38.5 7:0.324 8:26 
0.5340541696678257 1:1 2:107 3:68 4:19 5:0 6:26.5 7:0.165 8:24 
0.5384757418709111 1:1 2:80 3:55 4:0 5:0 6:19.1 7:0.258 8:21 
0.5384199641345415 1:4 2:123 3:80 4:15 5:176 6:32 7:0.443 8:34 
0.5382999419012122 1:7 2:81 3:78 4:40 5:48 6:46.700001 7:0.261 8:42 
0.5378800484409448 1:2 2:142 3:82 4:18 5:64 6:24.700001 7:0.761 8:21 
0.5383225473559811 1:6 2:144 3:72 4:27 5:228 6:33.900002 7:0.255 8:40 
0.5322609942463612 1:2 2:92 3:62 4:28 5:0 6:31.6 7:0.13 8:24 
0.5380807871048043 1:1 2:71 3:48 4:18 5:76 6:20.4 7:0.323 8:22 
0.5383167089737932 1:6 2:93 3:50 4:30 5:64 6:28.700001 7:0.356 8:23 
0.5383110703953 1:1 2:151 3:60 4:0 5:0 6:26.1 7:0.179 8:22 
0.5237690034240273 1:0 2:125 3:96 4:0 5:0 6:22.5 7:0.262 8:21 
0.5383975507409496 1:1 2:81 3:72 4:18 5:40 6:26.6 7:0.283 8:24 
0.538253278052132 1:2 2:85 3:65 4:0 5:0 6:39.599998 7:0.93 8:27 
0.5381002917439813 1:1 2:126 3:56 4:29 5:152 6:28.700001 7:0.801 8:21 
0.5385858408162856 1:1 2:96 3:122 4:0 5:0 6:22.4 7:0.207 8:27 
0.5382721948908235 1:4 2:144 3:58 4:28 5:140 6:29.5 7:0.287 8:37 
0.5382975985027842 1:3 2:83 3:58 4:31 5:18 6:34.299999 7:0.336 8:25 
0.5382789504172999 1:1 2:89 3:76 4:34 5:37 6:31.200001 7:0.192 8:23 
0.5384692136381459 1:4 2:76 3:62 4:0 5:0 6:34 7:0.391 8:25 
0.5383004885454737 1:5 2:78 3:48 4:0 5:0 6:33.700001 7:0.654 8:25 
0.5275715481933769 1:4 2:97 3:60 4:23 5:0 6:28.200001 7:0.443 8:22 
0.538553916892292 1:4 2:99 3:76 4:15 5:51 6:23.200001 7:0.223 8:21 
0.539436891307434 1:6 2:111 3:64 4:39 5:0 6:34.200001 7:0.26 8:24 
0.5384813300390945 1:2 2:107 3:74 4:30 5:100 6:33.599998 7:0.404 8:23 
0.5382345796227018 1:5 2:132 3:80 4:0 5:0 6:26.799999 7:0.186 8:69 
0.5376990739754743 1:3 2:120 3:70 4:30 5:135 6:42.900002 7:0.452 8:30 
0.5382998779678918 1:1 2:118 3:58 4:36 5:94 6:33.299999 7:0.261 8:23 
0.5378711258415736 1:8 2:84 3:74 4:31 5:0 6:38.299999 7:0.457 8:39 
0.5371388993213988 1:2 2:96 3:68 4:13 5:49 6:21.1 7:0.647 8:26 
0.5382090792691769 1:2 2:125 3:60 4:20 5:140 6:33.799999 7:0.088 8:31 
0.538439620836015 1:0 2:100 3:70 4:26 5:50 6:30.799999 7:0.597 8:21 
0.538073228447423 1:0 2:93 3:60 4:25 5:92 6:28.700001 7:0.532 8:22 
0.5405174544322153 1:0 2:129 3:80 4:0 5:0 6:31.200001 7:0.703 8:29 
0.5383225473559811 1:5 2:105 3:72 4:29 5:325 6:36.900002 7:0.159 8:28 
0.5382248867915042 1:3 2:128 3:78 4:0 5:0 6:21.1 7:0.268 8:55 
0.53915945940348 1:5 2:106 3:82 4:30 5:0 6:39.5 7:0.286 8:38 
0.5382987919239229 1:2 2:108 3:52 4:26 5:63 6:32.5 7:0.318 8:22 
0.5378563980883384 1:4 2:154 3:62 4:31 5:284 6:32.799999 7:0.237 8:23 
0.5385546670641224 1:0 2:102 3:75 4:23 5:0 6:0 7:0.572 8:21 
0.538300594124149 1:9 2:57 3:80 4:37 5:0 6:32.799999 7:0.096 8:41 
0.5383184030893325 1:2 2:106 3:64 4:35 5:119 6:30.5 7:1.4 8:34 
0.5644890414252783 1:5 2:147 3:78 4:0 5:0 6:33.700001 7:0.218 8:65 
0.5383652332262777 1:2 2:90 3:70 4:17 5:0 6:27.299999 7:0.085 8:22 
0.538050860178922 1:1 2:136 3:74 4:50 5:204 6:37.400002 7:0.399 8:24 
0.5402328389425461 1:4 2:114 3:65 4:0 5:0 6:21.9 7:0.432 8:37 
0.5382989270341232 1:1 2:153 3:82 4:42 5:485 6:40.599998 7:0.687 8:23 
0.5380307732598477 1:2 2:99 3:52 4:15 5:94 6:24.6 7:0.637 8:21 
0.5384806281618001 1:1 2:109 3:56 4:21 5:135 6:25.200001 7:0.833 8:23 
0.5382786462037492 1:2 2:88 3:74 4:19 5:53 6:29 7:0.229 8:22 
0.5376744744020079 1:4 2:151 3:90 4:38 5:0 6:29.700001 7:0.294 8:36 
0.5383017833167986 1:7 2:102 3:74 4:40 5:105 6:37.200001 7:0.204 8:45 
0.5380479199170558 1:0 2:114 3:80 4:34 5:285 6:44.200001 7:0.167 8:27 
0.5232790258857842 1:2 2:100 3:64 4:23 5:0 6:29.700001 7:0.368 8:21 
0.538329115379497 1:3 2:148 3:66 4:25 5:0 6:32.5 7:0.256 8:22 
0.540011801699062 1:4 2:120 3:68 4:0 5:0 6:29.6 7:0.709 8:34 
0.5356599473767447 1:4 2:110 3:66 4:0 5:0 6:31.9 7:0.471 8:29 
0.5379201331542424 1:3 2:111 3:90 4:12 5:78 6:28.4 7:0.495 8:29 
0.5383184030901023 1:2 2:87 3:0 4:23 5:0 6:28.9 7:0.773 8:25 
0.5384804914927428 1:1 2:79 3:60 4:42 5:48 6:43.5 7:0.678 8:23 
0.5383202152126357 1:2 2:75 3:64 4:24 5:55 6:29.700001 7:0.37 8:33 
0.5382981004121006 1:6 2:85 3:78 4:0 5:0 6:31.200001 7:0.382 8:42 
0.5385954805163802 1:5 2:143 3:78 4:0 5:0 6:45 7:0.19 8:47 
0.5376856939340349 1:6 2:87 3:80 4:0 5:0 6:23.200001 7:0.084 8:32 
0.5382151098976784 1:0 2:119 3:64 4:18 5:92 6:34.900002 7:0.725 8:23 
0.5385856678834804 1:1 2:0 3:74 4:20 5:23 6:27.700001 7:0.299 8:21 
0.5372257506802041 1:5 2:73 3:60 4:0 5:0 6:26.799999 7:0.268 8:27 
0.538214695715328 1:4 2:141 3:74 4:0 5:0 6:27.6 7:0.244 8:40 
0.5059052886091386 1:3 2:111 3:62 4:0 5:0 6:22.6 7:0.142 8:21 
0.5381430318997399 1:9 2:123 3:70 4:44 5:94 6:33.099998 7:0.374 8:40 
0.5384199433843254 1:8 2:85 3:55 4:20 5:0 6:24.4 7:0.136 8:42 
0.5340261867456834 1:1 2:105 3:58 4:0 5:0 6:24.299999 7:0.187 8:21 
0.5378002760148639 1:0 2:113 3:80 4:16 5:0 6:31 7:0.874 8:21 
0.5381221739500646 1:1 2:138 3:82 4:0 5:0 6:40.099998 7:0.236 8:28 
0.5383675842229723 1:0 2:108 3:68 4:20 5:0 6:27.299999 7:0.787 8:32 
0.5331353815085635 1:2 2:99 3:70 4:16 5:44 6:20.4 7:0.235 8:27 
0.5381549527018711 1:6 2:103 3:72 4:32 5:190 6:37.700001 7:0.324 8:55 
0.5384570867500518 1:5 2:111 3:72 4:28 5:0 6:23.9 7:0.407 8:27 
0.5382557070298265 1:1 2:96 3:64 4:27 5:87 6:33.200001 7:0.289 8:21 
0.5383002233238168 1:2 2:81 3:60 4:22 5:0 6:27.700001 7:0.29 8:25 
0.5383023924358484 1:0 2:147 3:85 4:54 5:0 6:42.799999 7:0.375 8:24 
0.5383015748707043 1:7 2:179 3:95 4:31 5:0 6:34.200001 7:0.164 8:60 
0.5379980330067754 1:6 2:125 3:68 4:30 5:120 6:30 7:0.464 8:32 
0.5768240021674704 1:7 2:119 3:0 4:0 5:0 6:25.200001 7:0.209 8:37 
0.5385857016419409 1:7 2:142 3:60 4:33 5:190 6:28.799999 7:0.687 8:61 
0.5380459359136567 1:1 2:100 3:66 4:15 5:56 6:23.6 7:0.666 8:26 
0.5376818691591838 1:1 2:87 3:78 4:27 5:32 6:34.599998 7:0.101 8:22 
0.5240976889081771 1:0 2:101 3:76 4:0 5:0 6:35.700001 7:0.198 8:26 
0.5382828898245675 1:4 2:197 3:70 4:39 5:744 6:36.700001 7:2.329 8:31 
0.5382310919834402 1:0 2:117 3:80 4:31 5:53 6:45.200001 7:0.089 8:24 
0.5384166091012043 1:1 2:79 3:80 4:25 5:37 6:25.4 7:0.583 8:22 
0.5376142318428824 1:4 2:122 3:68 4:0 5:0 6:35 7:0.394 8:29 
0.5383265348490148 1:3 2:74 3:68 4:28 5:45 6:29.700001 7:0.293 8:23 
0.5377807592056119 1:0 2:104 3:76 4:0 5:0 6:18.4 7:0.582 8:27 
0.5298574134412797 1:1 2:91 3:64 4:24 5:0 6:29.200001 7:0.192 8:21 
0.5377675865775584 1:4 2:91 3:70 4:32 5:88 6:33.099998 7:0.446 8:22 
0.5383710432534496 1:2 2:146 3:76 4:35 5:194 6:38.200001 7:0.329 8:29 
0.5383395607378562 1:10 2:122 3:68 4:0 5:0 6:31.200001 7:0.258 8:41 
0.5383202920266775 1:0 2:165 3:90 4:33 5:680 6:52.299999 7:0.427 8:23 
0.5382174018300621 1:9 2:124 3:70 4:33 5:402 6:35.400002 7:0.282 8:34 
0.5094185141106244 1:1 2:111 3:86 4:19 5:0 6:30.1 7:0.143 8:23 
0.5385857430134876 1:9 2:106 3:52 4:0 5:0 6:31.200001 7:0.38 8:42 
0.5327551125018188 1:2 2:129 3:84 4:0 5:0 6:28 7:0.284 8:27 
0.538201654113429 1:2 2:90 3:80 4:14 5:55 6:24.4 7:0.249 8:24 
0.5346824658456583 1:0 2:86 3:68 4:32 5:0 6:35.799999 7:0.238 8:25 
0.5383123732214776 1:3 2:111 3:56 4:39 5:0 6:30.1 7:0.557 8:30 
0.5036236004050852 1:2 2:114 3:68 4:22 5:0 6:28.700001 7:0.092 8:25 
0.5384119489867207 1:1 2:193 3:50 4:16 5:375 6:25.9 7:0.655 8:24 
0.5382970617325546 1:3 2:191 3:68 4:15 5:130 6:30.9 7:0.299 8:34 
0.4851448716528857 1:4 2:95 3:70 4:32 5:0 6:32.099998 7:0.612 8:24 
0.538487993117574 1:3 2:142 3:80 4:15 5:0 6:32.400002 7:0.2 8:63 
0.5383015092687766 1:5 2:96 3:74 4:18 5:67 6:33.599998 7:0.997 8:43 
0.5391590063411392 1:2 2:128 3:64 4:42 5:0 6:40 7:1.101 8:24 
0.5366577172357602 1:0 2:102 3:52 4:0 5:0 6:25.1 7:0.078 8:21 
0.5380848026245448 1:2 2:108 3:62 4:32 5:56 6:25.200001 7:0.128 8:21 
0.5382770027687369 1:3 2:122 3:78 4:0 5:0 6:23 7:0.254 8:40 
0.5382998883285828 1:1 2:71 3:78 4:50 5:45 6:33.200001 7:0.422 8:21 
0.5383593675532796 1:13 2:106 3:70 4:0 5:0 6:34.200001 7:0.251 8:52 
0.5382998318771941 1:2 2:100 3:70 4:52 5:57 6:40.5 7:0.677 8:25 
0.5385772123239752 1:0 2:104 3:64 4:23 5:116 6:27.799999 7:0.454 8:23 
0.4924106660189458 1:5 2:114 3:74 4:0 5:0 6:24.9 7:0.744 8:57 
0.5384784848812634 1:2 2:108 3:62 4:10 5:278 6:25.299999 7:0.881 8:22 
0.5384822116609385 1:10 2:129 3:76 4:28 5:122 6:35.900002 7:0.28 8:39 
0.5383269150478938 1:7 2:133 3:88 4:15 5:155 6:32.400002 7:0.262 8:37 
0.5381333932652839 1:7 2:136 3:74 4:26 5:135 6:26 7:0.647 8:51 
0.5382989270341232 1:5 2:155 3:84 4:44 5:545 6:38.700001 7:0.619 8:34 
0.5380905459193277 1:4 2:96 3:56 4:17 5:49 6:20.799999 7:0.34 8:26 
0.5384814362938576 1:5 2:108 3:72 4:43 5:75 6:36.099998 7:0.263 8:33 
0.5376255258257552 1:0 2:78 3:88 4:29 5:40 6:36.900002 7:0.434 8:21 
0.5383202151908418 1:0 2:161 3:50 4:0 5:0 6:21.9 7:0.254 8:65 
0.5383005947502379 1:6 2:151 3:62 4:31 5:120 6:35.5 7:0.692 8:28 
0.5384119326655532 1:0 2:126 3:84 4:29 5:215 6:30.700001 7:0.52 8:24 
0.4912948529836051 1:8 2:112 3:72 4:0 5:0 6:23.6 7:0.84 8:58 
0.5382846378096154 1:5 2:77 3:82 4:41 5:42 6:35.799999 7:0.156 8:35 
0.538300472376758 1:3 2:150 3:76 4:0 5:0 6:21 7:0.207 8:37 
0.5383192326664633 1:2 2:120 3:76 4:37 5:105 6:39.700001 7:0.215 8:29 
0.53855295423421 1:0 2:137 3:68 4:14 5:148 6:24.799999 7:0.143 8:21 
0.5384822805235776 1:6 2:80 3:66 4:30 5:0 6:26.200001 7:0.313 8:41 
0.5378086747337145 1:0 2:106 3:70 4:37 5:148 6:39.400002 7:0.605 8:22 
0.5383315174055363 1:3 2:113 3:50 4:10 5:85 6:29.5 7:0.626 8:25 
0.5380886615529121 1:2 2:112 3:68 4:22 5:94 6:34.099998 7:0.315 8:26 
0.5376591259838639 1:3 2:99 3:80 4:11 5:64 6:19.299999 7:0.284 8:30 
0.538585626429845 1:3 2:115 3:66 4:39 5:140 6:38.099998 7:0.15 8:28 
0.5376611291739293 1:4 2:129 3:60 4:12 5:231 6:27.5 7:0.527 8:31 
0.5460452065263666 1:2 2:112 3:75 4:32 5:0 6:35.700001 7:0.148 8:21 
0.5379767190902204 1:1 2:157 3:72 4:21 5:168 6:25.6 7:0.123 8:24 
0.5380807681044155 1:10 2:179 3:70 4:0 5:0 6:35.099998 7:0.2 8:37 
0.5384330886979762 1:6 2:105 3:70 4:32 5:68 6:30.799999 7:0.122 8:37 
0.537926912508376 1:8 2:118 3:72 4:19 5:0 6:23.1 7:1.476 8:46 
0.5378381112018655 1:2 2:87 3:58 4:16 5:52 6:32.700001 7:0.166 8:25 
0.5379971959929641 1:12 2:106 3:80 4:0 5:0 6:23.6 7:0.137 8:44 
0.5352528303647429 1:1 2:95 3:60 4:18 5:58 6:23.9 7:0.26 8:22 
0.5383130243228063 1:0 2:165 3:76 4:43 5:255 6:47.900002 7:0.259 8:26 
0.5383185883544851 1:0 2:117 3:0 4:0 5:0 6:33.799999 7:0.932 8:44 
0.5384330886287638 1:1 2:130 3:70 4:13 5:105 6:25.9 7:0.472 8:22 
0.5384277438654791 1:1 2:95 3:74 4:21 5:73 6:25.9 7:0.673 8:36 
0.5382970617325546 1:1 2:0 3:68 4:35 5:0 6:32 7:0.389 8:22 
0.5380545235372242 1:5 2:122 3:86 4:0 5:0 6:34.700001 7:0.29 8:33 
0.5377520819923636 1:8 2:95 3:72 4:0 5:0 6:36.799999 7:0.485 8:57 
0.5377120848744591 1:8 2:126 3:88 4:36 5:108 6:38.5 7:0.349 8:49 
0.538299941901362 1:1 2:139 3:46 4:19 5:83 6:28.700001 7:0.654 8:22 
0.5378610579818135 1:3 2:116 3:0 4:0 5:0 6:23.5 7:0.187 8:23 
0.5380540582727622 1:3 2:99 3:62 4:19 5:74 6:21.799999 7:0.279 8:26 
0.5384976802530872 1:4 2:92 3:80 4:0 5:0 6:42.200001 7:0.237 8:29 
0.537753627617108 1:4 2:137 3:84 4:0 5:0 6:31.200001 7:0.252 8:30 
0.5380549751584673 1:3 2:61 3:82 4:28 5:0 6:34.400002 7:0.243 8:46 
0.5381644073621991 1:1 2:90 3:62 4:12 5:43 6:27.200001 7:0.58 8:24 
0.5382756780239228 1:3 2:90 3:78 4:0 5:0 6:42.700001 7:0.559 8:21 
0.5382846378098686 1:12 2:88 3:74 4:40 5:54 6:35.299999 7:0.378 8:48 
0.5382324147702997 1:5 2:158 3:70 4:0 5:0 6:29.799999 7:0.207 8:63 
0.5382734382202583 1:5 2:103 3:108 4:37 5:0 6:39.200001 7:0.305 8:65 
0.5383202151908418 1:4 2:147 3:74 4:25 5:293 6:34.900002 7:0.385 8:30 
0.5383253641348493 1:5 2:99 3:54 4:28 5:83 6:34 7:0.499 8:30 
0.5377795042363761 1:0 2:101 3:64 4:17 5:0 6:21 7:0.252 8:21 
0.538143031898759 1:3 2:81 3:86 4:16 5:66 6:27.5 7:0.306 8:22 
0.5383977469019348 1:0 2:118 3:64 4:23 5:89 6:0 7:1.731 8:21 
0.5375192156043931 1:0 2:84 3:64 4:22 5:66 6:35.799999 7:0.545 8:21 
0.5382393760321303 1:2 2:105 3:58 4:40 5:94 6:34.900002 7:0.225 8:25 
0.5383132491313095 1:2 2:122 3:52 4:43 5:158 6:36.200001 7:0.816 8:28 
0.5385702063274468 1:0 2:98 3:82 4:15 5:84 6:25.200001 7:0.299 8:22 
0.5384546623003921 1:1 2:87 3:60 4:37 5:75 6:37.200001 7:0.509 8:22 
0.53765188909221 1:0 2:93 3:100 4:39 5:72 6:43.400002 7:1.021 8:35 
0.5385857189236428 1:1 2:107 3:72 4:30 5:82 6:30.799999 7:0.821 8:24 
0.537681125140961 1:0 2:105 3:68 4:22 5:0 6:20 7:0.236 8:22 
0.5345303302360326 1:1 2:109 3:60 4:8 5:182 6:25.4 7:0.947 8:21 
0.5351377276084309 1:1 2:90 3:62 4:18 5:59 6:25.1 7:1.268 8:25 
0.5384652170590317 1:1 2:125 3:70 4:24 5:110 6:24.299999 7:0.221 8:25 
0.5380459149484023 1:1 2:119 3:54 4:13 5:50 6:22.299999 7:0.205 8:24 
0.5378104071728201 1:3 2:100 3:68 4:23 5:81 6:31.6 7:0.949 8:28 
0.5384756783070411 1:1 2:100 3:66 4:29 5:196 6:32 7:0.444 8:42 
0.5378191689388713 1:1 2:131 3:64 4:14 5:415 6:23.700001 7:0.389 8:21 
0.5378245649263245 1:4 2:116 3:72 4:12 5:87 6:22.1 7:0.463 8:37 
0.5382088286133622 1:2 2:127 3:58 4:24 5:275 6:27.700001 7:1.6 8:25 
0.5385856049132707 1:3 2:96 3:56 4:34 5:115 6:24.700001 7:0.944 8:39 
0.5036904909998945 1:3 2:82 3:70 4:0 5:0 6:21.1 7:0.389 8:25 
0.5382345465767738 1:6 2:137 3:61 4:0 5:0 6:24.200001 7:0.151 8:55 
0.5381144575800436 1:9 2:72 3:78 4:25 5:0 6:31.6 7:0.28 8:38 
0.5376744768460027 1:2 2:123 3:48 4:32 5:165 6:42.099998 7:0.52 8:26 
0.5377351604394393 1:0 2:101 3:62 4:0 5:0 6:21.9 7:0.336 8:25 
0.537677663520413 1:6 2:102 3:90 4:39 5:0 6:35.700001 7:0.674 8:28 
0.5384851498277569 1:1 2:112 3:72 4:30 5:176 6:34.400002 7:0.528 8:25 
0.5384273726990578 1:1 2:143 3:84 4:23 5:310 6:42.400002 7:1.076 8:22 
0.5383296441891167 1:1 2:143 3:74 4:22 5:61 6:26.200001 7:0.256 8:21 
0.5276805631996492 1:1 2:97 3:68 4:21 5:0 6:27.200001 7:1.095 8:22 
0.5039718269488198 1:1 2:83 3:68 4:0 5:0 6:18.200001 7:0.624 8:27 
0.5378511728798778 1:1 2:119 3:88 4:41 5:170 6:45.299999 7:0.507 8:26 
0.5385539698948753 1:2 2:94 3:68 4:18 5:76 6:26 7:0.561 8:21 
0.5382972895214894 1:0 2:102 3:64 4:46 5:78 6:40.599998 7:0.496 8:21 
0.5326895343216543 1:2 2:115 3:64 4:22 5:0 6:30.799999 7:0.421 8:21 
0.5382827522307834 1:0 2:94 3:0 4:0 5:0 6:0 7:0.256 8:25 
0.5383440807110325 1:0 2:135 3:94 4:46 5:145 6:40.599998 7:0.284 8:26 
0.4476991933803304 1:2 2:99 3:0 4:0 5:0 6:22.200001 7:0.108 8:23 
0.5385856678833615 1:3 2:89 3:74 4:16 5:85 6:30.4 7:0.551 8:38 
0.5382451188411457 1:1 2:80 3:74 4:11 5:60 6:30 7:0.527 8:22 
0.5382739154985994 1:2 2:139 3:75 4:0 5:0 6:25.6 7:0.167 8:29 
0.5384781460858225 1:1 2:90 3:68 4:8 5:0 6:24.5 7:1.138 8:36 
0.5382558515015109 1:12 2:140 3:85 4:33 5:0 6:37.400002 7:0.244 8:41 
0.5384761991411127 1:5 2:147 3:75 4:0 5:0 6:29.9 7:0.434 8:28 
0.5381566052911617 1:1 2:97 3:70 4:15 5:0 6:18.200001 7:0.147 8:21 
0.5271201675236243 1:6 2:107 3:88 4:0 5:0 6:36.799999 7:0.727 8:31 
0.5379846565997533 1:2 2:83 3:66 4:23 5:50 6:32.200001 7:0.497 8:22 
0.5384119486285421 1:4 2:117 3:64 4:27 5:120 6:33.200001 7:0.23 8:24 
0.538481156731772 1:1 2:100 3:72 4:12 5:70 6:25.299999 7:0.658 8:28 
0.5380649981470296 1:0 2:95 3:80 4:45 5:92 6:36.5 7:0.33 8:26 
0.5382762427525677 1:0 2:120 3:74 4:18 5:63 6:30.5 7:0.285 8:26 
0.5383315174018571 1:1 2:82 3:64 4:13 5:95 6:21.200001 7:0.415 8:23 
0.5384804914927428 1:0 2:91 3:68 4:32 5:210 6:39.900002 7:0.381 8:25 
0.5380848025549704 1:2 2:119 3:0 4:0 5:0 6:19.6 7:0.832 8:72 
0.5385546670595838 1:2 2:100 3:54 4:28 5:105 6:37.799999 7:0.498 8:24 
0.5382058610899249 1:1 2:135 3:54 4:0 5:0 6:26.700001 7:0.687 8:62 
0.5381549875306564 1:5 2:86 3:68 4:28 5:71 6:30.200001 7:0.364 8:24 
0.5384758365397112 1:9 2:134 3:74 4:33 5:60 6:25.9 7:0.46 8:81 
0.5383109759941518 1:9 2:120 3:72 4:22 5:56 6:20.799999 7:0.733 8:48 
0.5373494491276902 1:1 2:71 3:62 4:0 5:0 6:21.799999 7:0.416 8:26 
0.5382229630407851 1:8 2:74 3:70 4:40 5:49 6:35.299999 7:0.705 8:39 
0.5382992417917557 1:5 2:88 3:78 4:30 5:0 6:27.6 7:0.258 8:37 
0.5381179650311269 1:10 2:115 3:98 4:0 5:0 6:24 7:1.022 8:34 
0.5377327502180782 1:0 2:124 3:56 4:13 5:105 6:21.799999 7:0.452 8:21 
0.5383219288731453 1:0 2:74 3:52 4:10 5:36 6:27.799999 7:0.269 8:22 
0.538190140421407 1:0 2:97 3:64 4:36 5:100 6:36.799999 7:0.6 8:25 
0.5380477085918882 1:6 2:154 3:78 4:41 5:140 6:46.099998 7:0.571 8:27 
0.538416649368929 1:1 2:144 3:82 4:40 5:0 6:41.299999 7:0.607 8:28 
0.5393383766274797 1:0 2:137 3:70 4:38 5:0 6:33.200001 7:0.17 8:22 
0.5379066252356872 1:0 2:119 3:66 4:27 5:0 6:38.799999 7:0.259 8:22 
0.5385036293499343 1:7 2:136 3:90 4:0 5:0 6:29.9 7:0.21 8:50 
0.5316850242048955 1:4 2:114 3:64 4:0 5:0 6:28.9 7:0.126 8:24 
0.5380474053400807 1:0 2:137 3:84 4:27 5:0 6:27.299999 7:0.231 8:59 
0.5383257756857059 1:7 2:114 3:76 4:17 5:110 6:23.799999 7:0.466 8:31 
0.5384199433830751 1:8 2:126 3:74 4:38 5:75 6:25.9 7:0.162 8:39 
0.5385213967928999 1:4 2:132 3:86 4:31 5:0 6:28 7:0.419 8:63 
0.5383727696230932 1:0 2:123 3:88 4:37 5:0 6:35.200001 7:0.197 8:29 
0.5383513291565367 1:4 2:85 3:58 4:22 5:49 6:27.799999 7:0.306 8:28 
0.5383327424477717 1:0 2:84 3:82 4:31 5:125 6:38.200001 7:0.233 8:23 
0.5379918838661893 1:1 2:139 3:62 4:41 5:480 6:40.700001 7:0.536 8:21 
0.5376139985175465 1:0 2:173 3:78 4:32 5:265 6:46.5 7:1.159 8:58 
0.5382909037141077 1:4 2:99 3:72 4:17 5:0 6:25.6 7:0.294 8:28 
0.5379566831447093 1:8 2:194 3:80 4:0 5:0 6:26.1 7:0.551 8:67 
0.5375098852524608 1:2 2:83 3:65 4:28 5:66 6:36.799999 7:0.629 8:24 
0.5382345746039831 1:2 2:89 3:90 4:30 5:0 6:33.5 7:0.292 8:42 
0.5379007830807289 1:4 2:99 3:68 4:38 5:0 6:32.799999 7:0.145 8:33 
0.4812646283154748 1:3 2:80 3:0 4:0 5:0 6:0 7:0.174 8:22 
0.5383271103848881 1:6 2:166 3:74 4:0 5:0 6:26.6 7:0.304 8:66 
0.5322397072964766 1:5 2:110 3:68 4:0 5:0 6:26 7:0.292 8:30 
0.5382174538157083 1:2 2:81 3:72 4:15 5:76 6:30.1 7:0.547 8:25 
0.5382348664614747 1:6 2:154 3:74 4:32 5:193 6:29.299999 7:0.839 8:39 
0.5383974295619834 1:2 2:117 3:90 4:19 5:71 6:25.200001 7:0.313 8:21 
0.5340372008975778 1:3 2:84 3:72 4:32 5:0 6:37.200001 7:0.267 8:28 
0.5380603947608317 1:7 2:94 3:64 4:25 5:79 6:33.299999 7:0.738 8:41 
0.538481374724594 1:3 2:96 3:78 4:39 5:0 6:37.299999 7:0.238 8:40 
0.5385546675965662 1:10 2:75 3:82 4:0 5:0 6:33.299999 7:0.263 8:38 
0.5385527423491447 1:1 2:130 3:60 4:23 5:170 6:28.6 7:0.692 8:21 
0.5383253641420569 1:2 2:84 3:50 4:23 5:76 6:30.4 7:0.968 8:21 
0.5385524127078283 1:8 2:120 3:78 4:0 5:0 6:25 7:0.409 8:64 
0.5381580046041985 1:0 2:139 3:62 4:17 5:210 6:22.1 7:0.207 8:21 
0.5383265438603476 1:9 2:91 3:68 4:0 5:0 6:24.200001 7:0.2 8:58 
0.5230454147491712 1:2 2:91 3:62 4:0 5:0 6:27.299999 7:0.525 8:22 
0.5373589013629622 1:3 2:99 3:54 4:19 5:86 6:25.6 7:0.154 8:24 
0.5384485467489083 1:7 2:125 3:86 4:0 5:0 6:37.599998 7:0.304 8:51 
0.5385546705544672 1:13 2:76 3:60 4:0 5:0 6:32.799999 7:0.18 8:41 
0.5376921672404293 1:6 2:129 3:90 4:7 5:326 6:19.6 7:0.582 8:60 
0.5382229630400451 1:2 2:68 3:70 4:32 5:66 6:25 7:0.187 8:25 
0.5382420434713782 1:3 2:124 3:80 4:33 5:130 6:33.200001 7:0.305 8:26 
0.5546960354716287 1:6 2:114 3:0 4:0 5:0 6:0 7:0.189 8:26 
0.5384645367321528 1:3 2:125 3:58 4:0 5:0 6:31.6 7:0.151 8:24 
0.5382098962351626 1:3 2:87 3:60 4:18 5:0 6:21.799999 7:0.444 8:21 
0.5380965417299168 1:1 2:97 3:64 4:19 5:82 6:18.200001 7:0.299 8:21 
0.5384797465328067 1:3 2:116 3:74 4:15 5:105 6:26.299999 7:0.107 8:24 
0.5382954634076332 1:0 2:117 3:66 4:31 5:188 6:30.799999 7:0.493 8:22 
0.5330106303494683 1:0 2:111 3:65 4:0 5:0 6:24.6 7:0.66 8:31 
0.5376118131926926 1:2 2:122 3:60 4:18 5:106 6:29.799999 7:0.717 8:22 
0.5384350260815856 1:0 2:107 3:76 4:0 5:0 6:45.299999 7:0.686 8:24 
0.5382543581073115 1:1 2:86 3:66 4:52 5:65 6:41.299999 7:0.917 8:29 
0.3970838504832086 1:6 2:91 3:0 4:0 5:0 6:29.799999 7:0.501 8:31 
0.5382989866429003 1:1 2:77 3:56 4:30 5:56 6:33.299999 7:1.251 8:24 
0.5381455586819444 1:0 2:105 3:90 4:0 5:0 6:29.6 7:0.197 8:46 
0.5382345738648451 1:0 2:57 3:60 4:0 5:0 6:21.700001 7:0.735 8:67 
0.5383042096917584 1:0 2:127 3:80 4:37 5:210 6:36.299999 7:0.804 8:23 
0.5383771082388409 1:4 2:84 3:90 4:23 5:56 6:39.5 7:0.159 8:25 
0.538552842283073 1:1 2:88 3:78 4:29 5:76 6:32 7:0.365 8:29 
0.538581230590794 1:4 2:131 3:68 4:21 5:166 6:33.099998 7:0.16 8:28 
0.5383320093024374 1:1 2:164 3:82 4:43 5:67 6:32.799999 7:0.341 8:50 
0.5383195561372313 1:4 2:189 3:110 4:31 5:0 6:28.5 7:0.68 8:37 
0.5381950632129902 1:1 2:116 3:70 4:28 5:0 6:27.4 7:0.204 8:21 
0.5380470178171355 1:3 2:84 3:68 4:30 5:106 6:31.9 7:0.591 8:25 
0.5385547775825984 1:6 2:114 3:88 4:0 5:0 6:27.799999 7:0.247 8:66 
0.5382583276340329 1:1 2:88 3:62 4:24 5:44 6:29.9 7:0.422 8:23 
0.5379998788266027 1:1 2:84 3:64 4:23 5:115 6:36.900002 7:0.471 8:28 
0.5383167089738032 1:7 2:124 3:70 4:33 5:215 6:25.5 7:0.161 8:37 
0.5381213434062229 1:1 2:97 3:70 4:40 5:0 6:38.099998 7:0.218 8:30 
0.5295926216852402 1:8 2:110 3:76 4:0 5:0 6:27.799999 7:0.237 8:58 
0.5384277442286658 1:11 2:103 3:68 4:40 5:0 6:46.200001 7:0.126 8:42 
0.538433241536535 1:11 2:85 3:74 4:0 5:0 6:30.1 7:0.3 8:35 
0.5385645485128323 1:1 2:87 3:68 4:34 5:77 6:37.599998 7:0.401 8:24 
0.5381360503491932 1:6 2:99 3:60 4:19 5:54 6:26.9 7:0.497 8:32 
0.5379045462704688 1:0 2:91 3:80 4:0 5:0 6:32.400002 7:0.601 8:27 
0.5371857395977844 1:2 2:95 3:54 4:14 5:88 6:26.1 7:0.748 8:22 
0.5382873255957349 1:1 2:99 3:72 4:30 5:18 6:38.599998 7:0.412 8:21 
0.538328761639709 1:6 2:92 3:62 4:32 5:126 6:32 7:0.085 8:46 
0.5383282890679464 1:4 2:154 3:72 4:29 5:126 6:31.299999 7:0.338 8:37 
0.5382345401545267 1:3 2:78 3:70 4:0 5:0 6:32.5 7:0.27 8:39 
0.5238670574037957 1:2 2:130 3:96 4:0 5:0 6:22.6 7:0.268 8:21 
0.5376431626504981 1:3 2:111 3:58 4:31 5:44 6:29.5 7:0.43 8:22 
0.5385857134390285 1:2 2:98 3:60 4:17 5:120 6:34.700001 7:0.198 8:22 
0.5384757435231382 1:1 2:143 3:86 4:30 5:330 6:30.1 7:0.892 8:23 
0.538585741973585 1:1 2:119 3:44 4:47 5:63 6:35.5 7:0.28 8:25 
0.5383837040546042 1:6 2:108 3:44 4:20 5:130 6:24 7:0.813 8:35 
0.538655917329143 1:10 2:133 3:68 4:0 5:0 6:27 7:0.245 8:36 
0.5660909661026783 1:6 2:109 3:60 4:27 5:0 6:25 7:0.206 8:27 
0.5380550040509772 1:12 2:121 3:78 4:17 5:0 6:26.5 7:0.259 8:62 
0.5393276118064609 1:8 2:100 3:76 4:0 5:0 6:38.700001 7:0.19 8:42 
0.5373868555319732 1:1 2:93 3:56 4:11 5:0 6:22.5 7:0.417 8:22 
0.5375930057475252 1:6 2:103 3:66 4:0 5:0 6:24.299999 7:0.249 8:29 
0.5376620136457766 1:0 2:73 3:0 4:0 5:0 6:21.1 7:0.342 8:25 
0.5377179766587974 1:2 2:112 3:78 4:50 5:140 6:39.400002 7:0.175 8:24 
0.5383321335065694 1:2 2:82 3:52 4:22 5:115 6:28.5 7:1.699 8:25 
0.5377278402861736 1:6 2:123 3:72 4:45 5:230 6:33.599998 7:0.733 8:34 
0.5379918838661869 1:0 2:67 3:76 4:0 5:0 6:45.299999 7:0.194 8:46 
0.5378845665711001 1:1 2:89 3:24 4:19 5:25 6:27.799999 7:0.559 8:21 
0.5382915504549672 1:1 2:109 3:38 4:18 5:120 6:23.1 7:0.407 8:26 
0.50992413978013 1:1 2:108 3:88 4:19 5:0 6:27.1 7:0.4 8:24 
0.5369197294609849 1:6 2:96 3:0 4:0 5:0 6:23.700001 7:0.19 8:28 
0.5384758499972896 1:1 2:124 3:74 4:36 5:0 6:27.799999 7:0.1 8:30 
0.5379890051796787 1:1 2:124 3:60 4:32 5:0 6:35.799999 7:0.514 8:21 
0.5383647391948203 1:1 2:92 3:62 4:25 5:41 6:19.5 7:0.482 8:25 
0.5380969933518578 1:0 2:152 3:82 4:39 5:272 6:41.5 7:0.27 8:27 
0.533919624729527 1:1 2:111 3:62 4:13 5:182 6:24 7:0.138 8:23 
0.538301867643791 1:3 2:106 3:54 4:21 5:158 6:30.9 7:0.292 8:24 
0.5382380474609102 1:6 2:105 3:80 4:28 5:0 6:32.5 7:0.878 8:26 
0.5373986388008242 1:3 2:106 3:72 4:0 5:0 6:25.799999 7:0.207 8:27 
0.5382740470387971 1:6 2:117 3:96 4:0 5:0 6:28.700001 7:0.157 8:30 
0.5383214537677131 1:2 2:68 3:62 4:13 5:15 6:20.1 7:0.257 8:23 
0.5382751411697908 1:2 2:112 3:86 4:42 5:160 6:38.400002 7:0.246 8:28 
0.5382814409088691 1:2 2:92 3:76 4:20 5:0 6:24.200001 7:1.698 8:28 
0.5382229781148561 1:6 2:183 3:94 4:0 5:0 6:40.799999 7:1.461 8:45 
0.5385856049132911 1:0 2:94 3:70 4:27 5:115 6:43.5 7:0.347 8:21 
0.5365046223309315 1:2 2:108 3:64 4:0 5:0 6:30.799999 7:0.158 8:21 
0.5382734061943277 1:4 2:90 3:88 4:47 5:54 6:37.700001 7:0.362 8:29 
0.5376718808436866 1:0 2:125 3:68 4:0 5:0 6:24.700001 7:0.206 8:21 
0.5379676961619956 1:0 2:132 3:78 4:0 5:0 6:32.400002 7:0.393 8:21 
0.6094618395162057 1:5 2:128 3:80 4:0 5:0 6:34.599998 7:0.144 8:45 
0.5283733026905963 1:4 2:94 3:65 4:22 5:0 6:24.700001 7:0.148 8:21 
0.538305375820246 1:0 2:102 3:78 4:40 5:90 6:34.5 7:0.238 8:24 
0.4982177568033501 1:2 2:111 3:60 4:0 5:0 6:26.200001 7:0.343 8:23 
0.5380978332958933 1:1 2:128 3:82 4:17 5:183 6:27.5 7:0.115 8:22 
0.5171656882487603 1:10 2:92 3:62 4:0 5:0 6:25.9 7:0.167 8:31 
0.5378808846371753 1:5 2:104 3:74 4:0 5:0 6:28.799999 7:0.153 8:48 
0.538320697067445 1:2 2:94 3:76 4:18 5:66 6:31.6 7:0.649 8:23 
0.5339329110660872 1:1 2:100 3:74 4:12 5:46 6:19.5 7:0.149 8:28 
0.5376385007023535 1:0 2:102 3:86 4:17 5:105 6:29.299999 7:0.695 8:27 
0.538411671226923 1:4 2:128 3:70 4:0 5:0 6:34.299999 7:0.303 8:24 
0.396694717138736 1:4 2:90 3:0 4:0 5:0 6:28 7:0.61 8:31 
0.538482143804269 1:3 2:103 3:72 4:30 5:152 6:27.6 7:0.73 8:27 
0.5385547340676546 1:2 2:157 3:74 4:35 5:440 6:39.400002 7:0.134 8:30 
0.4939024140211298 1:0 2:107 3:60 4:25 5:0 6:26.4 7:0.133 8:23 
0.5376429614031335 1:1 2:91 3:54 4:25 5:100 6:25.200001 7:0.234 8:23 
0.5383055600749048 1:1 2:117 3:60 4:23 5:106 6:33.799999 7:0.466 8:27 
0.5382318619056017 1:5 2:123 3:74 4:40 5:77 6:34.099998 7:0.269 8:28 
0.5385417919301109 1:2 2:120 3:54 4:0 5:0 6:26.799999 7:0.455 8:27 
0.5380596694410038 1:1 2:106 3:70 4:28 5:135 6:34.200001 7:0.142 8:22 
0.5381849572088443 1:2 2:101 3:58 4:35 5:90 6:21.799999 7:0.155 8:22 
0.538318318736968 1:1 2:120 3:80 4:48 5:200 6:38.900002 7:1.162 8:41 
0.5376385007034796 1:11 2:127 3:106 4:0 5:0 6:39 7:0.19 8:51 
0.5405263622764348 1:10 2:162 3:84 4:0 5:0 6:27.700001 7:0.182 8:54 
0.5376128097761612 1:1 2:112 3:80 4:45 5:132 6:34.799999 7:0.217 8:24 
0.5382998741163221 1:6 2:98 3:58 4:33 5:190 6:34 7:0.43 8:43 
0.5382088286133622 1:9 2:154 3:78 4:30 5:100 6:30.9 7:0.164 8:45 
0.5382174019823514 1:6 2:165 3:68 4:26 5:168 6:33.599998 7:0.631 8:49 
0.5373433850910668 1:1 2:99 3:58 4:10 5:0 6:25.4 7:0.551 8:21 
0.5376431639965233 1:10 2:68 3:106 4:23 5:49 6:35.5 7:0.285 8:47 
0.5376431626747308 1:3 2:123 3:100 4:35 5:240 6:57.299999 7:0.88 8:22 
0.5385533455385456 1:8 2:91 3:82 4:0 5:0 6:35.599998 7:0.587 8:68 
0.5377231285961102 1:0 2:93 3:60 4:0 5:0 6:35.299999 7:0.263 8:25 
0.5383060711896264 1:2 2:101 3:58 4:17 5:265 6:24.200001 7:0.614 8:23 
0.5376776635202725 1:2 2:56 3:56 4:28 5:45 6:24.200001 7:0.332 8:22 
0.5384749327838566 1:0 2:95 3:64 4:39 5:105 6:44.599998 7:0.366 8:22 
0.5385856342028323 1:5 2:136 3:82 4:0 5:0 6:0 7:0.64 8:69 
0.5381371445870503 1:2 2:129 3:74 4:26 5:205 6:33.200001 7:0.591 8:25 
0.5376927151809984 1:3 2:130 3:64 4:0 5:0 6:23.1 7:0.314 8:22 
0.5381448572485901 1:1 2:107 3:50 4:19 5:0 6:28.299999 7:0.181 8:29 
0.5383195226633936 1:1 2:140 3:74 4:26 5:180 6:24.1 7:0.828 8:23 
0.5387945936898996 1:8 2:107 3:80 4:0 5:0 6:24.6 7:0.856 8:34 
0.5384119654359572 1:2 2:121 3:70 4:32 5:95 6:39.099998 7:0.886 8:23 
0.523466325784408 1:2 2:90 3:60 4:0 5:0 6:23.5 7:0.191 8:25 
0.4483514171304145 1:0 2:99 3:0 4:0 5:0 6:25 7:0.253 8:22 
0.5383017524518294 1:4 2:127 3:88 4:11 5:155 6:34.5 7:0.598 8:28 
0.5383024826618759 1:4 2:118 3:70 4:0 5:0 6:44.5 7:0.904 8:26 
0.5378439669497943 1:2 2:122 3:76 4:27 5:200 6:35.900002 7:0.483 8:26 
0.5380807741312343 1:2 2:129 3:0 4:0 5:0 6:38.5 7:0.304 8:41 
0.5383180681757381 1:4 2:110 3:76 4:20 5:100 6:28.4 7:0.118 8:27 
0.5380803170220916 1:6 2:80 3:80 4:36 5:0 6:39.799999 7:0.177 8:28 
0.5383017584329961 1:2 2:127 3:46 4:21 5:335 6:34.400002 7:0.176 8:22 
0.5376255258261216 1:3 2:158 3:64 4:13 5:387 6:31.200001 7:0.295 8:24 
0.5383306815797104 1:5 2:126 3:78 4:27 5:22 6:29.6 7:0.439 8:40 
0.5382970741415984 1:0 2:134 3:58 4:20 5:291 6:26.4 7:0.352 8:21 
0.5425468389854651 1:3 2:102 3:74 4:0 5:0 6:29.5 7:0.121 8:32 
0.5382989866501225 1:10 2:94 3:72 4:18 5:0 6:23.1 7:0.595 8:56 
0.5385527430555686 1:1 2:108 3:60 4:46 5:178 6:35.5 7:0.415 8:24 
0.5382173981478773 1:4 2:83 3:86 4:19 5:0 6:29.299999 7:0.317 8:34 
0.5383184030899871 1:1 2:114 3:66 4:36 5:200 6:38.099998 7:0.289 8:21 
0.538136145251902 1:5 2:117 3:86 4:30 5:105 6:39.099998 7:0.251 8:42 
0.5383021527195353 1:1 2:111 3:94 4:0 5:0 6:32.799999 7:0.265 8:45 
0.5383150968708298 1:4 2:112 3:78 4:40 5:0 6:39.400002 7:0.236 8:38 
0.5382721587698093 1:1 2:116 3:78 4:29 5:180 6:36.099998 7:0.496 8:25 
0.5385546809700751 1:0 2:141 3:84 4:26 5:0 6:32.400002 7:0.433 8:22 
0.5382754628684034 1:2 2:175 3:88 4:0 5:0 6:22.9 7:0.326 8:22 
0.5385526737610196 1:2 2:92 3:52 4:0 5:0 6:30.1 7:0.141 8:22 
0.5378039896188354 1:2 2:106 3:56 4:27 5:165 6:29 7:0.426 8:22 
0.540372340843835 1:2 2:105 3:75 4:0 5:0 6:23.299999 7:0.56 8:53 
0.538087486689986 1:4 2:95 3:60 4:32 5:0 6:35.400002 7:0.284 8:28 
0.538272521594466 1:0 2:126 3:86 4:27 5:120 6:27.4 7:0.515 8:21 
0.5383174329749133 1:8 2:65 3:72 4:23 5:0 6:32 7:0.6 8:42 
0.5383317852640489 1:2 2:99 3:60 4:17 5:160 6:36.599998 7:0.453 8:21 
0.5378563972779896 1:3 2:102 3:44 4:20 5:94 6:30.799999 7:0.4 8:26 
0.53814655009584 1:1 2:109 3:58 4:18 5:116 6:28.5 7:0.219 8:22 
0.5384781461639747 1:13 2:153 3:88 4:37 5:140 6:40.599998 7:1.174 8:39 
0.5383771082386841 1:12 2:100 3:84 4:33 5:105 6:30 7:0.488 8:46 
0.5385527905886898 1:1 2:81 3:74 4:41 5:57 6:46.299999 7:1.096 8:32 
0.5384665370875501 1:1 2:121 3:78 4:39 5:74 6:39 7:0.261 8:28 
0.4785155540745741 1:3 2:108 3:62 4:24 5:0 6:26 7:0.223 8:25 
0.5384821420372236 1:7 2:137 3:90 4:41 5:0 6:32 7:0.391 8:39 
0.5241295257807739 1:1 2:106 3:76 4:0 5:0 6:37.5 7:0.197 8:26 
0.5380955586915734 1:2 2:88 3:58 4:26 5:16 6:28.4 7:0.766 8:22 
0.51712106541729 1:9 2:89 3:62 4:0 5:0 6:22.5 7:0.142 8:33 
0.5384757819745829 1:10 2:101 3:76 4:48 5:180 6:32.900002 7:0.171 8:63 
0.537952298831998 1:2 2:122 3:70 4:27 5:0 6:36.799999 7:0.34 8:27 
0.5384644000656154 1:5 2:121 3:72 4:23 5:112 6:26.200001 7:0.245 8:30 
0.4864574966931622 1:1 2:93 3:70 4:31 5:0 6:30.4 7:0.315 8:23 
-1 1:6 2:148 3:72 4:35 5:0 6:33.599998 7:0.627 8:50 
-1 1:8 2:183 3:64 4:0 5:0 6:23.299999 7:0.672 8:32 
-1 1:0 2:137 3:40 4:35 5:168 6:43.099998 7:2.288 8:33 
-1 1:3 2:78 3:50 4:32 5:88 6:31 7:0.248 8:26 
-1 1:2 2:197 3:70 4:45 5:543 6:30.5 7:0.158 8:53 
-1 1:8 2:125 3:96 4:0 5:0 6:0 7:0.232 8:54 
-1 1:10 2:168 3:74 4:0 5:0 6:38 7:0.537 8:34 
-1 1:1 2:189 3:60 4:23 5:846 6:30.1 7:0.398 8:59 
-1 1:5 2:166 3:72 4:19 5:175 6:25.799999 7:0.587 8:51 
-1 1:7 2:100 3:0 4:0 5:0 6:30 7:0.484 8:32 
-1 1:0 2:118 3:84 4:47 5:230 6:45.799999 7:0.551 8:31 
-1 1:7 2:107 3:74 4:0 5:0 6:29.6 7:0.254 8:31 
-1 1:1 2:115 3:70 4:30 5:96 6:34.599998 7:0.529 8:32 
-1 1:7 2:196 3:90 4:0 5:0 6:39.799999 7:0.451 8:41 
-1 1:9 2:119 3:80 4:35 5:0 6:29 7:0.263 8:29 
-1 1:11 2:143 3:94 4:33 5:146 6:36.599998 7:0.254 8:51 
-1 1:10 2:125 3:70 4:26 5:115 6:31.1 7:0.205 8:41 
-1 1:7 2:147 3:76 4:0 5:0 6:39.400002 7:0.257 8:43 
-1 1:3 2:158 3:76 4:36 5:245 6:31.6 7:0.851 8:28 
-1 1:9 2:102 3:76 4:37 5:0 6:32.900002 7:0.665 8:46 
-1 1:2 2:90 3:68 4:42 5:0 6:38.200001 7:0.503 8:27 
-1 1:4 2:111 3:72 4:47 5:207 6:37.099998 7:1.39 8:56 
-1 1:9 2:171 3:110 4:24 5:240 6:45.400002 7:0.721 8:54 
-1 1:0 2:180 3:66 4:39 5:0 6:42 7:1.893 8:25 
-1 1:7 2:103 3:66 4:32 5:0 6:39.099998 7:0.344 8:31 
-1 1:8 2:176 3:90 4:34 5:300 6:33.700001 7:0.467 8:58 
-1 1:7 2:187 3:68 4:39 5:304 6:37.700001 7:0.254 8:41 
-1 1:8 2:133 3:72 4:0 5:0 6:32.900002 7:0.27 8:39 
-1 1:7 2:114 3:66 4:0 5:0 6:32.799999 7:0.258 8:42 
-1 1:0 2:109 3:88 4:30 5:0 6:32.5 7:0.855 8:38 
-1 1:2 2:100 3:66 4:20 5:90 6:32.900002 7:0.867 8:28 
-1 1:13 2:126 3:90 4:0 5:0 6:43.400002 7:0.583 8:42 
-1 1:0 2:131 3:0 4:0 5:0 6:43.200001 7:0.27 8:26 
-1 1:5 2:137 3:108 4:0 5:0 6:48.799999 7:0.227 8:37 
-1 1:15 2:136 3:70 4:32 5:110 6:37.099998 7:0.153 8:43 
-1 1:4 2:134 3:72 4:0 5:0 6:23.799999 7:0.277 8:60 
-1 1:1 2:122 3:90 4:51 5:220 6:49.700001 7:0.325 8:31 
-1 1:1 2:163 3:72 4:0 5:0 6:39 7:1.222 8:33 
-1 1:0 2:95 3:85 4:25 5:36 6:37.400002 7:0.247 8:24 
-1 1:3 2:171 3:72 4:33 5:135 6:33.299999 7:0.199 8:24 
-1 1:8 2:155 3:62 4:26 5:495 6:34 7:0.543 8:46 
-1 1:7 2:160 3:54 4:32 5:175 6:30.5 7:0.588 8:39 
-1 1:4 2:146 3:92 4:0 5:0 6:31.200001 7:0.539 8:61 
-1 1:5 2:124 3:74 4:0 5:0 6:34 7:0.22 8:38 
-1 1:0 2:162 3:76 4:56 5:100 6:53.200001 7:0.759 8:25 
-1 1:0 2:113 3:76 4:0 5:0 6:33.299999 7:0.278 8:23 
-1 1:1 2:88 3:30 4:42 5:99 6:55 7:0.496 8:26 
-1 1:1 2:117 3:88 4:24 5:145 6:34.5 7:0.403 8:40 
-1 1:0 2:105 3:84 4:0 5:0 6:27.9 7:0.741 8:62 
-1 1:4 2:173 3:70 4:14 5:168 6:29.700001 7:0.361 8:33 
-1 1:9 2:122 3:56 4:0 5:0 6:33.299999 7:1.114 8:33 
-1 1:3 2:170 3:64 4:37 5:225 6:34.5 7:0.356 8:30 
-1 1:10 2:108 3:66 4:0 5:0 6:32.400002 7:0.272 8:42 
-1 1:9 2:156 3:86 4:28 5:155 6:34.299999 7:1.189 8:42 
-1 1:8 2:188 3:78 4:0 5:0 6:47.900002 7:0.137 8:43 
-1 1:7 2:152 3:88 4:44 5:0 6:50 7:0.337 8:36 
-1 1:17 2:163 3:72 4:41 5:114 6:40.900002 7:0.817 8:47 
-1 1:0 2:131 3:88 4:0 5:0 6:31.6 7:0.743 8:32 
-1 1:6 2:104 3:74 4:18 5:156 6:29.9 7:0.722 8:41 
-1 1:6 2:102 3:82 4:0 5:0 6:30.799999 7:0.18 8:36 
-1 1:6 2:134 3:70 4:23 5:130 6:35.400002 7:0.542 8:29 
-1 1:8 2:179 3:72 4:42 5:130 6:32.700001 7:0.719 8:36 
-1 1:0 2:129 3:110 4:46 5:130 6:67.099998 7:0.319 8:26 
-1 1:5 2:130 3:82 4:0 5:0 6:39.099998 7:0.956 8:37 
-1 1:7 2:194 3:68 4:28 5:0 6:35.900002 7:0.745 8:41 
-1 1:8 2:181 3:68 4:36 5:495 6:30.1 7:0.615 8:60 
-1 1:1 2:128 3:98 4:41 5:58 6:32 7:1.321 8:33 
-1 1:8 2:109 3:76 4:39 5:114 6:27.9 7:0.64 8:31 
-1 1:5 2:139 3:80 4:35 5:160 6:31.6 7:0.361 8:25 
-1 1:7 2:159 3:66 4:0 5:0 6:30.4 7:0.383 8:36 
-1 1:11 2:135 3:0 4:0 5:0 6:52.299999 7:0.578 8:40 
-1 1:5 2:158 3:84 4:41 5:210 6:39.400002 7:0.395 8:29 
-1 1:3 2:107 3:62 4:13 5:48 6:22.9 7:0.678 8:23 
-1 1:4 2:109 3:64 4:44 5:99 6:34.799999 7:0.905 8:26 
-1 1:4 2:148 3:60 4:27 5:318 6:30.9 7:0.15 8:29 
-1 1:8 2:196 3:76 4:29 5:280 6:37.5 7:0.605 8:57 
-1 1:5 2:162 3:104 4:0 5:0 6:37.700001 7:0.151 8:52 
-1 1:7 2:184 3:84 4:33 5:0 6:35.5 7:0.355 8:41 
-1 1:0 2:140 3:65 4:26 5:130 6:42.599998 7:0.431 8:24 
-1 1:9 2:112 3:82 4:32 5:175 6:34.200001 7:0.26 8:36 
-1 1:12 2:151 3:70 4:40 5:271 6:41.799999 7:0.742 8:38 
-1 1:5 2:109 3:62 4:41 5:129 6:35.799999 7:0.514 8:25 
-1 1:5 2:85 3:74 4:22 5:0 6:29 7:1.224 8:32 
-1 1:5 2:112 3:66 4:0 5:0 6:37.799999 7:0.261 8:41 
-1 1:0 2:177 3:60 4:29 5:478 6:34.599998 7:1.072 8:21 
-1 1:2 2:158 3:90 4:0 5:0 6:31.6 7:0.805 8:66 
-1 1:3 2:162 3:52 4:38 5:0 6:37.200001 7:0.652 8:24 
-1 1:4 2:142 3:86 4:0 5:0 6:44 7:0.645 8:22 
-1 1:6 2:134 3:80 4:37 5:370 6:46.200001 7:0.238 8:46 
-1 1:4 2:171 3:72 4:0 5:0 6:43.599998 7:0.479 8:26 
-1 1:7 2:181 3:84 4:21 5:192 6:35.900002 7:0.586 8:51 
-1 1:0 2:179 3:90 4:27 5:0 6:44.099998 7:0.686 8:23 
-1 1:9 2:164 3:84 4:21 5:0 6:30.799999 7:0.831 8:32 
-1 1:3 2:139 3:54 4:0 5:0 6:25.6 7:0.402 8:22 
-1 1:6 2:119 3:50 4:22 5:176 6:27.1 7:1.318 8:33 
-1 1:9 2:184 3:85 4:15 5:0 6:30 7:1.213 8:49 
-1 1:12 2:92 3:62 4:7 5:258 6:27.6 7:0.926 8:44 
-1 1:1 2:113 3:64 4:35 5:0 6:33.599998 7:0.543 8:21 
-1 1:11 2:155 3:76 4:28 5:150 6:33.299999 7:1.353 8:51 
-1 1:3 2:141 3:0 4:0 5:0 6:30 7:0.761 8:27 
-1 1:4 2:123 3:62 4:0 5:0 6:32 7:0.226 8:35 
-1 1:0 2:138 3:0 4:0 5:0 6:36.299999 7:0.933 8:25 
-1 1:2 2:146 3:0 4:0 5:0 6:27.5 7:0.24 8:28 
-1 1:10 2:101 3:86 4:37 5:0 6:45.599998 7:1.136 8:38 
-1 1:7 2:106 3:60 4:24 5:0 6:26.5 7:0.296 8:29 
-1 1:0 2:146 3:70 4:0 5:0 6:37.900002 7:0.334 8:28 
-1 1:7 2:161 3:86 4:0 5:0 6:30.4 7:0.165 8:47 
-1 1:2 2:108 3:80 4:0 5:0 6:27 7:0.259 8:52 
-1 1:1 2:119 3:86 4:39 5:220 6:45.599998 7:0.808 8:29 
-1 1:0 2:107 3:62 4:30 5:74 6:36.599998 7:0.757 8:25 
-1 1:2 2:128 3:78 4:37 5:182 6:43.299999 7:1.224 8:31 
-1 1:1 2:128 3:48 4:45 5:194 6:40.5 7:0.613 8:24 
-1 1:2 2:146 3:70 4:38 5:360 6:28 7:0.337 8:29 
-1 1:14 2:100 3:78 4:25 5:184 6:36.599998 7:0.412 8:46 
-1 1:0 2:167 3:0 4:0 5:0 6:32.299999 7:0.839 8:30 
-1 1:2 2:144 3:58 4:33 5:135 6:31.6 7:0.422 8:25 
-1 1:5 2:115 3:98 4:0 5:0 6:52.900002 7:0.209 8:28 
-1 1:10 2:161 3:68 4:23 5:132 6:25.5 7:0.326 8:47 
-1 1:0 2:128 3:68 4:19 5:180 6:30.5 7:1.391 8:25 
-1 1:2 2:124 3:68 4:28 5:205 6:32.900002 7:0.875 8:30 
-1 1:2 2:155 3:74 4:17 5:96 6:26.6 7:0.433 8:27 
-1 1:7 2:109 3:80 4:31 5:0 6:35.900002 7:1.127 8:43 
-1 1:3 2:182 3:74 4:0 5:0 6:30.5 7:0.345 8:29 
-1 1:6 2:194 3:78 4:0 5:0 6:23.5 7:0.129 8:59 
-1 1:3 2:112 3:74 4:30 5:0 6:31.6 7:0.197 8:25 
-1 1:0 2:124 3:70 4:20 5:0 6:27.4 7:0.254 8:36 
-1 1:13 2:152 3:90 4:33 5:29 6:26.799999 7:0.731 8:43 
-1 1:1 2:122 3:64 4:32 5:156 6:35.099998 7:0.692 8:30 
-1 1:2 2:102 3:86 4:36 5:120 6:45.5 7:0.127 8:23 
-1 1:1 2:180 3:0 4:0 5:0 6:43.299999 7:0.282 8:41 
-1 1:5 2:115 3:76 4:0 5:0 6:31.200001 7:0.343 8:44 
-1 1:9 2:152 3:78 4:34 5:171 6:34.200001 7:0.893 8:33 
-1 1:7 2:178 3:84 4:0 5:0 6:39.900002 7:0.331 8:41 
-1 1:5 2:0 3:80 4:32 5:0 6:41 7:0.346 8:37 
-1 1:9 2:165 3:88 4:0 5:0 6:30.4 7:0.302 8:49 
-1 1:1 2:125 3:50 4:40 5:167 6:33.299999 7:0.962 8:28 
-1 1:13 2:129 3:0 4:30 5:0 6:39.900002 7:0.569 8:44 
-1 1:1 2:196 3:76 4:36 5:249 6:36.5 7:0.875 8:29 
-1 1:5 2:189 3:64 4:33 5:325 6:31.200001 7:0.583 8:29 
-1 1:4 2:146 3:78 4:0 5:0 6:38.5 7:0.52 8:67 
-1 1:6 2:124 3:72 4:0 5:0 6:27.6 7:0.368 8:29 
-1 1:1 2:133 3:102 4:28 5:140 6:32.799999 7:0.234 8:45 
-1 1:3 2:173 3:82 4:48 5:465 6:38.400002 7:2.137 8:25 
-1 1:12 2:140 3:82 4:43 5:325 6:39.200001 7:0.528 8:58 
-1 1:4 2:156 3:75 4:0 5:0 6:48.299999 7:0.238 8:32 
-1 1:5 2:116 3:74 4:29 5:0 6:32.299999 7:0.66 8:35 
-1 1:8 2:105 3:100 4:36 5:0 6:43.299999 7:0.239 8:45 
-1 1:5 2:144 3:82 4:26 5:285 6:32 7:0.452 8:58 
-1 1:5 2:166 3:76 4:0 5:0 6:45.700001 7:0.34 8:27 
-1 1:4 2:158 3:78 4:0 5:0 6:32.900002 7:0.803 8:31 
-1 1:0 2:131 3:66 4:40 5:0 6:34.299999 7:0.196 8:22 
-1 1:3 2:193 3:70 4:31 5:0 6:34.900002 7:0.241 8:25 
-1 1:4 2:95 3:64 4:0 5:0 6:32 7:0.161 8:31 
-1 1:5 2:136 3:84 4:41 5:88 6:35 7:0.286 8:35 
-1 1:5 2:168 3:64 4:0 5:0 6:32.900002 7:0.135 8:41 
-1 1:4 2:115 3:72 4:0 5:0 6:28.9 7:0.376 8:46 
-1 1:8 2:197 3:74 4:0 5:0 6:25.9 7:1.191 8:39 
-1 1:1 2:172 3:68 4:49 5:579 6:42.400002 7:0.702 8:28 
-1 1:0 2:138 3:60 4:35 5:167 6:34.599998 7:0.534 8:21 
-1 1:3 2:173 3:84 4:33 5:474 6:35.700001 7:0.258 8:22 
-1 1:4 2:144 3:82 4:32 5:0 6:38.5 7:0.554 8:37 
-1 1:3 2:129 3:64 4:29 5:115 6:26.4 7:0.219 8:28 
-1 1:8 2:151 3:78 4:32 5:210 6:42.900002 7:0.516 8:36 
-1 1:4 2:184 3:78 4:39 5:277 6:37 7:0.264 8:31 
-1 1:1 2:181 3:64 4:30 5:180 6:34.099998 7:0.328 8:38 
-1 1:1 2:95 3:82 4:25 5:180 6:35 7:0.233 8:43 
-1 1:0 2:141 3:0 4:0 5:0 6:42.400002 7:0.205 8:29 
-1 1:0 2:189 3:104 4:25 5:0 6:34.299999 7:0.435 8:41 
-1 1:8 2:108 3:70 4:0 5:0 6:30.5 7:0.955 8:33 
-1 1:4 2:117 3:62 4:12 5:0 6:29.700001 7:0.38 8:30 
-1 1:0 2:180 3:78 4:63 5:14 6:59.400002 7:2.42 8:25 
-1 1:0 2:104 3:64 4:37 5:64 6:33.599998 7:0.51 8:22 
-1 1:2 2:134 3:70 4:0 5:0 6:28.9 7:0.542 8:23 
-1 1:14 2:175 3:62 4:30 5:0 6:33.599998 7:0.212 8:38 
-1 1:10 2:148 3:84 4:48 5:237 6:37.599998 7:1.001 8:51 
-1 1:8 2:120 3:0 4:0 5:0 6:30 7:0.183 8:38 
-1 1:2 2:105 3:80 4:45 5:191 6:33.700001 7:0.711 8:29 
-1 1:3 2:158 3:70 4:30 5:328 6:35.5 7:0.344 8:35 
-1 1:0 2:145 3:0 4:0 5:0 6:44.200001 7:0.63 8:31 
-1 1:0 2:135 3:68 4:42 5:250 6:42.299999 7:0.365 8:24 
-1 1:4 2:125 3:70 4:18 5:122 6:28.9 7:1.144 8:45 
-1 1:7 2:195 3:70 4:33 5:145 6:25.1 7:0.163 8:55 
-1 1:6 2:0 3:68 4:41 5:0 6:39 7:0.727 8:41 
-1 1:0 2:180 3:90 4:26 5:90 6:36.5 7:0.314 8:35 
-1 1:12 2:84 3:72 4:31 5:0 6:29.700001 7:0.297 8:46 
-1 1:3 2:163 3:70 4:18 5:105 6:31.6 7:0.268 8:28 
-1 1:9 2:145 3:88 4:34 5:165 6:30.299999 7:0.771 8:53 
-1 1:9 2:130 3:70 4:0 5:0 6:34.200001 7:0.652 8:45 
-1 1:4 2:132 3:0 4:0 5:0 6:32.900002 7:0.302 8:23 
-1 1:3 2:129 3:92 4:49 5:155 6:36.400002 7:0.968 8:32 
-1 1:8 2:100 3:74 4:40 5:215 6:39.400002 7:0.661 8:43 
-1 1:3 2:128 3:72 4:25 5:190 6:32.400002 7:0.549 8:27 
-1 1:10 2:90 3:85 4:32 5:0 6:34.900002 7:0.825 8:56 
-1 1:8 2:186 3:90 4:35 5:225 6:34.5 7:0.423 8:37 
-1 1:5 2:187 3:76 4:27 5:207 6:43.599998 7:1.034 8:53 
-1 1:6 2:125 3:76 4:0 5:0 6:33.799999 7:0.121 8:54 
-1 1:0 2:198 3:66 4:32 5:274 6:41.299999 7:0.502 8:28 
-1 1:0 2:121 3:66 4:30 5:165 6:34.299999 7:0.203 8:33 
-1 1:2 2:118 3:80 4:0 5:0 6:42.900002 7:0.693 8:21 
-1 1:2 2:197 3:70 4:99 5:0 6:34.700001 7:0.575 8:62 
-1 1:0 2:151 3:90 4:46 5:0 6:42.099998 7:0.371 8:21 
-1 1:8 2:124 3:76 4:24 5:600 6:28.700001 7:0.687 8:52 
-1 1:8 2:143 3:66 4:0 5:0 6:34.900002 7:0.129 8:41 
-1 1:3 2:176 3:86 4:27 5:156 6:33.299999 7:1.154 8:52 
-1 1:11 2:111 3:84 4:40 5:0 6:46.799999 7:0.925 8:45 
-1 1:3 2:132 3:80 4:0 5:0 6:34.400002 7:0.402 8:44 
-1 1:0 2:188 3:82 4:14 5:185 6:32 7:0.682 8:22 
-1 1:1 2:173 3:74 4:0 5:0 6:36.799999 7:0.088 8:38 
-1 1:7 2:150 3:78 4:29 5:126 6:35.200001 7:0.692 8:54 
-1 1:4 2:183 3:0 4:0 5:0 6:28.4 7:0.212 8:36 
-1 1:1 2:181 3:78 4:42 5:293 6:40 7:1.258 8:22 
-1 1:3 2:174 3:58 4:22 5:194 6:32.900002 7:0.593 8:36 
-1 1:7 2:168 3:88 4:42 5:321 6:38.200001 7:0.787 8:40 
-1 1:11 2:138 3:74 4:26 5:144 6:36.099998 7:0.557 8:50 
-1 1:9 2:112 3:82 4:24 5:0 6:28.200001 7:1.282 8:50 
-1 1:0 2:119 3:0 4:0 5:0 6:32.400002 7:0.141 8:24 
-1 1:7 2:114 3:64 4:0 5:0 6:27.4 7:0.732 8:34 
-1 1:13 2:104 3:72 4:0 5:0 6:31.200001 7:0.465 8:38 
-1 1:7 2:97 3:76 4:32 5:91 6:40.900002 7:0.871 8:32 
-1 1:6 2:147 3:80 4:0 5:0 6:29.5 7:0.178 8:50 
-1 1:1 2:167 3:74 4:17 5:144 6:23.4 7:0.447 8:33 
-1 1:0 2:179 3:50 4:36 5:159 6:37.799999 7:0.455 8:22 
-1 1:11 2:136 3:84 4:35 5:130 6:28.299999 7:0.26 8:42 
-1 1:2 2:155 3:52 4:27 5:540 6:38.700001 7:0.24 8:25 
-1 1:3 2:80 3:82 4:31 5:70 6:34.200001 7:1.292 8:27 
-1 1:1 2:199 3:76 4:43 5:0 6:42.900002 7:1.394 8:22 
-1 1:8 2:167 3:106 4:46 5:231 6:37.599998 7:0.165 8:43 
-1 1:9 2:145 3:80 4:46 5:130 6:37.900002 7:0.637 8:40 
-1 1:6 2:115 3:60 4:39 5:0 6:33.700001 7:0.245 8:40 
-1 1:4 2:145 3:82 4:18 5:0 6:32.5 7:0.235 8:70 
-1 1:10 2:111 3:70 4:27 5:0 6:27.5 7:0.141 8:40 
-1 1:6 2:195 3:70 4:0 5:0 6:30.9 7:0.328 8:31 
-1 1:9 2:156 3:86 4:0 5:0 6:24.799999 7:0.23 8:53 
-1 1:3 2:121 3:52 4:0 5:0 6:36 7:0.127 8:25 
-1 1:0 2:162 3:76 4:36 5:0 6:49.599998 7:0.364 8:26 
-1 1:4 2:125 3:80 4:0 5:0 6:32.299999 7:0.536 8:27 
-1 1:1 2:144 3:82 4:46 5:180 6:46.099998 7:0.335 8:46 
-1 1:13 2:158 3:114 4:0 5:0 6:42.299999 7:0.257 8:44 
-1 1:7 2:129 3:68 4:49 5:125 6:38.5 7:0.439 8:43 
-1 1:7 2:142 3:90 4:24 5:480 6:30.4 7:0.128 8:43 
-1 1:3 2:169 3:74 4:19 5:125 6:29.9 7:0.268 8:31 
-1 1:6 2:125 3:78 4:31 5:0 6:27.6 7:0.565 8:49 
-1 1:1 2:168 3:88 4:29 5:0 6:35 7:0.905 8:52 
-1 1:10 2:115 3:0 4:0 5:0 6:0 7:0.261 8:30 
-1 1:9 2:164 3:78 4:0 5:0 6:32.799999 7:0.148 8:45 
-1 1:2 2:93 3:64 4:32 5:160 6:38 7:0.674 8:23 
-1 1:10 2:129 3:62 4:36 5:0 6:41.200001 7:0.441 8:38 
-1 1:7 2:187 3:50 4:33 5:392 6:33.900002 7:0.826 8:34 
-1 1:3 2:173 3:78 4:39 5:185 6:33.799999 7:0.97 8:31 
-1 1:5 2:97 3:76 4:27 5:0 6:35.599998 7:0.378 8:52 
-1 1:1 2:149 3:68 4:29 5:127 6:29.299999 7:0.349 8:42 
-1 1:3 2:130 3:78 4:23 5:79 6:28.4 7:0.323 8:34 
-1 1:8 2:120 3:86 4:0 5:0 6:28.4 7:0.259 8:22 
-1 1:2 2:174 3:88 4:37 5:120 6:44.5 7:0.646 8:24 
-1 1:1 2:102 3:74 4:0 5:0 6:39.5 7:0.293 8:42 
-1 1:11 2:120 3:80 4:37 5:150 6:42.299999 7:0.785 8:48 
-1 1:9 2:140 3:94 4:0 5:0 6:32.700001 7:0.734 8:45 
-1 1:1 2:147 3:94 4:41 5:0 6:49.299999 7:0.358 8:27 
-1 1:3 2:187 3:70 4:22 5:200 6:36.400002 7:0.408 8:36 
-1 1:6 2:162 3:62 4:0 5:0 6:24.299999 7:0.178 8:50 
-1 1:4 2:136 3:70 4:0 5:0 6:31.200001 7:1.182 8:22 
-1 1:0 2:181 3:88 4:44 5:510 6:43.299999 7:0.222 8:26 
-1 1:8 2:154 3:78 4:32 5:0 6:32.400002 7:0.443 8:45 
-1 1:1 2:128 3:88 4:39 5:110 6:36.5 7:1.057 8:37 
-1 1:0 2:123 3:72 4:0 5:0 6:36.299999 7:0.258 8:52 
-1 1:6 2:190 3:92 4:0 5:0 6:35.5 7:0.278 8:66 
-1 1:9 2:170 3:74 4:31 5:0 6:44 7:0.403 8:43 
-1 1:1 2:126 3:60 4:0 5:0 6:30.1 7:0.349 8:47 
