svm_type c_svc
kernel_type rbf
gamma 0.0714286
nr_class 2
total_sv 148
rho 0.0801341
label 1 -1
nr_sv 73 75
SV
0.06108601741247111 1:-1 2:-0.800247 3:-0.178571 4:-1 5:-0.384615 6:-0.5 7:-1 8:1 9:1 10:-0.671642 11:1 13:-1 14:-1 
1 1:1 2:0.0113706 3:-0.568571 4:1 5:-0.538462 6:-0.25 7:-0.997193 8:-1 9:-1 10:-1 11:-1 13:-1 14:-0.894716 
0.597334127185339 1:1 2:-0.446835 3:-0.782857 4:-1 5:0.0769231 6:0.75 7:-0.856842 8:1 9:1 10:-0.970149 11:1 13:-0.82 14:-0.294442 
1 1:1 2:-0.69791 3:-0.107143 4:1 5:-0.230769 6:-0.25 7:-0.789474 8:1 9:-1 10:-1 11:1 12:-1 13:-0.98 14:-1 
0.08202465015994158 1:-1 2:-0.00891231 3:-0.785714 4:1 5:1 6:-0.25 7:-0.0263158 8:1 9:1 10:-0.940299 11:1 13:-0.481 14:-0.933307 
1 1:1 2:-0.754149 3:-1 4:1 5:0.846154 6:-0.25 7:-0.994035 8:1 9:-1 10:-1 11:-1 13:-1 14:-1 
1 1:1 2:-0.969269 3:-0.997143 4:1 5:0.0769231 6:-0.25 7:-0.997193 8:-1 9:-1 10:-1 11:-1 13:-1 14:-1 
1 1:1 2:-0.16011 3:-0.648929 4:-1 5:0.230769 6:-0.25 7:-0.777895 8:1 9:-1 10:-1 11:1 13:-0.948 14:-0.943562 
1 1:1 2:-0.897665 3:-0.857143 4:1 5:-0.692308 6:-0.25 7:-0.894737 8:1 9:1 10:-0.940299 11:-1 13:-0.88 14:-0.988258 
1 1:-1 2:-0.713276 3:-0.964286 4:1 5:0.538462 6:0.75 7:-0.894737 8:1 9:-1 10:-1 11:-1 13:-0.72 14:-0.96775 
1 1:1 2:-0.311309 3:-1 4:1 5:0.0769231 6:-0.25 7:-1 8:-1 9:-1 10:-1 11:-1 12:1 13:-0.816 14:-1 
1 1:-1 2:-0.0218194 3:-0.0714286 4:1 5:-0.692308 7:-0.637544 8:1 9:1 10:-0.731343 11:1 13:-1 14:-1 
1 1:1 2:-0.416104 3:-0.625 4:1 5:0.230769 6:-0.25 7:-0.994035 8:-1 9:-1 10:-1 11:1 13:-0.71 14:-0.999765 
1 1:1 2:-0.813153 3:-0.892857 4:1 5:0.230769 6:-0.25 7:-0.894737 8:-1 9:-1 10:-1 11:-1 13:-0.85 14:-0.999687 
1 1:1 2:-0.277812 3:-0.985 4:1 5:-0.538462 6:-0.25 7:-0.994035 8:1 9:-1 10:-1 11:1 13:-0.72 14:-1 
1 1:1 2:-0.615857 3:-0.0178571 4:1 5:0.230769 6:-0.25 7:-0.596491 8:1 9:-1 10:-1 11:1 13:-0.513 14:-0.980431 
1 1:-1 2:-0.69791 3:-0.9375 4:1 5:1 6:0.75 7:-0.927018 8:1 9:-1 10:-1 11:1 13:-0.84 14:-0.770646 
1 1:-1 2:0.0651505 3:-0.0296429 4:1 5:-0.538462 6:0.75 7:-0.403509 8:1 9:-1 10:-1 11:1 13:-1 14:-1 
0.4223740017149605 1:1 2:-0.418869 3:-0.994286 4:-1 5:-0.0769231 7:-0.997193 8:1 9:1 10:-0.970149 11:1 13:-0.72 14:-0.921722 
0.4986626014100655 1:-1 2:-0.505839 3:-0.732143 4:1 5:0.846154 6:0.75 7:-0.95614 8:1 9:1 10:-0.731343 11:1 13:-0.819 14:-1 
1 1:-1 2:-0.0525508 3:-0.714286 4:1 5:-0.384615 6:-0.5 7:-1 8:1 9:-1 10:-1 11:-1 13:-0.9 14:-0.962427 
1 1:1 2:-0.820836 3:-0.785714 4:-1 5:-0.846154 6:-0.25 7:-0.92386 8:1 9:1 10:-0.761194 11:1 13:-0.84 14:-0.999961 
1 1:-1 2:-0.0500922 3:-0.785714 4:1 5:0.0769231 6:-0.25 7:-0.833333 8:1 9:1 10:-0.761194 11:1 13:-0.604 14:-0.837221 
0.02254513015840142 1:1 2:0.89244 3:0.592143 4:1 5:0.384615 6:1 7:-0.105263 8:1 9:1 10:-0.970149 11:1 13:-1 14:-0.995734 
1 1:1 2:-0.754149 3:-1 4:1 5:0.0769231 6:-0.25 7:-1 8:-1 9:-1 10:-1 11:-1 12:1 13:-0.816 14:-1 
1 1:1 2:-0.877074 3:-1 4:-1 5:-0.0769231 7:-1 8:-1 9:-1 10:-1 11:1 12:-1 13:-0.5 14:-0.999961 
1 1:1 2:-0.91303 3:-0.988214 4:1 5:0.538462 6:0.5 7:-0.985263 8:-1 9:-1 10:-1 11:-1 13:-0.8 14:-0.998434 
0.3123039048004636 1:1 2:-0.405962 3:-0.711429 4:-1 5:-0.692308 7:-0.403509 8:1 9:1 10:-0.791045 11:1 13:-0.805 14:-1 
1 1:-1 2:-0.774739 3:-0.395714 4:-1 5:1 6:-0.25 7:-0.827368 8:-1 9:-1 10:-1 11:-1 13:-0.836 14:-1 
1 1:1 2:-0.170252 3:-0.64 4:1 5:0.538462 6:0.75 7:-0.105263 8:1 9:-1 10:-1 11:1 13:-0.908 14:-1 
1 1:1 2:-0.718501 3:-0.526786 4:-1 5:-0.846154 6:-0.25 7:-0.614035 8:1 9:-1 10:-1 11:1 12:-1 13:-0.9 14:-1 
1 1:1 2:-0.749232 3:-0.169643 4:-1 5:0.230769 6:-0.25 7:-0.941404 8:1 9:-1 10:-1 11:1 13:-0.84 14:-0.988258 
1 1:1 2:-0.446835 3:-0.925714 4:1 5:0.692308 6:0.75 7:-0.54386 8:1 9:-1 10:-1 11:1 13:-0.836 14:0.224462 
0.8761171616753723 1:-1 2:-0.559619 3:-0.967143 4:1 5:-0.538462 6:-0.25 7:-0.962105 8:1 9:1 10:-0.880597 11:-1 13:-0.62 14:-0.980431 
1 1:1 2:0.206208 3:-0.964286 4:-1 5:-0.538462 6:0.75 7:-0.722105 8:1 9:-1 10:-1 11:-1 13:-0.82 14:-0.98771 
1 1:1 2:-0.843884 3:-0.288571 4:1 5:0.384615 6:-0.75 7:-1 8:1 9:-1 10:-1 11:-1 13:-1 14:-1 
0.04908478197336277 1:-1 2:-0.764597 3:-0.836429 4:1 5:0.538462 6:0.75 7:-0.839298 8:1 9:1 10:-0.791045 11:1 13:-0.86 14:-0.906693 
0.5804748825132275 1:1 2:0.26767 3:1 4:-1 5:0.0769231 6:-0.25 7:1 8:1 9:1 10:0.19403 11:-1 13:-1 14:-0.999413 
1 1:-1 2:0.503073 3:-0.988214 4:1 5:-1 6:-1 7:-1 8:1 9:1 10:-0.970149 11:-1 13:-0.768 14:-0.996086 
1 1:1 2:0.0190535 3:-0.142857 4:1 5:-0.0769231 6:-0.25 7:0.122807 8:1 9:-1 10:-1 11:-1 12:-1 13:-0.89 14:-1 
1 1:-1 2:-0.603258 3:0.0714286 4:-1 5:0.384615 6:1 7:-1 8:1 9:-1 10:-1 11:-1 13:-1 14:-0.482896 
0.4222360604088919 1:1 2:-0.385373 3:-0.821429 4:1 5:-0.538462 6:-0.25 7:-0.684211 8:1 9:1 10:-0.791045 11:-1 13:-0.85 14:-0.950294 
1 1:1 2:-0.605717 3:-0.857143 4:1 5:-0.538462 6:0.75 7:-0.707719 8:1 9:1 10:-0.940299 11:1 13:-0.819 14:-1 
1 1:1 2:-0.190843 3:-0.89 4:1 5:-0.692308 7:-0.754386 8:-1 9:-1 10:-1 11:-1 13:-0.784 14:-1 
1 1:1 2:-0.313768 3:-0.919643 4:-1 5:-0.846154 6:-0.25 7:-0.894737 8:-1 9:-1 10:-1 11:1 13:-0.569 14:-1 
1 1:1 2:0.0242777 3:-0.696429 4:1 5:-0.0769231 6:-0.25 7:-0.991228 8:1 9:-1 10:-1 11:1 13:-0.775 14:-1 
1 1:1 2:-0.769514 3:-0.25 4:1 5:0.538462 6:0.75 7:-0.906316 8:1 9:-1 10:-1 11:-1 13:-0.9 14:-1 
1 1:-1 2:-0.695452 3:-0.818571 4:-1 5:-0.230769 6:-0.25 7:-0.982456 8:1 9:-1 10:-1 11:1 13:-0.63 14:-1 
0.8541778021097568 1:1 2:-0.349723 3:-0.848214 4:-1 5:0.230769 6:-0.25 7:-0.994035 8:1 9:1 10:-0.970149 11:-1 13:-0.95 14:-0.953542 
1 1:1 2:-0.751691 3:-0.928571 4:1 5:0.0769231 6:-0.25 7:-0.941404 8:1 9:-1 10:-1 11:-1 12:-1 13:-0.7 14:-1 
1 1:-1 2:-0.849109 3:-0.991071 4:1 5:0.538462 6:-0.25 7:-0.929825 8:-1 9:1 10:-0.970149 11:-1 13:-0.76 14:-0.969941 
0.09661384460922946 1:1 2:0.0165949 3:0.791786 4:1 5:0.230769 6:-0.25 7:-0.877193 8:1 9:1 10:-0.910448 11:-1 13:-0.88 14:-0.999452 
1 1:1 2:-0.196066 3:-1 4:1 5:0.0769231 7:0.0526316 8:1 9:-1 10:-1 11:-1 13:-1 14:-1 
1 1:1 2:-0.792564 3:-0.961429 4:-1 5:1 6:-0.25 7:-0.997193 8:1 9:1 10:-0.970149 11:1 13:-0.16 14:-0.997691 
1 1:1 2:-0.413645 3:-0.785714 4:1 5:0.846154 6:0.75 7:-0.479649 8:1 9:-1 10:-1 11:1 13:-1 14:-1 
1 1:1 2:-0.810695 3:-0.25 4:1 5:0.0769231 6:-0.25 7:-0.789474 8:1 9:-1 10:-1 11:1 13:-1 14:-1 
1 1:1 2:-0.795329 3:-0.982143 4:1 5:-0.846154 6:0.75 7:-0.953333 8:1 9:-1 10:-1 11:1 13:-1 14:-1 
0.4778829178296535 1:-1 2:0.0728333 3:-0.104286 4:1 5:-0.230769 6:-0.25 7:-0.839298 8:1 9:1 10:-0.910448 11:1 13:-0.844 14:-1 
0.020075391100338 1:1 2:-0.787647 3:-0.214286 4:1 5:0.846154 6:-0.25 7:-0.953333 8:1 9:-1 10:-1 11:-1 13:-0.9 14:-1 
0.6568104186978071 1:1 2:0.211125 3:-0.3275 4:1 5:-1 6:-1 7:0.0115789 8:1 9:1 10:-0.671642 11:1 13:-0.97 14:-0.988258 
1 1:1 2:-0.910571 3:-0.607143 4:1 5:-0.538462 6:-0.25 7:-0.964912 8:1 9:-1 10:-1 11:-1 13:-0.92 14:-1 
0.68374674119111 1:1 2:-0.339275 3:-0.684643 4:-1 5:-0.538462 6:-0.25 7:-0.982456 8:1 9:1 10:-0.701493 11:1 13:-0.68 14:-1 
1 1:1 2:-0.846343 3:-0.598214 4:1 5:0.230769 6:-0.25 7:-0.88 8:1 9:-1 10:-1 11:-1 12:-1 13:-0.88 14:-1 
1 1:1 2:-0.751691 3:-0.714286 4:1 5:0.0769231 7:-0.982456 8:1 9:-1 10:-1 11:1 13:-0.84 14:-1 
1 1:-1 2:-0.887523 3:-0.684643 4:-1 5:0.0769231 6:0.75 7:-0.789474 8:1 9:-1 10:-1 11:-1 13:-0.76 14:-1 
1 1:1 2:-0.769514 3:-0.988214 4:1 5:0.0769231 6:-0.5 7:-0.842105 8:-1 9:-1 10:-1 11:1 12:-1 13:-1 14:-1 
1 1:-1 2:-0.336817 3:-0.633929 4:1 5:0.384615 6:-0.25 7:-0.649123 8:1 9:-1 10:-1 11:1 13:-1 14:-0.843444 
0.6988931216069358 1:1 2:0.615857 3:-0.607143 4:1 5:0.384615 6:1 7:-0.0877193 8:1 9:1 10:-0.970149 11:1 13:-1 14:-1 
1 1:-1 2:-0.826061 3:-0.785714 4:1 5:-0.230769 6:-0.25 7:-0.997193 8:1 9:-1 10:-1 11:-1 13:-0.9 14:-1 
1 1:1 2:-0.385373 3:-0.678571 4:1 5:1 6:0.75 7:-0.596491 8:-1 9:-1 10:-1 11:1 12:-1 13:-0.289 14:-1 
0.8538966684479132 1:1 2:-0.598034 3:-0.9375 4:1 5:-0.0769231 6:-0.25 7:-0.932632 8:1 9:1 10:-0.910448 11:1 13:-0.604 14:-1 
1 1:1 2:0.790104 3:0.267857 4:1 5:-1 6:-1 7:-1 8:1 9:-1 10:-1 11:1 13:-1 14:-1 
1 1:-1 2:-0.680087 3:-1 4:1 5:0.0769231 6:-0.25 7:-1 8:-1 9:-1 10:-1 11:-1 12:1 13:-0.816 14:-1 
-1 1:-1 2:0.247081 3:-0.494286 4:1 5:-0.538462 6:0.75 7:-0.526316 8:1 9:1 10:-0.910448 11:1 13:-0.9 14:-0.998043 
-1 1:1 2:-0.830978 3:-0.910714 4:-1 5:0.0769231 6:0.75 7:-0.903509 8:1 9:1 10:-0.910448 11:1 13:-0.86 14:-0.991781 
-1 1:-1 2:-0.877074 3:-0.958214 4:-1 5:-0.230769 6:-0.25 7:-0.958947 8:1 9:-1 10:-1 11:1 13:-0.84 14:-1 
-1 1:1 2:-0.188383 3:-0.875 4:1 5:-0.538462 6:-0.25 7:-0.985263 8:1 9:-1 10:-1 11:-1 13:-0.84 14:-1 
-0.01664376811496813 1:-1 2:-0.83866 3:-0.25 4:-1 5:1 6:0.75 7:-1 8:-1 9:-1 10:-1 11:1 13:-0.846 14:-0.998748 
-1 1:1 2:0.141979 3:-0.901786 4:-1 5:0.0769231 6:0.75 7:-0.33614 8:1 9:-1 10:-1 11:1 13:-0.8 14:-0.996086 
-1 1:1 2:-0.149969 3:-0.910714 4:1 5:-0.0769231 6:-0.25 7:-0.0263158 8:-1 9:1 10:-0.970149 11:1 13:-0.648 14:-0.995616 
-0.6850491771131301 1:1 2:0.833436 3:0.357143 4:-1 5:-1 6:-1 7:-0.997193 8:-1 9:1 10:-0.940299 11:-1 13:-1 14:-0.986262 
-1 1:1 2:0.480025 3:-0.961429 4:1 5:0.0769231 6:-0.25 7:-0.958947 8:1 9:1 10:-0.910448 11:1 13:-0.82 14:-1 
-0.133986610268356 1:-1 2:-0.559619 3:-0.857143 4:-1 5:0.384615 6:0.75 7:-0.859649 8:-1 9:-1 10:-1 11:-1 13:-0.744 14:-0.999335 
-0.9292505154935501 1:1 2:-0.618623 3:-0.767857 4:-1 5:0.538462 6:0.75 7:-0.643158 8:-1 9:1 10:-0.940299 11:1 13:-0.631 14:-0.999961 
-1 1:1 2:-0.80547 3:-0.178571 4:1 5:-0.692308 6:-0.25 7:-0.964912 8:1 9:-1 10:-1 11:1 13:-0.9 14:-0.997339 
-1 1:1 2:0.0319606 3:0.881071 4:-1 5:-1 6:-1 7:-1 8:1 9:-1 10:-1 11:1 13:-1 14:-1 
-0.8951812552008837 1:-1 2:-0.531347 3:-0.901786 4:1 5:0.230769 6:0.75 7:-0.997193 8:-1 9:1 10:-0.910448 11:-1 13:-1 14:-0.998708 
-1 1:-1 2:-0.385373 3:-0.732143 4:1 5:-1 6:-1 7:-1 8:-1 9:1 10:-0.820896 11:-1 13:-1 14:-0.992172 
-1 1:-1 2:-0.705593 3:-0.0239286 4:1 5:0.538462 6:0.75 7:-0.894737 8:-1 9:-1 10:-1 11:-1 13:-0.72 14:-0.999961 
-1 1:-1 2:-0.907806 3:-0.285714 4:-1 5:0.538462 6:0.75 7:-0.988421 8:-1 9:-1 10:-1 11:-1 13:-0.66 14:-1 
-0.5878262730548964 1:1 2:-0.882299 3:-1 4:-1 5:-1 6:-1 7:-1 8:-1 9:1 10:-0.880597 11:-1 13:-0.955 14:-0.999961 
-1 1:1 2:-0.61094 3:-0.714286 4:-1 5:-0.692308 6:0.75 7:-0.596491 8:1 9:1 10:-0.940299 11:1 13:-0.925 14:-1 
-0.5723043823690553 1:1 2:-0.830978 3:-0.940357 4:-1 5:0.0769231 6:-0.25 7:-0.859649 8:-1 9:-1 10:-1 11:1 12:-1 13:-0.76 14:-1 
-0.01338309204821338 1:-1 2:-0.826061 3:-0.964286 4:-1 5:0.384615 6:-0.75 7:-0.929825 8:-1 9:-1 10:-1 11:-1 13:-0.74 14:-1 
-1 1:1 2:-0.208666 3:-0.940357 4:1 5:-1 6:-1 7:-1 8:1 9:-1 10:-1 11:-1 13:-0.87 14:-0.999961 
-1 1:1 2:-0.861709 3:-0.285714 4:-1 5:-0.538462 6:0.75 7:-0.941404 8:1 9:-1 10:-1 11:1 13:-0.86 14:-1 
-0.8213167045320138 1:1 2:-0.887523 3:-0.747143 4:-1 5:-1 6:-1 7:-1 8:-1 9:-1 10:-1 11:1 13:-0.82 14:-0.999961 
-1 1:-1 2:-0.976952 3:-0.794643 4:1 5:0.538462 6:-0.25 7:-0.994035 8:-1 9:-1 10:-1 11:-1 13:-0.88 14:-1 
-1 1:1 2:-0.395821 3:-0.714286 4:1 5:-0.846154 7:-0.122807 8:1 9:-1 10:-1 11:1 13:-0.816 14:-1 
-1 1:1 2:-0.078058 3:-0.892857 4:1 5:0.0769231 6:-0.25 7:-0.824561 8:1 9:-1 10:-1 11:1 13:-0.86 14:-1 
-0.5462027845053146 1:1 2:-1 3:-0.5 4:1 5:0.384615 6:-0.25 7:-0.929825 8:-1 9:-1 10:-1 11:-1 13:-0.4 14:-1 
-0.2982287372900584 1:1 2:-0.313768 3:-0.940357 4:1 5:0.384615 6:-0.25 7:-0.997193 8:-1 9:-1 10:-1 11:-1 13:-0.88 14:-0.999804 
-0.3345408006220861 1:1 2:0.00368775 3:-0.7025 4:1 5:1 7:-0.994035 8:-1 9:-1 10:-1 11:1 13:-0.48 14:-1 
-1 1:1 2:-0.152428 3:-0.785714 4:1 5:-0.692308 7:-0.929825 8:1 9:-1 10:-1 11:-1 13:-1 14:-0.992172 
-1 1:1 2:-0.900123 3:-0.256071 4:-1 5:-0.230769 6:-0.25 7:-0.991228 8:1 9:-1 10:-1 11:-1 13:-0.88 14:-0.985323 
-1 1:-1 2:-0.615857 3:-0.892857 4:1 5:-0.0769231 6:-0.25 7:-0.859649 8:1 9:-1 10:-1 11:-1 12:-1 13:-0.632 14:-1 
-1 1:1 2:0.454517 3:-0.0892857 4:-1 5:0.0769231 6:0.75 7:-0.649123 8:1 9:-1 10:-1 11:-1 13:-0.888 14:-1 
-1 1:1 2:-0.382913 3:-0.773929 4:1 5:1 6:0.75 7:-0.736842 8:1 9:-1 10:-1 11:1 13:-0.32 14:-1 
-0.02947420762930668 1:-1 2:0.28027 3:-0.696429 4:-1 5:-1 6:-1 7:-0.649123 8:-1 9:-1 10:-1 11:1 13:-1 14:-0.999843 
-1 1:-1 2:-0.42901 3:-0.946429 4:1 5:-0.538462 7:-0.929825 8:1 9:1 10:-0.910448 11:1 13:-0.788 14:-1 
-1 1:1 2:-0.523664 3:-0.821429 4:1 5:0.846154 6:0.75 7:-0.842105 8:-1 9:-1 10:-1 11:1 12:-1 13:-0.66 14:-1 
-1 1:1 2:-0.323909 3:-0.714286 4:1 5:0.0769231 7:-0.649123 8:1 9:-1 10:-1 11:1 12:-1 13:-0.72 14:-1 
-1 1:1 2:-0.659496 3:-0.89 4:1 5:0.230769 6:-0.25 7:-0.991228 8:-1 9:-1 10:-1 11:-1 13:-0.9 14:-1 
-1 1:-1 2:-0.587892 3:-0.747143 4:1 5:-0.692308 7:-0.964912 8:1 9:-1 10:-1 11:1 13:-0.829 14:-1 
-1 1:1 2:-0.403504 3:-1 4:1 5:0.0769231 6:-0.25 7:-1 8:-1 9:-1 10:-1 11:-1 12:1 13:-0.816 14:-1 
-1 1:1 2:-0.746466 3:-0.958214 4:1 5:0.0769231 6:0.75 7:-0.994035 8:1 9:-1 10:-1 11:-1 13:-0.82 14:-1 
-0.6279961950522449 1:1 2:-0.941304 3:-0.982143 4:1 5:0.538462 6:-0.25 7:-0.976491 8:-1 9:1 10:-0.880597 11:-1 13:-0.84 14:-0.999687 
-1 1:-1 2:-0.687769 3:-0.851071 4:1 5:0.0769231 6:0.75 7:-0.807018 8:1 9:-1 10:-1 11:1 13:-0.64 14:-0.999961 
-1 1:1 2:-0.69791 3:-0.142857 4:1 5:-0.538462 6:-0.25 7:-0.842105 8:1 9:1 10:-0.940299 11:1 13:-0.88 14:-0.999804 
-1 1:1 2:-0.431469 3:-0.845357 4:1 5:0.0769231 6:-0.25 7:-0.894737 8:-1 9:-1 10:-1 11:-1 12:1 13:-0.88 14:-1 
-1 1:1 2:-0.851567 3:-0.5 4:1 5:0.0769231 6:-0.25 7:-0.964912 8:-1 9:-1 10:-1 11:-1 13:-1 14:-1 
-1 1:1 2:-0.139521 3:-0.839286 4:1 5:-0.692308 7:-0.947368 8:1 9:-1 10:-1 11:-1 13:-0.44 14:-1 
-1 1:1 2:-0.582667 3:-0.916786 4:1 5:-0.538462 6:-0.25 7:-0.964912 8:1 9:-1 10:-1 11:-1 12:-1 13:-0.72 14:-1 
-1 1:1 2:-0.208666 3:-0.839286 4:-1 5:1 6:0.75 7:-0.298246 8:1 9:-1 10:-1 11:1 13:-0.824 14:-1 
-1 1:1 2:1 3:-0.607143 4:1 5:0.0769231 6:-0.25 7:-0.962105 8:1 9:-1 10:-1 11:-1 13:-1 14:-0.986693 
-1 1:1 2:-0.390596 3:-0.758929 4:1 5:0.0769231 6:0.75 7:-0.418246 8:-1 9:-1 10:-1 11:1 13:-1 14:-1 
-0.545802259749632 1:1 2:-0.78488 3:-0.133929 4:1 5:0.0769231 6:-0.25 7:-0.765965 8:-1 9:1 10:-0.940299 11:1 13:-0.82 14:-0.993229 
-0.0008749716469324761 1:-1 2:-0.877074 3:-0.613214 4:1 5:-0.692308 6:0.75 7:-0.979649 8:-1 9:-1 10:-1 11:-1 13:-0.92 14:-0.981057 
-1 1:1 2:-0.959127 3:-0.991071 4:1 5:0.0769231 6:-0.25 7:-0.988421 8:-1 9:-1 10:-1 11:-1 13:-0.868 14:-1 
-1 1:-1 2:0.287953 3:-0.976071 4:1 5:-0.692308 7:-0.929825 8:1 9:-1 10:-1 11:1 13:-0.748 14:-0.914012 
-1 1:1 2:-0.96681 3:-0.940357 4:1 5:-0.0769231 6:-0.25 7:-0.994035 8:1 9:-1 10:-1 11:-1 12:-1 13:-0.8 14:-1 
-1 1:1 2:-0.106331 3:-0.964286 4:1 5:-0.0769231 6:-0.25 7:-0.245614 8:1 9:-1 10:-1 11:-1 12:-1 13:-0.6 14:-1 
-1 1:1 2:-0.472649 3:-0.464286 4:1 5:0.384615 7:-0.888772 8:1 9:-1 10:-1 11:1 12:-1 13:-0.58 14:-1 
-1 1:1 2:-0.851567 3:-0.211071 4:1 5:0.0769231 6:-0.25 7:-0.859649 8:-1 9:-1 10:-1 11:1 13:-0.864 14:-1 
-0.3806030611415797 1:-1 2:-0.979718 3:-0.455357 4:1 5:0.538462 6:-0.25 7:-0.991228 8:-1 9:1 10:-0.970149 11:1 13:-1 14:-0.993738 
-1 1:-1 2:0.0396434 3:-0.892857 4:1 5:-0.384615 6:-0.5 7:-1 8:1 9:-1 10:-1 11:1 13:-0.9 14:-0.998943 
-1 1:1 2:-0.830978 3:-0.622143 4:1 5:0.538462 6:-0.25 7:-0.973684 8:1 9:1 10:-0.970149 11:-1 13:-0.84 14:-1 
-1 1:-1 2:-0.280578 3:-0.642857 4:1 5:0.846154 6:-0.25 7:-0.0526316 8:1 9:-1 10:-1 11:1 13:-0.02 14:-1 
-0.1077402638939818 1:-1 2:-0.982176 3:-0.973214 4:1 5:0.0769231 6:-0.25 7:-0.929825 8:-1 9:-1 10:-1 11:-1 13:-0.88 14:-0.999295 
-1 1:1 2:-0.628765 3:-0.955357 4:1 5:-0.230769 6:-0.25 7:-0.96807 8:1 9:-1 10:-1 11:1 13:-0.8 14:-1 
-1 1:1 2:-0.869392 3:-0.892857 4:-1 5:0.846154 6:-0.25 7:-0.859649 8:1 9:-1 10:-1 11:1 13:-0.9 14:-0.999217 
-1 1:1 2:-0.418869 3:-0.535714 4:1 5:-0.230769 6:-0.25 7:-0.991228 8:1 9:-1 10:-1 11:1 13:-0.557 14:-1 
-1 1:1 2:-0.496005 3:-0.964286 4:1 5:0.0769231 7:-0.941404 8:1 9:-1 10:-1 11:1 12:-1 13:-0.68 14:-1 
-0.3801662670006598 1:-1 2:-0.864475 3:-0.9525 4:-1 5:0.0769231 6:-0.25 7:-0.929825 8:-1 9:1 10:-0.970149 11:-1 13:1 14:-0.999922 
-0.07366122711593671 1:-1 2:-0.34204 3:-0.979286 4:1 5:-1 6:-1 7:-1 8:-1 9:1 10:-0.701493 11:-1 13:-0.8 14:-0.999295 
-0.2861076711624416 1:1 2:-0.35464 3:0.294643 4:1 5:0.230769 6:-0.25 7:-0.994035 8:-1 9:-1 10:-1 11:-1 13:-0.68 14:-0.860978 
-1 1:-1 2:-0.774739 3:-0.392857 4:1 5:0.538462 6:-0.25 7:-0.877193 8:1 9:1 10:-0.701493 11:-1 13:-0.92 14:-0.961252 
-1 1:-1 2:-0.559619 3:-0.9225 4:-1 5:1 6:-0.25 7:-0.929825 8:-1 9:-1 10:-1 11:-1 13:-0.72 14:-0.999491 
