svm_type c_svc
kernel_type rbf
gamma 0.1
nr_class 2
total_sv 59
rho -0.379541
label 1 -1
nr_sv 31 28
SV
1 1:0.598213 2:-0.111111 3:-0.555556 4:-0.555556 5:-0.555556 6:-0.777778 7:-0.555556 8:-0.333333 9:-0.333333 10:-1 
1 1:0.607734 2:0.333333 3:-0.333333 4:0.111111 5:-0.333333 6:0.111111 7:-1 8:-0.333333 9:-0.555556 10:-1 
1 1:0.637293 2:-0.111111 3:-0.777778 4:-0.555556 5:-0.333333 6:-0.777778 7:0.333333 8:-0.555556 9:0.111111 10:-1 
1 1:0.679005 2:-0.777778 3:-0.111111 4:-0.555556 5:-0.555556 6:0.111111 7:0.333333 8:0.333333 9:-0.111111 10:-1 
0.9624050112191058 1:0.692478 2:1 3:-0.333333 4:-0.555556 5:-1 6:-0.555556 7:-0.555556 8:0.111111 9:-0.111111 10:-0.777778 
1 1:0.697481 2:-0.111111 3:0.111111 4:-0.111111 5:0.111111 6:1 7:-1 8:-0.555556 9:-1 10:-1 
0.8210965953368157 1:0.70695 2:0.777778 3:-0.111111 4:0.555556 5:-1 6:-0.777778 7:-0.555556 8:-0.777778 9:-1 10:-0.111111 
1 1:0.707079 2:-0.111111 3:-0.555556 4:-0.555556 5:-0.333333 6:-0.777778 7:-0.333333 8:-0.555556 9:-0.333333 10:-1 
1 1:0.714575 2:0.555556 3:-0.777778 4:-0.333333 5:-1 6:-0.111111 7:-1 8:-0.111111 9:-0.333333 10:-0.333333 
1 1:0.715302 2:-0.111111 3:-0.777778 4:-0.555556 5:-1 6:0.111111 7:1 8:-0.111111 9:-1 10:-1 
1 1:0.715993 2:0.777778 3:-0.111111 4:-0.111111 5:-0.777778 6:-0.777778 7:-0.777778 8:-0.111111 9:-1 10:-1 
1 1:0.718241 2:-0.111111 3:-0.555556 4:-0.111111 5:-0.111111 6:-0.555556 7:-0.555556 8:-0.333333 9:1 10:-1 
1 1:0.719629 2:0.111111 3:-0.555556 4:-0.333333 5:-1 6:-0.111111 7:-0.777778 8:-0.555556 9:0.777778 10:-1 
0.1376487360430517 1:0.721044 2:1 3:-0.333333 4:-0.777778 5:-1 6:-0.555556 7:-0.777778 8:-0.333333 9:-0.555556 10:1 
1 1:0.803437 2:-0.777778 3:-0.555556 4:-0.333333 5:-0.333333 6:-0.777778 7:-0.111111 8:-0.777778 9:-0.111111 10:-1 
1 1:0.80494 2:0.555556 3:-0.777778 4:-0.555556 5:-1 6:0.111111 7:-0.555556 8:0.333333 9:-1 10:-1 
1 1:0.806067 2:0.333333 3:-0.555556 4:-0.333333 5:-0.333333 6:-0.555556 7:-0.555556 8:-0.555556 9:-0.777778 10:0.333333 
1 1:0.833117 2:-0.555556 3:-0.333333 4:-0.111111 5:-0.777778 6:0.111111 7:0.555556 8:-0.333333 9:-1 10:-1 
0.06517571934372546 1:0.861217 2:-0.111111 3:-0.555556 4:-0.555556 5:-0.555556 6:0.111111 7:1 8:-0.555556 9:-1 10:-1 
1 1:0.899113 2:-0.333333 3:-1 4:-1 5:-0.555556 6:-1 7:-0.111111 8:-0.777778 9:-1 10:-1 
0.8857569714500811 1:-0.865939 2:0.555556 3:-0.333333 4:-0.333333 5:-1 6:-0.777778 7:0.777778 8:-0.555556 9:-0.555556 10:-1 
1 1:-0.579713 2:-0.555556 3:-0.555556 4:-0.111111 5:-0.777778 6:-0.555556 7:1 8:0.333333 9:-1 10:-1 
1 1:-0.579713 2:-0.555556 3:-0.555556 4:-0.111111 5:-0.777778 6:-0.555556 7:1 8:0.333333 9:-1 10:-1 
1 1:-0.402927 2:0.333333 3:-0.777778 4:-0.333333 5:-1 6:-0.555556 7:-0.333333 8:-0.555556 9:-0.555556 10:-1 
0.0009571001665158579 1:-0.306112 2:-1 3:-0.333333 4:-0.555556 5:1 6:-0.333333 7:1 8:-0.111111 9:0.111111 10:-1 
0.06237940234465584 1:-0.238886 2:1 3:1 4:1 5:1 6:1 7:1 8:-0.333333 9:1 10:1 
1 1:-0.215644 2:0.111111 3:-1 4:-0.555556 5:-1 6:-0.333333 7:-0.111111 8:-0.111111 9:1 10:-1 
0.1880945974571281 1:0.137906 2:0.555556 3:1 4:-0.555556 5:-0.777778 6:0.111111 7:-0.333333 8:-0.555556 9:1 10:-1 
1 1:0.255882 2:-0.555556 3:-0.333333 4:-0.333333 5:1 6:-0.111111 7:-1 8:-0.555556 9:-0.555556 10:-1 
1 1:0.299884 2:-0.111111 3:-0.555556 4:-0.555556 5:-1 6:-0.555556 7:-0.555556 8:-0.555556 9:-0.555556 10:-0.555556 
0.05943937973460124 1:-0.947168 2:0.111111 3:1 4:1 5:1 6:0.555556 7:1 8:0.333333 9:1 10:0.333333 
-1 1:0.534744 2:-0.111111 3:-0.333333 4:-0.333333 5:-0.111111 6:0.333333 7:1 8:-0.555556 9:-0.777778 10:-1 
-1 1:0.556521 2:0.111111 3:0.555556 4:0.555556 5:-1 6:-0.555556 7:-0.333333 8:-0.555556 9:0.333333 10:-1 
-1 1:0.559497 2:-1 3:-1 4:-1 5:-1 6:-0.777778 7:1 8:-0.555556 9:-1 10:-1 
-1 1:0.663535 2:0.111111 3:-0.777778 4:-1 5:-1 6:-1 7:-1 8:0.333333 9:-1 10:-1 
-0.4230627450975266 1:0.733545 2:-1 3:-0.555556 4:-0.555556 5:-0.777778 6:-0.777778 7:-1 8:0.333333 9:-0.777778 10:-1 
-1 1:0.813087 2:0.555556 3:-0.555556 4:-0.555556 5:-1 6:-0.777778 7:-0.777778 8:-0.555556 9:-0.777778 10:-1 
-0.1448968766477107 1:0.819891 2:-1 3:-1 4:-1 5:-1 6:1 7:-1 8:-1 9:-1 10:-1 
-1 1:0.836135 2:-0.555556 3:-1 4:-1 5:-0.555556 6:0.555556 7:-1 8:-0.111111 9:0.555556 10:-1 
-0.8150541764703091 1:0.852442 2:-1 3:-1 4:-1 5:-0.777778 6:-1 7:-0.555556 8:-1 9:-1 10:0.333333 
-1 1:0.878471 2:0.555556 3:-0.333333 4:-0.333333 5:-0.111111 6:-0.333333 7:0.333333 8:0.333333 9:0.555556 10:-0.777778 
-0.2183979618013189 1:0.878484 2:-0.111111 3:-1 4:-1 5:-0.333333 6:-0.777778 7:-1 8:-0.555556 9:-1 10:-1 
-1 1:0.895773 2:0.111111 3:-1 4:-0.555556 5:-1 6:-0.777778 7:-1 8:-0.555556 9:-1 10:-1 
-1 1:0.908414 2:0.555556 3:-0.333333 4:0.111111 5:-0.555556 6:-0.555556 7:-1 8:-0.333333 9:-0.555556 10:-1 
-1 1:0.915498 2:-0.555556 3:-0.555556 4:-0.777778 5:-1 6:-0.555556 7:-1 8:-0.555556 9:0.111111 10:-1 
-1 1:0.971748 2:-0.111111 3:-1 4:-0.555556 5:-0.555556 6:-0.777778 7:-0.777778 8:-0.777778 9:-0.555556 10:-1 
-0.9276329862871365 1:-0.894342 2:-1 3:-1 4:-1 5:-1 6:-0.777778 7:-0.111111 8:-0.111111 9:-1 10:-1 
-0.6539087667916789 1:-0.829871 2:-0.333333 3:-1 4:-1 5:-1 6:-0.777778 7:-1 8:-0.555556 9:0.111111 10:-1 
-1 1:0.557739 2:0.111111 3:-0.555556 4:-0.555556 5:-0.111111 6:-0.555556 7:1 8:-0.555556 9:-0.111111 10:-0.555556 
-1 1:-0.70664 2:-0.111111 3:0.333333 4:0.333333 5:-1 6:-0.111111 7:0.555556 8:-0.555556 9:-0.333333 10:-1 
-1 1:0.827881 2:-0.111111 3:-1 4:-0.333333 5:-1 6:-0.777778 7:-1 8:-0.555556 9:-0.777778 10:-1 
-1 1:-0.0969209 2:-0.111111 3:-0.555556 4:-0.333333 5:-0.555556 6:-0.333333 7:-0.111111 8:-0.333333 9:0.333333 10:-1 
-1 1:-0.0822836 2:0.555556 3:-0.777778 4:-1 5:-1 6:-0.111111 7:-1 8:-1 9:-1 10:-1 
-1 1:-0.00316563 2:-0.555556 3:-1 4:-1 5:-1 6:-0.777778 7:-0.111111 8:-0.111111 9:-1 10:-1 
-1 1:0.0749869 2:-0.333333 3:-0.333333 4:-0.333333 5:-0.333333 6:0.111111 7:-0.111111 8:0.333333 9:-0.555556 10:-1 
-1 1:0.27974 2:-0.555556 3:-0.333333 4:-0.111111 5:-0.555556 6:0.333333 7:-0.555556 8:-0.333333 9:0.111111 10:-1 
-1 1:0.347841 2:-0.333333 3:-0.333333 4:-0.333333 5:-0.777778 6:-0.777778 7:-0.555556 8:-0.777778 9:-1 10:-1 
-1 1:0.0169912 2:-0.111111 3:-0.555556 4:-0.333333 5:-1 6:-0.333333 7:-1 8:-0.555556 9:-1 10:-1 
-1 1:0.717078 2:-0.111111 3:-0.555556 4:-0.555556 5:-0.777778 6:-0.555556 7:-1 8:-0.555556 9:-1 10:-1 
