svm_type c_svc
kernel_type rbf
gamma 0.0769231
nr_class 2
total_sv 84
rho 0.33095
label 1 -1
nr_sv 41 43
SV
1 1:0.0952389 2:1 3:-0.333333 4:-0.433962 5:-0.383562 6:-1 7:-1 8:0.129032 9:-1 10:-0.857143 11:-1 12:-1 13:1 
0.9065664789615653 1:0.0476194 2:1 3:0.333333 4:-0.320755 5:-0.406393 6:1 7:1 8:0.145161 9:1 10:-0.714286 12:-0.333333 13:0.5 
1 1:0.285714 2:1 3:-1 4:-0.245283 5:-0.506849 6:-1 7:-1 8:0.193548 9:-1 10:0.238095 12:0.333333 13:-1 
0.1144726302575846 1:-0.0952377 2:1 3:1 4:-0.132075 5:-0.648402 6:1 7:1 8:0.354839 9:1 10:0.47619 11:1 12:-1 13:1 
1 1:0.142857 2:1 3:0.333333 4:-0.660377 5:-0.525114 6:-1 7:1 8:0.516129 9:-1 10:0.190477 12:-0.333333 13:1 
1 1:0.190477 2:1 3:-1 4:0.245283 5:-0.328767 6:-1 7:1 8:-0.129033 9:-1 10:-1 11:-1 12:-1 13:-1 
1 1:-0.714286 2:1 3:1 4:0.0943396 5:-0.557078 6:-1 7:-1 8:0.774193 9:-1 10:-1 11:-1 12:-1 13:1 
1 1:0.190477 2:1 3:0.333333 4:-0.396226 5:-0.579909 6:1 7:-1 8:0.016129 9:-1 10:0.0476182 12:-0.333333 13:0.5 
1 1:-0.285714 2:1 3:0.333333 4:-0.54717 5:-0.894977 6:-1 7:1 8:-0.112903 9:-1 10:-0.619047 11:-1 12:1 13:-1 
1 1:-0.523809 2:1 3:1 4:-0.698113 5:-0.675799 6:-1 7:1 8:0.709678 9:-1 10:-1 11:-1 12:-0.333333 13:-1 
0.06008314604740343 1:0.52381 2:1 3:-0.333333 4:0.245283 5:-0.452055 6:-1 7:-1 8:-0.209677 9:1 10:-1 12:1 13:0.5 
1 1:-0.619047 2:1 3:1 4:-0.207547 5:-0.136986 6:-1 7:-1 8:-0.129033 9:1 10:-0.142858 12:-1 13:0.5 
1 1:0.285714 2:1 3:1 4:-0.169811 5:-0.817352 6:-1 7:1 8:-0.129033 9:1 10:0.714285 12:-0.333333 13:-1 
1 1:0.190477 2:-1 3:1 4:0.509434 5:-0.438356 6:-1 7:-1 8:0.16129 9:1 10:-1 12:-1 13:-1 
1 1:0.333334 2:1 3:-0.333333 4:-0.509434 5:-0.292237 6:-1 7:1 8:-0.483871 9:-1 10:-0.333333 12:-0.333333 13:1 
1 1:-0.190476 2:-1 3:1 4:-0.320755 5:-0.182648 6:-1 7:-1 8:0.145161 9:1 10:-0.428571 12:-1 13:1 
1 1:0.142857 2:-1 3:-0.333333 4:-0.207547 5:-0.118721 6:1 7:1 8:0.306451 9:-1 10:-1 11:-1 12:0.333333 13:-1 
1 1:-0.380952 2:1 3:0.333333 4:-0.735849 5:-0.465753 6:-1 7:-1 8:0.306451 9:-1 10:-1 11:-1 12:-1 13:-1 
1 1:-0.952381 2:1 3:1 4:-0.509434 5:-0.671233 6:-1 7:-1 8:-0.0483872 9:1 10:-0.238095 12:-1 13:1 
0.8659937475157979 1:0.142857 2:1 3:1 4:0.0566038 5:-0.342466 6:-1 7:1 8:-0.354839 9:1 10:-0.619047 11:-1 12:-1 13:1 
0.5313902192953923 1:-0.238095 2:1 3:1 4:0.0566038 5:-0.465753 6:-1 7:1 8:-0.0806453 9:-1 10:0.238095 12:-1 13:1 
1 1:0.285714 2:-1 3:1 4:-0.320755 5:-0.0684932 6:-1 7:1 8:0.580645 9:-1 10:-1 11:-1 12:-1 13:-1 
1 1:-0.0476186 2:1 3:1 4:-0.698113 5:-0.634703 6:-1 7:1 8:-0.403226 9:1 10:-1 12:-0.333333 13:-1 
1 1:-0.380952 2:1 3:1 4:-0.698113 5:-0.319635 6:-1 7:1 8:-0.241936 9:1 10:-0.523809 12:-0.333333 13:-1 
1 1:0.142857 2:1 3:1 4:-0.886792 5:-0.506849 6:-1 7:-1 8:0.370968 9:-1 10:-0.952381 11:-1 12:-0.333333 13:1 
1 1:0.571429 2:1 3:1 4:-0.509434 5:-0.493151 6:-1 7:-1 8:-1 9:-1 10:-0.523809 12:-1 13:-1 
1 1:-0.333333 2:1 3:1 4:-0.433962 5:-0.324201 6:-1 7:1 8:0.532258 9:-1 10:-0.761905 12:-1 13:1 
1 1:0.238096 2:-1 3:1 4:0.0566038 5:-0.39726 6:-1 7:1 8:0.387097 9:-1 10:0.238095 12:0.333333 13:1 
1 1:0.190477 2:1 3:1 4:-0.132075 5:-0.767123 6:-1 7:-1 8:0.467742 9:1 10:-1 11:-1 12:-0.333333 13:1 
1 1:3.42857e-07 2:-1 3:1 4:0.622642 5:-0.0821918 6:-1 8:-0.258065 9:1 10:0.619047 12:-1 13:-1 
1 1:0.238096 2:-1 3:1 4:0.207547 5:-0.182648 6:-1 7:1 8:0.451613 9:-1 10:-1 11:-1 12:-1 13:-1 
1 1:-0.428571 2:1 3:1 4:-0.509434 5:-0.438356 6:-1 7:1 8:0.177419 9:-1 10:-0.619047 11:-1 12:-1 13:1 
0.1533626951714537 1:0.0476194 2:-1 3:1 4:1 5:-0.260274 6:1 7:1 8:-1.05645e-07 9:1 10:0.904762 11:1 12:0.333333 13:1 
0.4060664542709357 1:0.238096 2:1 3:1 4:-0.566038 5:-0.525114 6:1 7:-1 8:0.435484 9:1 10:-0.333333 11:-1 12:0.333333 13:1 
1 1:0.380953 2:-1 3:1 4:-0.735849 5:-0.347032 6:-1 7:-1 8:0.580645 9:1 10:-0.142858 12:0.333333 13:-1 
1 1:0.52381 2:1 3:1 4:-0.660377 5:-0.607306 6:-1 7:1 8:-0.0161292 9:1 10:-0.952381 11:-1 12:-0.333333 13:-1 
0.3113345977240027 1:0.428571 2:1 3:1 4:-0.509434 5:-0.452055 6:-1 7:1 8:-0.596775 9:1 10:0.0476182 11:1 12:-0.333333 13:-1 
1 1:0.0476194 2:1 3:1 4:-0.415094 5:-0.438356 6:1 7:1 8:0.177419 9:1 10:-0.428571 12:-0.333333 13:-1 
1 1:-0.238095 2:1 3:0.333333 4:-0.132075 5:-0.511416 6:-1 7:-1 8:0.483871 9:-1 10:-0.714286 12:-0.333333 13:1 
1 1:-0.0476186 2:1 3:-0.333333 4:0.849057 5:-0.283105 6:-1 7:1 8:1 9:-1 10:-1 11:-1 12:-0.333333 13:1 
1 1:-0.142857 2:1 3:1 4:-0.660377 5:-0.525114 6:-1 7:-1 8:0.435484 9:-1 10:-1 11:-1 12:-0.333333 13:-1 
-1 1:0.571429 2:-1 3:0.333333 4:-0.603774 5:1 6:-1 7:1 8:0.435484 9:-1 10:-0.238095 12:-1 13:1 
-1 1:0.428571 2:1 3:1 4:-0.358491 5:-0.374429 6:-1 7:-1 8:-0.451613 9:1 10:-0.904762 12:-0.333333 13:1 
-0.7101609506721475 1:0.904762 2:-1 3:-0.333333 4:-0.509434 5:-0.347032 6:-1 7:1 8:-0.193548 9:1 10:-0.904762 11:-1 12:-0.333333 13:-1 
-1 1:0.476191 2:1 3:1 4:-0.509434 5:-0.767123 6:-1 7:-1 8:0.112903 9:-1 10:-0.809524 11:-1 12:-1 13:1 
-1 1:0.190477 2:1 3:1 4:-0.226415 5:-0.506849 6:-1 7:-1 8:0.451613 9:-1 10:-0.761905 12:-1 13:1 
-1 1:-0.0952377 2:1 3:1 4:-0.0943396 5:-0.543379 6:-1 7:1 8:-0.354839 9:1 10:-1 11:-1 12:-1 13:1 
-1 1:0.0952389 2:-1 3:1 4:-0.358491 5:-0.191781 6:-1 7:1 8:0.419354 9:-1 10:-1 11:-1 12:-0.333333 13:-1 
-0.384240020417234 1:0.761905 2:-1 3:1 4:-0.660377 5:-0.894977 6:-1 7:-1 8:-0.129033 9:-1 10:-0.238095 12:-1 13:-1 
-1 1:-0.714286 2:1 3:-1 4:-0.132075 5:-0.666667 6:-1 7:-1 8:0.725806 9:1 10:-0.333333 11:-1 12:-1 13:1 
-1 1:-0.571429 2:1 3:1 4:-0.603774 5:-0.191781 6:-1 7:-1 8:0.774193 9:-1 10:-0.428571 12:-1 13:-1 
-1 1:-0.380952 2:1 3:1 4:-0.660377 5:-0.643836 6:-1 7:-1 8:0.16129 9:-1 10:-0.952381 11:-1 12:-1 13:-1 
-0.6094482464944402 1:-0.0476186 2:-1 3:-0.333333 4:-0.283019 5:-0.260274 6:1 7:1 8:0.419354 9:1 10:-1 11:-1 12:-0.333333 13:-1 
-1 1:-0.428571 2:-1 3:1 4:-0.169811 5:-0.465753 6:-1 7:1 8:0.306451 9:1 10:-1 12:-1 13:-1 
-0.6014037662358975 1:0.761905 2:-1 3:0.333333 4:-0.698113 5:-0.365297 6:1 7:1 8:-0.0483872 9:-1 10:-1 11:-1 12:-0.333333 13:-1 
-1 1:0.52381 2:1 3:1 4:0.245283 5:-0.534247 6:-1 7:1 8:0.0806451 9:-1 10:0.0952371 11:-1 12:-1 13:0.5 
-0.8423676367355502 1:-0.333333 2:1 3:1 4:-0.471698 5:-0.561644 6:-1 7:1 8:0.854838 9:-1 10:-1 11:-1 12:-1 13:-1 
-0.01590063293155347 1:-0.523809 2:1 3:0.333333 4:-0.320755 5:-0.511416 6:-1 7:-1 8:0.741935 9:1 10:-0.809524 11:-1 12:-1 13:-1 
-1 1:-0.428571 2:1 3:-0.333333 4:-0.867925 5:-0.675799 6:1 7:-1 8:0.370968 9:-1 10:-1 11:-1 12:-1 13:1 
-0.1996684086828607 1:0.142857 2:1 3:0.333333 4:-0.132075 5:-0.611872 6:1 7:1 8:0.516129 9:-1 10:-1 11:-1 12:-1 13:-1 
-0.4590781908782267 1:0.476191 2:-1 3:0.333333 4:-0.132075 5:0.328767 6:1 7:1 8:0.387097 9:-1 10:-0.619047 11:-1 12:-0.333333 13:-1 
-1 1:0.0952389 2:1 3:0.333333 4:0.0566038 5:-1 6:1 7:-1 8:0.645161 9:-1 10:-0.904762 11:-1 12:-0.333333 13:1 
-1 1:0.380953 2:1 3:-1 4:-0.0377358 5:-0.511416 6:1 7:1 8:0.274194 9:-1 10:0.0952371 11:1 12:-1 13:0.5 
-1 1:-0.190476 2:1 3:1 4:-0.132075 5:-0.383562 6:-1 7:1 8:0.854838 9:1 10:-1 11:-1 12:-1 13:-1 
-0.1938684519782671 1:-0.523809 2:-1 3:0.333333 4:-0.54717 5:-0.47032 6:-1 7:-1 8:0.258065 9:-1 10:-0.857143 12:-0.333333 13:-1 
-1 1:0.0952389 2:-1 3:1 4:-0.509434 5:0.0410959 6:-1 7:-1 8:0.483871 9:1 10:-0.714286 11:-1 12:-1 13:-1 
-1 1:0.571429 2:-1 3:1 4:-0.773585 5:-0.557078 6:-1 7:-1 8:0.145161 9:-1 10:-0.857143 11:-1 12:0.333333 13:-1 
-1 1:-0.47619 2:1 3:1 4:-0.811321 5:-0.625571 6:-1 7:1 8:0.241936 9:1 10:0.428571 12:-1 13:-1 
-0.7411240786545673 1:-0.666666 2:1 3:0.333333 4:-0.320755 5:-0.598174 6:-1 7:1 8:0.564516 9:-1 10:-0.0476197 12:-1 13:-1 
-1 1:0.0952389 2:1 3:1 4:-0.698113 5:-0.657534 6:-1 7:-1 8:-0.112903 9:1 10:-0.285714 12:-1 13:0.5 
-1 1:-0.619047 2:1 3:-1 4:0.0188679 5:-0.461187 6:-1 7:1 8:0.725806 9:-1 10:-0.619047 11:-1 12:0.333333 13:-1 
-1 1:0.190477 2:1 3:-1 4:0.584906 5:-0.342466 6:-1 7:1 8:0.193548 9:-1 10:1 11:1 12:-1 13:1 
-1 1:0.52381 2:1 3:1 4:-0.509434 5:-0.196347 6:-1 7:1 8:0.290322 9:-1 10:-0.809524 12:-1 13:-1 
-1 1:0.428571 2:-1 3:0.333333 4:-0.132075 5:-0.146119 6:-1 7:-1 8:-1.05645e-07 9:-1 10:-0.904762 11:-1 12:-1 13:1 
-1 1:-0.190476 2:1 3:0.333333 4:-0.886792 5:-0.561644 6:-1 7:-1 8:0.16129 9:1 10:-0.428571 12:-1 13:-1 
-0.2015355886771218 1:0.52381 2:-1 3:-1 4:0.0566038 5:-0.543379 6:-1 7:-1 8:-0.306451 9:-1 10:0.238095 11:1 12:-1 13:-1 
-1 1:-0.0476186 2:1 3:0.333333 4:-0.415094 5:-0.328767 6:-1 7:1 8:0.306451 9:-1 10:-0.761905 11:1 12:-0.333333 13:-1 
-1 1:-0.142857 2:1 3:-0.333333 4:-0.245283 5:-0.657534 6:-1 7:-1 8:0.403225 9:-1 10:-0.619047 11:-1 12:-0.333333 13:-1 
-0.3904739968862695 1:-0.619047 2:1 3:1 4:-0.132075 5:-0.543379 6:-1 7:-1 8:0.725806 9:-1 10:-1 11:-1 12:-1 13:-1 
-1 1:-0.0476186 2:1 3:0.333333 4:0.0566038 5:-0.515982 6:-1 7:1 8:0.516129 9:-1 10:-0.238095 11:-1 12:-1 13:1 
-1 1:-0.428571 2:-1 3:0.333333 4:-0.0943396 5:-0.767123 6:-1 7:1 8:0.435484 9:1 10:-0.333333 11:1 12:-1 13:-1 
-1 1:0.0952389 2:1 3:1 4:-0.283019 5:-0.630137 6:-1 7:-1 8:0.564516 9:1 10:-1 11:-1 12:-1 13:1 
-1 1:0.190477 2:1 3:1 4:-0.169811 5:-0.3379 6:-1 7:1 8:0.790322 9:-1 10:-1 11:-1 12:-1 13:-1 
-1 1:-0.190476 2:1 3:-1 4:-0.415094 5:-0.60274 6:-1 7:1 8:-0.129033 9:1 10:-0.333333 11:-1 12:-0.333333 13:-1 
