svm_type c_svc
kernel_type rbf
gamma 0.5
nr_class 2
total_sv 131
rho 5.4994
label 1 -1
nr_sv 66 65
SV
1 1:0.287077 2:0.402175 
1 1:0.247894 2:0.395129 
1 1:-0.297246 2:0.375751 
1 1:0.451619 2:-0.111045 
1 1:0.513571 2:-0.0498391 
1 1:-0.26621 2:0.384379 
1 1:0.119481 2:-0.45279 
1 1:0.170851 2:0.451162 
1 1:0.175435 2:-0.442924 
1 1:-0.417416 2:0.236615 
0.5795467918615058 1:-0.209225 2:0.402172 
1 1:-0.458331 2:-0.0970001 
1 1:0.451596 2:0.122017 
1 1:-0.437989 2:0.126497 
1 1:0.435966 2:-0.234816 
1 1:0.0898255 2:0.464564 
1 1:0.315264 2:0.350365 
1 1:-0.382418 2:-0.275846 
1 1:-0.432684 2:-0.202813 
1 1:-0.0697285 2:0.562134 
1 1:0.0763135 2:-0.460459 
1 1:-0.21197 2:-0.394955 
1 1:-0.254046 2:0.427619 
1 1:0.300689 2:-0.362512 
1 1:-0.0562051 2:0.489275 
1 1:-0.215976 2:0.411646 
1 1:-0.190078 2:-0.41144 
1 1:0.154503 2:-0.461323 
1 1:-0.500133 2:0.0469089 
1 1:0.17248 2:-0.472472 
1 1:0.151577 2:0.44688 
1 1:-0.480378 2:0.10936 
1 1:0.397342 2:0.295095 
1 1:0.182332 2:0.446969 
1 1:0.434675 2:-0.196485 
1 1:0.420207 2:-0.19666 
1 1:-0.326157 2:-0.345438 
1 1:0.376259 2:-0.25714 
1 1:-0.172316 2:-0.494842 
1 1:-0.0137935 2:-0.514465 
1 1:-0.446363 2:0.140477 
1 1:0.394905 2:-0.229787 
0.18810829239877 1:-0.185174 2:-0.405868 
0.40591103462906 1:0.458614 2:0.0398501 
1 1:0.399416 2:-0.254595 
0.08465402044355216 1:0.321264 2:-0.319611 
1 1:-0.453115 2:-0.126208 
1 1:0.422324 2:-0.187767 
1 1:0.230193 2:-0.420927 
1 1:0.0747363 2:0.480283 
1 1:0.46255 2:0.157435 
1 1:-0.301986 2:-0.369001 
1 1:-0.441541 2:0.106933 
1 1:0.245648 2:-0.418555 
1 1:0.317482 2:-0.343906 
1 1:0.180244 2:0.464648 
1 1:0.151155 2:0.45024 
1 1:-0.406973 2:0.30307 
1 1:0.455053 2:-0.221903 
1 1:0.0190988 2:0.466149 
1 1:0.0376398 2:0.521408 
1 1:0.449388 2:0.22672 
1 1:-0.305495 2:0.345904 
1 1:-0.477207 2:-0.0837519 
1 1:-0.0325087 2:0.576172 
1 1:0.473552 2:0.0223816 
-1 1:0.689614 2:0.302264 
-1 1:-0.580327 2:0.453073 
-1 1:-0.154516 2:-0.71888 
-0.1318735287966963 1:-0.110009 2:-0.735402 
-1 1:-0.0775973 2:-0.698492 
-1 1:0.593247 2:0.390566 
-1 1:0.752371 2:0.040957 
-1 1:0.419284 2:-0.540366 
-1 1:-0.497923 2:-0.536931 
-1 1:0.671723 2:0.333019 
-1 1:-0.260809 2:0.697657 
-1 1:0.162436 2:-0.717906 
-1 1:-0.721652 2:-0.0110267 
-1 1:-0.0791864 2:0.726539 
-1 1:0.571674 2:0.390747 
-1 1:0.329787 2:-0.673434 
-1 1:0.327927 2:-0.607003 
-1 1:-0.452935 2:-0.565001 
-1 1:-0.432927 2:-0.569054 
-1 1:0.268225 2:0.684902 
-1 1:-0.0617594 2:-0.728169 
-1 1:-0.36003 2:0.612125 
-0.6532583491049657 1:0.527519 2:-0.54236 
-1 1:0.710728 2:0.258726 
-1 1:0.446568 2:-0.579019 
-1 1:-0.737296 2:0.0695445 
-1 1:0.00788331 2:0.731747 
-0.7188967633238784 1:0.331061 2:0.689584 
-1 1:-0.194804 2:0.688764 
-1 1:0.691313 2:0.157767 
-1 1:0.751674 2:-0.0695076 
-1 1:0.660477 2:0.256395 
-1 1:-0.584523 2:0.440293 
-1 1:0.0272439 2:0.753227 
-1 1:-0.392818 2:0.601667 
-1 1:0.731031 2:-0.0205034 
-1 1:-0.120022 2:0.736045 
-1 1:-0.700018 2:-0.145695 
-0.8336015419987073 1:0.759301 2:0.036702 
-1 1:-0.315619 2:-0.659101 
-1 1:0.718534 2:0.135405 
-1 1:0.333094 2:0.676237 
-1 1:0.201448 2:-0.699476 
-1 1:-0.203479 2:0.715811 
-1 1:-0.738287 2:0.00624427 
-0.9205899561086399 1:-0.642161 2:0.393592 
-1 1:-0.426578 2:-0.586989 
-1 1:-0.691342 2:-0.268133 
-1 1:-0.364906 2:0.650438 
-1 1:-0.735971 2:0.177541 
-1 1:0.615099 2:-0.373363 
-1 1:-0.693893 2:0.019017 
-1 1:0.693653 2:-0.140177 
-1 1:-0.718782 2:0.230868 
-1 1:-0.00146719 2:-0.733538 
-1 1:-0.206711 2:0.706028 
-1 1:-0.433662 2:0.529772 
-1 1:0.569015 2:0.462762 
-1 1:-0.0814369 2:0.72457 
-1 1:0.445389 2:-0.594103 
-1 1:0.55836 2:-0.479443 
-1 1:0.408179 2:0.646395 
-1 1:0.198043 2:-0.716074 
-1 1:-0.239507 2:-0.66141 
-1 1:0.636523 2:-0.271379 
